{
  "model": "google/gemma-2-2b",
  "layers": [
    5,
    10,
    13,
    17,
    20,
    22,
    24
  ],
  "alphas": [
    -2.0,
    -1.0,
    0.0,
    1.0,
    2.0
  ],
  "subset_per_z": 20,
  "per_pair": {
    "height": {
      "layer_5": {
        "norm_primal": 2.002671718597412,
        "primal_slope": -0.00012500286102302375,
        "primal_means_per_alpha": {
          "-2.0": 0.6625000238418579,
          "-1.0": 0.6700000166893005,
          "0.0": 0.6625000238418579,
          "1.0": 0.668749988079071,
          "2.0": 0.6625000238418579
        },
        "probe_slope": 0.0016249954700469473,
        "probe_means_per_alpha": {
          "-2.0": 0.6625000238418579,
          "-1.0": 0.6662499904632568,
          "0.0": 0.6625000238418579,
          "1.0": 0.6600000262260437,
          "2.0": 0.6737499833106995
        }
      },
      "layer_10": {
        "norm_primal": 7.465435028076172,
        "primal_slope": -0.00012500882148746122,
        "primal_means_per_alpha": {
          "-2.0": 0.6575000286102295,
          "-1.0": 0.6612499952316284,
          "0.0": 0.6625000238418579,
          "1.0": 0.6650000214576721,
          "2.0": 0.6549999713897705
        },
        "probe_slope": -0.011124992370605508,
        "probe_means_per_alpha": {
          "-2.0": 0.6812499761581421,
          "-1.0": 0.6737499833106995,
          "0.0": 0.6625000238418579,
          "1.0": 0.6524999737739563,
          "2.0": 0.6362500190734863
        }
      },
      "layer_13": {
        "norm_primal": 23.416702270507812,
        "primal_slope": 0.42475000917911526,
        "primal_means_per_alpha": {
          "-2.0": -0.1862500011920929,
          "-1.0": 0.2175000011920929,
          "0.0": 0.6625000238418579,
          "1.0": 1.152500033378601,
          "2.0": 1.4700000286102295
        },
        "probe_slope": 0.04387499094009394,
        "probe_means_per_alpha": {
          "-2.0": 0.5550000071525574,
          "-1.0": 0.6262500286102295,
          "0.0": 0.6625000238418579,
          "1.0": 0.6974999904632568,
          "2.0": 0.7387499809265137
        }
      },
      "layer_17": {
        "norm_primal": 39.361167907714844,
        "primal_slope": 1.3783749938011167,
        "primal_means_per_alpha": {
          "-2.0": -1.6037499904632568,
          "-1.0": -0.7549999952316284,
          "0.0": 0.6625000238418579,
          "1.0": 2.2987499237060547,
          "2.0": 3.7612500190734863
        },
        "probe_slope": 0.10650000572204585,
        "probe_means_per_alpha": {
          "-2.0": 0.4312500059604645,
          "-1.0": 0.5462499856948853,
          "0.0": 0.6625000238418579,
          "1.0": 0.7737500071525574,
          "2.0": 0.8500000238418579
        }
      },
      "layer_20": {
        "norm_primal": 58.688941955566406,
        "primal_slope": 1.7937500178813932,
        "primal_means_per_alpha": {
          "-2.0": -2.319999933242798,
          "-1.0": -0.981249988079071,
          "0.0": 0.6625000238418579,
          "1.0": 2.6137499809265137,
          "2.0": 4.851250171661377
        },
        "probe_slope": 0.07225000858306875,
        "probe_means_per_alpha": {
          "-2.0": 0.5874999761581421,
          "-1.0": 0.6162499785423279,
          "0.0": 0.6625000238418579,
          "1.0": 0.7637500166893005,
          "2.0": 0.875
        }
      },
      "layer_22": {
        "norm_primal": 78.64153289794922,
        "primal_slope": 2.2022499799728394,
        "primal_means_per_alpha": {
          "-2.0": -2.757499933242798,
          "-1.0": -1.1449999809265137,
          "0.0": 0.6625000238418579,
          "1.0": 3.015000104904175,
          "2.0": 6.173749923706055
        },
        "probe_slope": 0.057499998807907036,
        "probe_means_per_alpha": {
          "-2.0": 0.5362499952316284,
          "-1.0": 0.6012499928474426,
          "0.0": 0.6625000238418579,
          "1.0": 0.7087500095367432,
          "2.0": 0.7699999809265137
        }
      },
      "layer_24": {
        "norm_primal": 87.94937896728516,
        "primal_slope": 2.0578750014305114,
        "primal_means_per_alpha": {
          "-2.0": -2.6237499713897705,
          "-1.0": -1.1200000047683716,
          "0.0": 0.6625000238418579,
          "1.0": 2.8712499141693115,
          "2.0": 5.670000076293945
        },
        "probe_slope": -0.05400000214576726,
        "probe_means_per_alpha": {
          "-2.0": 0.7987499833106995,
          "-1.0": 0.731249988079071,
          "0.0": 0.6625000238418579,
          "1.0": 0.6187499761581421,
          "2.0": 0.5849999785423279
        }
      }
    },
    "age": {
      "layer_5": {
        "norm_primal": 1.1636277437210083,
        "primal_slope": -0.0012499988079071372,
        "primal_means_per_alpha": {
          "-2.0": 0.8525000214576721,
          "-1.0": 0.8537499904632568,
          "0.0": 0.8399999737739563,
          "1.0": 0.8462499976158142,
          "2.0": 0.8500000238418579
        },
        "probe_slope": 0.00650000572204582,
        "probe_means_per_alpha": {
          "-2.0": 0.8374999761581421,
          "-1.0": 0.8424999713897705,
          "0.0": 0.8399999737739563,
          "1.0": 0.8600000143051147,
          "2.0": 0.8612499833106995
        }
      },
      "layer_10": {
        "norm_primal": 6.332047939300537,
        "primal_slope": 0.04362499713897697,
        "primal_means_per_alpha": {
          "-2.0": 0.7512500286102295,
          "-1.0": 0.7925000190734863,
          "0.0": 0.8399999737739563,
          "1.0": 0.8812500238418579,
          "2.0": 0.925000011920929
        },
        "probe_slope": 0.00550000071525568,
        "probe_means_per_alpha": {
          "-2.0": 0.824999988079071,
          "-1.0": 0.8362500071525574,
          "0.0": 0.8399999737739563,
          "1.0": 0.84375,
          "2.0": 0.8487499952316284
        }
      },
      "layer_13": {
        "norm_primal": 18.36098861694336,
        "primal_slope": 0.29599999189376824,
        "primal_means_per_alpha": {
          "-2.0": 0.26124998927116394,
          "-1.0": 0.5400000214576721,
          "0.0": 0.8399999737739563,
          "1.0": 1.149999976158142,
          "2.0": 1.4362499713897705
        },
        "probe_slope": 0.08300000429153438,
        "probe_means_per_alpha": {
          "-2.0": 0.6737499833106995,
          "-1.0": 0.7537500262260437,
          "0.0": 0.8399999737739563,
          "1.0": 0.9287499785423279,
          "2.0": 1.0012500286102295
        }
      },
      "layer_17": {
        "norm_primal": 31.472719192504883,
        "primal_slope": 1.3876250028610226,
        "primal_means_per_alpha": {
          "-2.0": -1.5525000095367432,
          "-1.0": -0.5012500286102295,
          "0.0": 0.8399999737739563,
          "1.0": 2.380000114440918,
          "2.0": 3.944999933242798
        },
        "probe_slope": -0.03925000429153448,
        "probe_means_per_alpha": {
          "-2.0": 0.9325000047683716,
          "-1.0": 0.8737499713897705,
          "0.0": 0.8399999737739563,
          "1.0": 0.8062499761581421,
          "2.0": 0.7699999809265137
        }
      },
      "layer_20": {
        "norm_primal": 42.23430633544922,
        "primal_slope": 1.7706249475479123,
        "primal_means_per_alpha": {
          "-2.0": -2.319999933242798,
          "-1.0": -0.7825000286102295,
          "0.0": 0.8399999737739563,
          "1.0": 2.6787500381469727,
          "2.0": 4.802499771118164
        },
        "probe_slope": 0.019499999284744253,
        "probe_means_per_alpha": {
          "-2.0": 0.7900000214576721,
          "-1.0": 0.8125,
          "0.0": 0.8399999737739563,
          "1.0": 0.862500011920929,
          "2.0": 0.862500011920929
        }
      },
      "layer_22": {
        "norm_primal": 57.77048873901367,
        "primal_slope": 1.840124982595444,
        "primal_means_per_alpha": {
          "-2.0": -2.418750047683716,
          "-1.0": -0.8462499976158142,
          "0.0": 0.8399999737739563,
          "1.0": 2.75,
          "2.0": 4.983749866485596
        },
        "probe_slope": -0.005500006675720223,
        "probe_means_per_alpha": {
          "-2.0": 0.7649999856948853,
          "-1.0": 0.8137500286102295,
          "0.0": 0.8399999737739563,
          "1.0": 0.8012499809265137,
          "2.0": 0.7437499761581421
        }
      },
      "layer_24": {
        "norm_primal": 67.37157440185547,
        "primal_slope": 1.7286250174045559,
        "primal_means_per_alpha": {
          "-2.0": -2.418750047683716,
          "-1.0": -0.8199999928474426,
          "0.0": 0.8399999737739563,
          "1.0": 2.606250047683716,
          "2.0": 4.511250019073486
        },
        "probe_slope": 0.18424998521804803,
        "probe_means_per_alpha": {
          "-2.0": 0.4762499928474426,
          "-1.0": 0.6575000286102295,
          "0.0": 0.8399999737739563,
          "1.0": 1.0299999713897705,
          "2.0": 1.2112499475479126
        }
      }
    },
    "weight": {
      "layer_5": {
        "norm_primal": 1.035444736480713,
        "primal_slope": 0.0005000114440917439,
        "primal_means_per_alpha": {
          "-2.0": 1.524999976158142,
          "-1.0": 1.5437500476837158,
          "0.0": 1.537500023841858,
          "1.0": 1.53125,
          "2.0": 1.533750057220459
        },
        "probe_slope": -0.00012500286102298865,
        "probe_means_per_alpha": {
          "-2.0": 1.5362499952316284,
          "-1.0": 1.5299999713897705,
          "0.0": 1.537500023841858,
          "1.0": 1.53125,
          "2.0": 1.534999966621399
        }
      },
      "layer_10": {
        "norm_primal": 5.715043544769287,
        "primal_slope": 0.0076249957084654615,
        "primal_means_per_alpha": {
          "-2.0": 1.5212500095367432,
          "-1.0": 1.5325000286102295,
          "0.0": 1.537500023841858,
          "1.0": 1.5462499856948853,
          "2.0": 1.5525000095367432
        },
        "probe_slope": 0.058374977111816356,
        "probe_means_per_alpha": {
          "-2.0": 1.4137500524520874,
          "-1.0": 1.475000023841858,
          "0.0": 1.537500023841858,
          "1.0": 1.5987499952316284,
          "2.0": 1.6437499523162842
        }
      },
      "layer_13": {
        "norm_primal": 23.04256248474121,
        "primal_slope": 0.6166249990463255,
        "primal_means_per_alpha": {
          "-2.0": 0.3125,
          "-1.0": 0.8862500190734863,
          "0.0": 1.537500023841858,
          "1.0": 2.2174999713897705,
          "2.0": 2.7300000190734863
        },
        "probe_slope": 0.10700000524520863,
        "probe_means_per_alpha": {
          "-2.0": 1.2962499856948853,
          "-1.0": 1.4199999570846558,
          "0.0": 1.537500023841858,
          "1.0": 1.6449999809265137,
          "2.0": 1.71875
        }
      },
      "layer_17": {
        "norm_primal": 39.43525695800781,
        "primal_slope": 1.9359999716281893,
        "primal_means_per_alpha": {
          "-2.0": -2.266249895095825,
          "-1.0": -0.7674999833106995,
          "0.0": 1.537500023841858,
          "1.0": 3.7125000953674316,
          "2.0": 5.173749923706055
        },
        "probe_slope": 0.2347500205039977,
        "probe_means_per_alpha": {
          "-2.0": 1.056249976158142,
          "-1.0": 1.2899999618530273,
          "0.0": 1.537500023841858,
          "1.0": 1.777500033378601,
          "2.0": 1.9862500429153442
        }
      },
      "layer_20": {
        "norm_primal": 63.55891799926758,
        "primal_slope": 2.232624983787537,
        "primal_means_per_alpha": {
          "-2.0": -2.9200000762939453,
          "-1.0": -0.9574999809265137,
          "0.0": 1.537500023841858,
          "1.0": 3.9412500858306885,
          "2.0": 5.793749809265137
        },
        "probe_slope": 0.10687499046325677,
        "probe_means_per_alpha": {
          "-2.0": 1.1299999952316284,
          "-1.0": 1.4075000286102295,
          "0.0": 1.537500023841858,
          "1.0": 1.5737500190734863,
          "2.0": 1.5812499523162842
        }
      },
      "layer_22": {
        "norm_primal": 80.6510238647461,
        "primal_slope": 2.5422499895095823,
        "primal_means_per_alpha": {
          "-2.0": -3.9962499141693115,
          "-1.0": -1.2287499904632568,
          "0.0": 1.537500023841858,
          "1.0": 4.103750228881836,
          "2.0": 6.048749923706055
        },
        "probe_slope": 0.5189999759197235,
        "probe_means_per_alpha": {
          "-2.0": 0.3762499988079071,
          "-1.0": 1.0137499570846558,
          "0.0": 1.537500023841858,
          "1.0": 2.026249885559082,
          "2.0": 2.4649999141693115
        }
      },
      "layer_24": {
        "norm_primal": 89.30896759033203,
        "primal_slope": 2.609124994277954,
        "primal_means_per_alpha": {
          "-2.0": -3.40625,
          "-1.0": -1.0512499809265137,
          "0.0": 1.537500023841858,
          "1.0": 4.277500152587891,
          "2.0": 6.974999904632568
        },
        "probe_slope": 0.7968749918043612,
        "probe_means_per_alpha": {
          "-2.0": -0.05000000074505806,
          "-1.0": 0.731249988079071,
          "0.0": 1.537500023841858,
          "1.0": 2.3550000190734863,
          "2.0": 3.122499942779541
        }
      }
    },
    "size": {
      "layer_5": {
        "norm_primal": 0.6404563188552856,
        "primal_slope": 0.00024995803833047746,
        "primal_means_per_alpha": {
          "-2.0": -2.797499895095825,
          "-1.0": -2.802500009536743,
          "0.0": -2.8062500953674316,
          "1.0": -2.805000066757202,
          "2.0": -2.7950000762939453
        },
        "probe_slope": -0.002000021934508945,
        "probe_means_per_alpha": {
          "-2.0": -2.799999952316284,
          "-1.0": -2.7950000762939453,
          "0.0": -2.8062500953674316,
          "1.0": -2.805000066757202,
          "2.0": -2.805000066757202
        }
      },
      "layer_10": {
        "norm_primal": 4.7307844161987305,
        "primal_slope": 0.03150002956390392,
        "primal_means_per_alpha": {
          "-2.0": -2.858750104904175,
          "-1.0": -2.831249952316284,
          "0.0": -2.8062500953674316,
          "1.0": -2.7587499618530273,
          "2.0": -2.737499952316284
        },
        "probe_slope": -0.02137503623962377,
        "probe_means_per_alpha": {
          "-2.0": -2.7587499618530273,
          "-1.0": -2.788749933242798,
          "0.0": -2.8062500953674316,
          "1.0": -2.827500104904175,
          "2.0": -2.846250057220459
        }
      },
      "layer_13": {
        "norm_primal": 18.41643714904785,
        "primal_slope": 0.6197499752044678,
        "primal_means_per_alpha": {
          "-2.0": -4.054999828338623,
          "-1.0": -3.442500114440918,
          "0.0": -2.8062500953674316,
          "1.0": -2.1675000190734863,
          "2.0": -1.59375
        },
        "probe_slope": 0.07399997711181673,
        "probe_means_per_alpha": {
          "-2.0": -2.9574999809265137,
          "-1.0": -2.8837499618530273,
          "0.0": -2.8062500953674316,
          "1.0": -2.723750114440918,
          "2.0": -2.6675000190734863
        }
      },
      "layer_17": {
        "norm_primal": 30.16831398010254,
        "primal_slope": 2.1318749666213987,
        "primal_means_per_alpha": {
          "-2.0": -6.887499809265137,
          "-1.0": -4.951250076293945,
          "0.0": -2.8062500953674316,
          "1.0": -0.6050000190734863,
          "2.0": 1.5987499952316284
        },
        "probe_slope": -0.052625012397766076,
        "probe_means_per_alpha": {
          "-2.0": -2.5924999713897705,
          "-1.0": -2.7149999141693115,
          "0.0": -2.8062500953674316,
          "1.0": -2.8262500762939453,
          "2.0": -2.799999952316284
        }
      },
      "layer_20": {
        "norm_primal": 38.44025802612305,
        "primal_slope": 2.439624986052513,
        "primal_means_per_alpha": {
          "-2.0": -7.691249847412109,
          "-1.0": -5.216249942779541,
          "0.0": -2.8062500953674316,
          "1.0": -0.4000000059604645,
          "2.0": 2.098750114440918
        },
        "probe_slope": 0.04912497997283944,
        "probe_means_per_alpha": {
          "-2.0": -2.8837499618530273,
          "-1.0": -2.84375,
          "0.0": -2.8062500953674316,
          "1.0": -2.742500066757202,
          "2.0": -2.6887500286102295
        }
      },
      "layer_22": {
        "norm_primal": 47.89457702636719,
        "primal_slope": 2.6787500113248823,
        "primal_means_per_alpha": {
          "-2.0": -8.125,
          "-1.0": -5.391250133514404,
          "0.0": -2.8062500953674316,
          "1.0": -0.1862500011920929,
          "2.0": 2.666249990463257
        },
        "probe_slope": -0.28275001049041737,
        "probe_means_per_alpha": {
          "-2.0": -2.3524999618530273,
          "-1.0": -2.5425000190734863,
          "0.0": -2.8062500953674316,
          "1.0": -3.117500066757202,
          "2.0": -3.478749990463257
        }
      },
      "layer_24": {
        "norm_primal": 52.58753967285156,
        "primal_slope": 2.6127500593662267,
        "primal_means_per_alpha": {
          "-2.0": -8.166250228881836,
          "-1.0": -5.414999961853027,
          "0.0": -2.8062500953674316,
          "1.0": -0.2524999976158142,
          "2.0": 2.3162500858306885
        },
        "probe_slope": -0.015250039100646843,
        "probe_means_per_alpha": {
          "-2.0": -2.7774999141693115,
          "-1.0": -2.7774999141693115,
          "0.0": -2.8062500953674316,
          "1.0": -2.8350000381469727,
          "2.0": -2.825000047683716
        }
      }
    },
    "speed": {
      "layer_5": {
        "norm_primal": 1.021376132965088,
        "primal_slope": -0.0003750000149011626,
        "primal_means_per_alpha": {
          "-2.0": 0.017500000074505806,
          "-1.0": 0.017500000074505806,
          "0.0": 0.019999999552965164,
          "1.0": 0.021250000223517418,
          "2.0": 0.013749999925494194
        },
        "probe_slope": -0.0026250001043081296,
        "probe_means_per_alpha": {
          "-2.0": 0.01875000074505806,
          "-1.0": 0.017500000074505806,
          "0.0": 0.019999999552965164,
          "1.0": 0.011250000447034836,
          "2.0": 0.008750000037252903
        }
      },
      "layer_10": {
        "norm_primal": 4.514805316925049,
        "primal_slope": -0.024625000543892384,
        "primal_means_per_alpha": {
          "-2.0": 0.07500000298023224,
          "-1.0": 0.04874999821186066,
          "0.0": 0.019999999552965164,
          "1.0": -0.009999999776482582,
          "2.0": -0.01875000074505806
        },
        "probe_slope": 0.015499999793246386,
        "probe_means_per_alpha": {
          "-2.0": -0.009999999776482582,
          "-1.0": -0.0024999999441206455,
          "0.0": 0.019999999552965164,
          "1.0": 0.029999999329447746,
          "2.0": 0.051249999552965164
        }
      },
      "layer_13": {
        "norm_primal": 15.930643081665039,
        "primal_slope": 0.17374999970197674,
        "primal_means_per_alpha": {
          "-2.0": -0.38999998569488525,
          "-1.0": -0.17749999463558197,
          "0.0": 0.019999999552965164,
          "1.0": 0.1850000023841858,
          "2.0": 0.29750001430511475
        },
        "probe_slope": 0.061625000461935996,
        "probe_means_per_alpha": {
          "-2.0": -0.10999999940395355,
          "-1.0": -0.04374999925494194,
          "0.0": 0.019999999552965164,
          "1.0": 0.07750000059604645,
          "2.0": 0.13750000298023224
        }
      },
      "layer_17": {
        "norm_primal": 27.50796127319336,
        "primal_slope": 1.2790000438690183,
        "primal_means_per_alpha": {
          "-2.0": -2.671250104904175,
          "-1.0": -1.3037500381469727,
          "0.0": 0.019999999552965164,
          "1.0": 1.28125,
          "2.0": 2.4312500953674316
        },
        "probe_slope": 0.047124999761581424,
        "probe_means_per_alpha": {
          "-2.0": -0.09125000238418579,
          "-1.0": -0.032499998807907104,
          "0.0": 0.019999999552965164,
          "1.0": 0.04625000059604645,
          "2.0": 0.10499999672174454
        }
      },
      "layer_20": {
        "norm_primal": 34.56877136230469,
        "primal_slope": 1.405999970436096,
        "primal_means_per_alpha": {
          "-2.0": -2.8837499618530273,
          "-1.0": -1.3574999570846558,
          "0.0": 0.019999999552965164,
          "1.0": 1.3799999952316284,
          "2.0": 2.7774999141693115
        },
        "probe_slope": 0.17024999558925633,
        "probe_means_per_alpha": {
          "-2.0": -0.32499998807907104,
          "-1.0": -0.16249999403953552,
          "0.0": 0.019999999552965164,
          "1.0": 0.1850000023841858,
          "2.0": 0.35249999165534973
        }
      },
      "layer_22": {
        "norm_primal": 45.54886245727539,
        "primal_slope": 1.5521249651908875,
        "primal_means_per_alpha": {
          "-2.0": -3.069999933242798,
          "-1.0": -1.4824999570846558,
          "0.0": 0.019999999552965164,
          "1.0": 1.5537500381469727,
          "2.0": 3.172499895095825
        },
        "probe_slope": 0.09687499850988388,
        "probe_means_per_alpha": {
          "-2.0": -0.20499999821186066,
          "-1.0": -0.10499999672174454,
          "0.0": 0.019999999552965164,
          "1.0": 0.10125000029802322,
          "2.0": 0.17624999582767487
        }
      },
      "layer_24": {
        "norm_primal": 52.03632736206055,
        "primal_slope": 1.5148750066757202,
        "primal_means_per_alpha": {
          "-2.0": -2.903749942779541,
          "-1.0": -1.4325000047683716,
          "0.0": 0.019999999552965164,
          "1.0": 1.5487500429153442,
          "2.0": 3.180000066757202
        },
        "probe_slope": -0.20637500286102292,
        "probe_means_per_alpha": {
          "-2.0": 0.3737500011920929,
          "-1.0": 0.20125000178813934,
          "0.0": 0.019999999552965164,
          "1.0": -0.19750000536441803,
          "2.0": -0.45875000953674316
        }
      }
    },
    "wealth": {
      "layer_5": {
        "norm_primal": 0.8342287540435791,
        "primal_slope": 0.0018750190734860264,
        "primal_means_per_alpha": {
          "-2.0": 2.8737499713897705,
          "-1.0": 2.8662500381469727,
          "0.0": 2.877500057220459,
          "1.0": 2.872499942779541,
          "2.0": 2.880000114440918
        },
        "probe_slope": 0.002499961853027088,
        "probe_means_per_alpha": {
          "-2.0": 2.8687500953674316,
          "-1.0": 2.8737499713897705,
          "0.0": 2.877500057220459,
          "1.0": 2.8737499713897705,
          "2.0": 2.8812499046325684
        }
      },
      "layer_10": {
        "norm_primal": 5.015913486480713,
        "primal_slope": -0.0012500286102296056,
        "primal_means_per_alpha": {
          "-2.0": 2.8887500762939453,
          "-1.0": 2.877500057220459,
          "0.0": 2.877500057220459,
          "1.0": 2.877500057220459,
          "2.0": 2.882499933242798
        },
        "probe_slope": 0.014375019073486274,
        "probe_means_per_alpha": {
          "-2.0": 2.8424999713897705,
          "-1.0": 2.8575000762939453,
          "0.0": 2.877500057220459,
          "1.0": 2.8862500190734863,
          "2.0": 2.9000000953674316
        }
      },
      "layer_13": {
        "norm_primal": 21.886350631713867,
        "primal_slope": 0.5063750267028807,
        "primal_means_per_alpha": {
          "-2.0": 1.7374999523162842,
          "-1.0": 2.296250104904175,
          "0.0": 2.877500057220459,
          "1.0": 3.4100000858306885,
          "2.0": 3.7125000953674316
        },
        "probe_slope": -0.1293750047683718,
        "probe_means_per_alpha": {
          "-2.0": 3.1762499809265137,
          "-1.0": 3.0225000381469727,
          "0.0": 2.877500057220459,
          "1.0": 2.7487499713897705,
          "2.0": 2.666249990463257
        }
      },
      "layer_17": {
        "norm_primal": 44.32829284667969,
        "primal_slope": 1.7921249985694883,
        "primal_means_per_alpha": {
          "-2.0": -0.6349999904632568,
          "-1.0": 0.8999999761581421,
          "0.0": 2.877500057220459,
          "1.0": 4.730000019073486,
          "2.0": 6.410624980926514
        },
        "probe_slope": 0.06575000286102288,
        "probe_means_per_alpha": {
          "-2.0": 2.802500009536743,
          "-1.0": 2.8187499046325684,
          "0.0": 2.877500057220459,
          "1.0": 2.958750009536743,
          "2.0": 3.0612499713897705
        }
      },
      "layer_20": {
        "norm_primal": 63.21361541748047,
        "primal_slope": 2.2477499723434446,
        "primal_means_per_alpha": {
          "-2.0": -0.9424999952316284,
          "-1.0": 0.8550000190734863,
          "0.0": 2.877500057220459,
          "1.0": 5.328750133514404,
          "2.0": 8.059374809265137
        },
        "probe_slope": 0.19837496280670153,
        "probe_means_per_alpha": {
          "-2.0": 2.6500000953674316,
          "-1.0": 2.711250066757202,
          "0.0": 2.877500057220459,
          "1.0": 3.130000114440918,
          "2.0": 3.432499885559082
        }
      },
      "layer_22": {
        "norm_primal": 82.8011703491211,
        "primal_slope": 2.6358749926090237,
        "primal_means_per_alpha": {
          "-2.0": -1.0387500524520874,
          "-1.0": 0.7225000262260437,
          "0.0": 2.877500057220459,
          "1.0": 5.829999923706055,
          "2.0": 9.586874961853027
        },
        "probe_slope": 0.3032500028610227,
        "probe_means_per_alpha": {
          "-2.0": 2.4937500953674316,
          "-1.0": 2.6237499713897705,
          "0.0": 2.877500057220459,
          "1.0": 3.2587499618530273,
          "2.0": 3.692500114440918
        }
      },
      "layer_24": {
        "norm_primal": 93.93309020996094,
        "primal_slope": 2.5483750641345977,
        "primal_means_per_alpha": {
          "-2.0": -1.2100000381469727,
          "-1.0": 0.6600000262260437,
          "0.0": 2.877500057220459,
          "1.0": 5.644999980926514,
          "2.0": 9.039375305175781
        },
        "probe_slope": 0.3610000371932981,
        "probe_means_per_alpha": {
          "-2.0": 2.1875,
          "-1.0": 2.5487499237060547,
          "0.0": 2.877500057220459,
          "1.0": 3.233750104904175,
          "2.0": 3.6500000953674316
        }
      }
    },
    "experience": {
      "layer_5": {
        "norm_primal": 1.0247688293457031,
        "primal_slope": -0.005500030517578815,
        "primal_means_per_alpha": {
          "-2.0": 4.054375171661377,
          "-1.0": 4.046249866485596,
          "0.0": 4.034999847412109,
          "1.0": 4.038750171661377,
          "2.0": 4.030624866485596
        },
        "probe_slope": -0.005812549591064494,
        "probe_means_per_alpha": {
          "-2.0": 4.049375057220459,
          "-1.0": 4.047500133514404,
          "0.0": 4.034999847412109,
          "1.0": 4.035624980926514,
          "2.0": 4.026249885559082
        }
      },
      "layer_10": {
        "norm_primal": 7.526571750640869,
        "primal_slope": 0.13943748474121057,
        "primal_means_per_alpha": {
          "-2.0": 3.781874895095825,
          "-1.0": 3.908750057220459,
          "0.0": 4.034999847412109,
          "1.0": 4.193124771118164,
          "2.0": 4.336874961853027
        },
        "probe_slope": 0.09712500572204585,
        "probe_means_per_alpha": {
          "-2.0": 3.869374990463257,
          "-1.0": 3.942500114440918,
          "0.0": 4.034999847412109,
          "1.0": 4.137499809265137,
          "2.0": 4.257500171661377
        }
      },
      "layer_13": {
        "norm_primal": 23.923749923706055,
        "primal_slope": 1.5266249656677242,
        "primal_means_per_alpha": {
          "-2.0": 0.9937499761581421,
          "-1.0": 2.476249933242798,
          "0.0": 4.034999847412109,
          "1.0": 5.642499923706055,
          "2.0": 7.043749809265137
        },
        "probe_slope": 0.4512500286102292,
        "probe_means_per_alpha": {
          "-2.0": 3.065624952316284,
          "-1.0": 3.5512499809265137,
          "0.0": 4.034999847412109,
          "1.0": 4.461249828338623,
          "2.0": 4.866875171661377
        }
      },
      "layer_17": {
        "norm_primal": 36.849422454833984,
        "primal_slope": 3.5443124517798417,
        "primal_means_per_alpha": {
          "-2.0": -2.7537500858306885,
          "-1.0": 0.19750000536441803,
          "0.0": 4.034999847412109,
          "1.0": 7.996874809265137,
          "2.0": 11.068124771118164
        },
        "probe_slope": 0.6019375085830685,
        "probe_means_per_alpha": {
          "-2.0": 2.976249933242798,
          "-1.0": 3.456249952316284,
          "0.0": 4.034999847412109,
          "1.0": 4.664374828338623,
          "2.0": 5.381875038146973
        }
      },
      "layer_20": {
        "norm_primal": 58.89065170288086,
        "primal_slope": 4.6174375385046,
        "primal_means_per_alpha": {
          "-2.0": -4.386875152587891,
          "-1.0": -0.2462500035762787,
          "0.0": 4.034999847412109,
          "1.0": 8.82437515258789,
          "2.0": 14.164999961853027
        },
        "probe_slope": 0.08249998092651332,
        "probe_means_per_alpha": {
          "-2.0": 3.7281250953674316,
          "-1.0": 3.9081249237060547,
          "0.0": 4.034999847412109,
          "1.0": 4.073124885559082,
          "2.0": 4.058125019073486
        }
      },
      "layer_22": {
        "norm_primal": 72.02827453613281,
        "primal_slope": 4.852562549710274,
        "primal_means_per_alpha": {
          "-2.0": -4.854374885559082,
          "-1.0": -0.4050000011920929,
          "0.0": 4.034999847412109,
          "1.0": 8.971875190734863,
          "2.0": 14.720000267028809
        },
        "probe_slope": -0.34331247806549064,
        "probe_means_per_alpha": {
          "-2.0": 4.648749828338623,
          "-1.0": 4.386250019073486,
          "0.0": 4.034999847412109,
          "1.0": 3.664375066757202,
          "2.0": 3.2931249141693115
        }
      },
      "layer_24": {
        "norm_primal": 80.21243286132812,
        "primal_slope": 4.564812549948693,
        "primal_means_per_alpha": {
          "-2.0": -4.995625019073486,
          "-1.0": -0.4650000035762787,
          "0.0": 4.034999847412109,
          "1.0": 8.620624542236328,
          "2.0": 13.285625457763672
        },
        "probe_slope": -0.5634375333786015,
        "probe_means_per_alpha": {
          "-2.0": 5.257500171661377,
          "-1.0": 4.642499923706055,
          "0.0": 4.034999847412109,
          "1.0": 3.4881250858306885,
          "2.0": 3.0174999237060547
        }
      }
    },
    "bmi_abs": {
      "layer_5": {
        "norm_primal": 0.5715391635894775,
        "primal_slope": 0.00012500286102277799,
        "primal_means_per_alpha": {
          "-2.0": 2.851249933242798,
          "-1.0": 2.8550000190734863,
          "0.0": 2.853749990463257,
          "1.0": 2.858750104904175,
          "2.0": 2.8499999046325684
        },
        "probe_slope": 0.0005000114440916737,
        "probe_means_per_alpha": {
          "-2.0": 2.8524999618530273,
          "-1.0": 2.8575000762939453,
          "0.0": 2.853749990463257,
          "1.0": 2.8499999046325684,
          "2.0": 2.858750104904175
        }
      },
      "layer_10": {
        "norm_primal": 3.8944506645202637,
        "primal_slope": 0.027375030517578055,
        "primal_means_per_alpha": {
          "-2.0": 2.807499885559082,
          "-1.0": 2.833750009536743,
          "0.0": 2.853749990463257,
          "1.0": 2.890000104904175,
          "2.0": 2.916249990463257
        },
        "probe_slope": -0.012124991416931352,
        "probe_means_per_alpha": {
          "-2.0": 2.884999990463257,
          "-1.0": 2.875,
          "0.0": 2.853749990463257,
          "1.0": 2.851249933242798,
          "2.0": 2.836250066757202
        }
      },
      "layer_13": {
        "norm_primal": 23.995746612548828,
        "primal_slope": 0.3589999914169309,
        "primal_means_per_alpha": {
          "-2.0": 2.163749933242798,
          "-1.0": 2.502500057220459,
          "0.0": 2.853749990463257,
          "1.0": 3.2149999141693115,
          "2.0": 3.6024999618530273
        },
        "probe_slope": -0.016874980926513784,
        "probe_means_per_alpha": {
          "-2.0": 2.8924999237060547,
          "-1.0": 2.8662500381469727,
          "0.0": 2.853749990463257,
          "1.0": 2.8575000762939453,
          "2.0": 2.8125
        }
      },
      "layer_17": {
        "norm_primal": 38.775665283203125,
        "primal_slope": 1.8315000280737872,
        "primal_means_per_alpha": {
          "-2.0": -0.023749999701976776,
          "-1.0": 1.1512500047683716,
          "0.0": 2.853749990463257,
          "1.0": 4.948750019073486,
          "2.0": 7.235000133514404
        },
        "probe_slope": -0.281749987602234,
        "probe_means_per_alpha": {
          "-2.0": 3.512500047683716,
          "-1.0": 3.177500009536743,
          "0.0": 2.853749990463257,
          "1.0": 2.5875000953674316,
          "2.0": 2.398750066757202
        }
      },
      "layer_20": {
        "norm_primal": 59.42688751220703,
        "primal_slope": 2.145249986648559,
        "primal_means_per_alpha": {
          "-2.0": -0.5049999952316284,
          "-1.0": 1.0187499523162842,
          "0.0": 2.853749990463257,
          "1.0": 5.221250057220459,
          "2.0": 8.119999885559082
        },
        "probe_slope": -0.21974999904632614,
        "probe_means_per_alpha": {
          "-2.0": 3.380000114440918,
          "-1.0": 3.0899999141693115,
          "0.0": 2.853749990463257,
          "1.0": 2.6700000762939453,
          "2.0": 2.4912500381469727
        }
      },
      "layer_22": {
        "norm_primal": 71.75006103515625,
        "primal_slope": 2.3347499608993525,
        "primal_means_per_alpha": {
          "-2.0": -1.3862500190734863,
          "-1.0": 0.7912499904632568,
          "0.0": 2.853749990463257,
          "1.0": 5.163750171661377,
          "2.0": 8.101249694824219
        },
        "probe_slope": -0.128624987602234,
        "probe_means_per_alpha": {
          "-2.0": 3.081249952316284,
          "-1.0": 2.9862499237060547,
          "0.0": 2.853749990463257,
          "1.0": 2.7149999141693115,
          "2.0": 2.5737500190734863
        }
      },
      "layer_24": {
        "norm_primal": 81.00321960449219,
        "primal_slope": 2.2136250019073485,
        "primal_means_per_alpha": {
          "-2.0": -1.434999942779541,
          "-1.0": 0.8125,
          "0.0": 2.853749990463257,
          "1.0": 5.011250019073486,
          "2.0": 7.533750057220459
        },
        "probe_slope": -0.11075003147125251,
        "probe_means_per_alpha": {
          "-2.0": 3.098750114440918,
          "-1.0": 2.973750114440918,
          "0.0": 2.853749990463257,
          "1.0": 2.7512500286102295,
          "2.0": 2.65625
        }
      }
    }
  }
}