{
  "sae": "google/gemma-scope-2b-pt-res/layer_20/width_65k/average_l0_61/params.npz",
  "top_k": 20,
  "features": {
    "height": [
      43183,
      27087,
      7754,
      46007,
      39267,
      37471,
      44825,
      32073,
      24035,
      20805,
      65493,
      19765,
      61915,
      19782,
      56744,
      24972,
      59707,
      32423,
      30235,
      59951
    ],
    "age": [
      7293,
      20069,
      8111,
      15619,
      10335,
      22430,
      65006,
      18124,
      48285,
      56744,
      17770,
      43183,
      59559,
      55092,
      7869,
      4055,
      57602,
      28996,
      30576,
      24570
    ],
    "weight": [
      27087,
      59750,
      17983,
      46770,
      56754,
      3383,
      43183,
      40833,
      14431,
      22348,
      24035,
      63100,
      44825,
      30576,
      61124,
      65006,
      59290,
      49668,
      1221,
      50657
    ],
    "size": [
      48177,
      23872,
      32423,
      22172,
      44242,
      7869,
      27758,
      37517,
      62585,
      28578,
      10373,
      19454,
      22430,
      442,
      17983,
      52093,
      21786,
      14800,
      58735,
      44783
    ],
    "speed": [
      58013,
      9877,
      37517,
      17923,
      22483,
      442,
      17983,
      19968,
      24570,
      37471,
      57602,
      44825,
      1510,
      24886,
      34909,
      22172,
      27137,
      36973,
      41676,
      24553
    ],
    "wealth": [
      17983,
      22430,
      60895,
      62599,
      36059,
      1473,
      43183,
      60129,
      59039,
      57602,
      37471,
      19020,
      63734,
      32746,
      30345,
      21605,
      42405,
      47508,
      1240,
      43934
    ],
    "experience": [
      1915,
      21197,
      44242,
      56618,
      22483,
      30345,
      51890,
      54516,
      22430,
      59868,
      7293,
      18325,
      24570,
      17983,
      26072,
      22172,
      7754,
      8849,
      56572,
      35375
    ],
    "bmi_abs": [
      46770,
      1473,
      59750,
      63021,
      54506,
      10373,
      54116,
      19765,
      6205,
      10242,
      37924,
      11340,
      50713,
      20329,
      15395,
      61124,
      32423,
      16014,
      8111,
      27087
    ]
  },
  "corrs": {
    "height": [
      0.8898367881774902,
      0.8872703909873962,
      -0.8815828561782837,
      -0.8739461898803711,
      0.8650960922241211,
      0.8538037538528442,
      -0.8470482230186462,
      0.8469902873039246,
      0.8450903296470642,
      0.8417444825172424,
      -0.8407611846923828,
      0.8333090543746948,
      0.8295900225639343,
      0.8225345015525818,
      0.8135985732078552,
      -0.8105679750442505,
      -0.810543954372406,
      -0.8072047829627991,
      0.8042541742324829,
      -0.7934220433235168
    ],
    "age": [
      -0.710033655166626,
      -0.6528696417808533,
      0.6436984539031982,
      0.6419301629066467,
      -0.627855658531189,
      -0.5802121758460999,
      0.5760468244552612,
      -0.5752337574958801,
      -0.5711310505867004,
      0.5679525136947632,
      0.5667117834091187,
      0.5583500862121582,
      -0.5531179904937744,
      0.5492228269577026,
      0.5462821125984192,
      0.5433814525604248,
      -0.5362314581871033,
      0.5302998423576355,
      -0.5248003602027893,
      0.5200283527374268
    ],
    "weight": [
      0.932536780834198,
      -0.8698362708091736,
      0.8553460240364075,
      0.8393442034721375,
      0.8279356360435486,
      -0.8259402513504028,
      0.8142974376678467,
      -0.8108454346656799,
      0.805197536945343,
      -0.8021618723869324,
      0.7984179258346558,
      -0.7974397540092468,
      -0.7955573201179504,
      -0.7952202558517456,
      -0.7914615869522095,
      0.7888504862785339,
      0.7868793606758118,
      0.7763323187828064,
      -0.7755662202835083,
      -0.7692107558250427
    ],
    "size": [
      -0.8027219772338867,
      -0.770916223526001,
      -0.764564573764801,
      0.7640931010246277,
      0.7239009141921997,
      0.7107247114181519,
      0.7092323899269104,
      0.709092378616333,
      0.706268846988678,
      0.7043575644493103,
      -0.6979444622993469,
      -0.6907268166542053,
      -0.6866758465766907,
      0.6849927306175232,
      0.683307945728302,
      -0.6624921560287476,
      -0.6611301302909851,
      -0.6488872766494751,
      0.6401890516281128,
      -0.6375157237052917
    ],
    "speed": [
      -0.7289477586746216,
      -0.7119950652122498,
      0.7100568413734436,
      -0.7049511671066284,
      -0.6876441836357117,
      0.6703186631202698,
      0.6478595733642578,
      0.6361793279647827,
      0.618035078048706,
      0.6033798456192017,
      -0.5933533906936646,
      -0.5930812358856201,
      -0.5929552316665649,
      0.58071368932724,
      -0.5740811824798584,
      0.5739731192588806,
      0.5690979957580566,
      -0.5649877786636353,
      -0.5648989677429199,
      -0.5594226717948914
    ],
    "wealth": [
      0.890874981880188,
      -0.8707014322280884,
      -0.8660818934440613,
      0.846569299697876,
      0.8455637693405151,
      0.8448336124420166,
      0.8408877849578857,
      0.8338653445243835,
      -0.8194870352745056,
      -0.8193862438201904,
      0.817412257194519,
      0.8158601522445679,
      -0.808724582195282,
      -0.8040217161178589,
      -0.8020220398902893,
      0.80157071352005,
      -0.801443874835968,
      0.7866910696029663,
      0.7857843041419983,
      -0.7833687663078308
    ],
    "experience": [
      0.8891409635543823,
      0.875577986240387,
      0.8652799129486084,
      -0.845668375492096,
      -0.8312246799468994,
      -0.829907238483429,
      -0.8254346251487732,
      -0.8174957633018494,
      -0.8105289936065674,
      0.8069902658462524,
      -0.8054137825965881,
      -0.7946227192878723,
      0.7849434614181519,
      0.7743342518806458,
      0.7701268792152405,
      0.7678491473197937,
      -0.7653643488883972,
      0.7607387900352478,
      -0.7579017877578735,
      0.748042106628418
    ],
    "bmi_abs": [
      0.8882966041564941,
      0.8202744126319885,
      -0.8026646375656128,
      -0.7957842946052551,
      -0.7887681722640991,
      -0.7873402833938599,
      0.7842725515365601,
      0.7812954187393188,
      -0.7796342968940735,
      -0.7795621752738953,
      -0.7768497467041016,
      -0.7764406800270081,
      -0.7685118317604065,
      0.7656908631324768,
      -0.7522466778755188,
      -0.7518176436424255,
      -0.7466254234313965,
      -0.7448921799659729,
      0.7378401756286621,
      0.7324800491333008
    ]
  }
}