{
  "layer_20_average_l0_61": {
    "sae_path": "layer_20/width_65k/average_l0_61/params.npz",
    "n_features": 65536,
    "uniform_baseline_ez": 0.00030517578125,
    "per_pair": {
      "height": {
        "n_active": 478,
        "top_feat_corrs": [
          0.8898367881774902,
          0.8872703909873962,
          -0.8815828561782837,
          -0.8739461898803711,
          0.8650960922241211,
          0.8538037538528442,
          -0.8470482230186462,
          0.8469902873039246,
          0.8450903296470642,
          0.8417444825172424,
          -0.8407611846923828,
          0.8333090543746948,
          0.8295900225639343,
          0.8225345015525818,
          0.8135985732078552,
          -0.8105679750442505,
          -0.810543954372406,
          -0.8072047829627991,
          0.8042541742324829,
          -0.7934220433235168
        ],
        "top_features": [
          43183,
          27087,
          7754,
          46007,
          39267,
          37471,
          44825,
          32073,
          24035,
          20805,
          65493,
          19765,
          61915,
          19782,
          56744,
          24972,
          59707,
          32423,
          30235,
          59951
        ],
        "enc_primal_PR": 11050.447172511289,
        "enc_probe_PR": 17722.72382304583,
        "enc_primal_ez": 0.0025680716239703597,
        "enc_probe_ez": 0.0002689587926650475,
        "dec_primal_PR": 2880.0378850368206,
        "dec_probe_PR": 21823.751899460436,
        "dec_primal_ez": 0.005491822300879518,
        "dec_probe_ez": 0.00044063449799753115
      },
      "age": {
        "n_active": 579,
        "top_feat_corrs": [
          -0.710033655166626,
          -0.6528696417808533,
          0.6436984539031982,
          0.6419301629066467,
          -0.627855658531189,
          -0.5802121758460999,
          0.5760468244552612,
          -0.5752337574958801,
          -0.5711310505867004,
          0.5679525136947632,
          0.5667117834091187,
          0.5583500862121582,
          -0.5531179904937744,
          0.5492228269577026,
          0.5462821125984192,
          0.5433814525604248,
          -0.5362314581871033,
          0.5302998423576355,
          -0.5248003602027893,
          0.5200283527374268
        ],
        "top_features": [
          7293,
          20069,
          8111,
          15619,
          10335,
          22430,
          65006,
          18124,
          48285,
          56744,
          17770,
          43183,
          59559,
          55092,
          7869,
          4055,
          57602,
          28996,
          30576,
          24570
        ],
        "enc_primal_PR": 15072.587502439204,
        "enc_probe_PR": 17853.23953667512,
        "enc_primal_ez": 0.0013750582691183504,
        "enc_probe_ez": 0.0003918558823886509,
        "dec_primal_PR": 6056.20310568327,
        "dec_probe_PR": 22072.81881898836,
        "dec_primal_ez": 0.0031175465331996595,
        "dec_probe_ez": 0.0002869252133141876
      },
      "weight": {
        "n_active": 559,
        "top_feat_corrs": [
          0.932536780834198,
          -0.8698362708091736,
          0.8553460240364075,
          0.8393442034721375,
          0.8279356360435486,
          -0.8259402513504028,
          0.8142974376678467,
          -0.8108454346656799,
          0.805197536945343,
          -0.8021618723869324,
          0.7984179258346558,
          -0.7974397540092468,
          -0.7955573201179504,
          -0.7952202558517456,
          -0.7914615869522095,
          0.7888504862785339,
          0.7868793606758118,
          0.7763323187828064,
          -0.7755662202835083,
          -0.7692107558250427
        ],
        "top_features": [
          27087,
          59750,
          17983,
          46770,
          56754,
          3383,
          43183,
          40833,
          14431,
          22348,
          24035,
          63100,
          44825,
          30576,
          61124,
          65006,
          59290,
          49668,
          1221,
          50657
        ],
        "enc_primal_PR": 10107.413351124569,
        "enc_probe_PR": 17988.281716205325,
        "enc_primal_ez": 0.008098576143955002,
        "enc_probe_ez": 0.00042197145375697523,
        "dec_primal_PR": 2182.786662768945,
        "dec_probe_PR": 21707.50035127641,
        "dec_primal_ez": 0.019695216641689335,
        "dec_probe_ez": 0.0005155848648640593
      },
      "size": {
        "n_active": 503,
        "top_feat_corrs": [
          -0.8027219772338867,
          -0.770916223526001,
          -0.764564573764801,
          0.7640931010246277,
          0.7239009141921997,
          0.7107247114181519,
          0.7092323899269104,
          0.709092378616333,
          0.706268846988678,
          0.7043575644493103,
          -0.6979444622993469,
          -0.6907268166542053,
          -0.6866758465766907,
          0.6849927306175232,
          0.683307945728302,
          -0.6624921560287476,
          -0.6611301302909851,
          -0.6488872766494751,
          0.6401890516281128,
          -0.6375157237052917
        ],
        "top_features": [
          48177,
          23872,
          32423,
          22172,
          44242,
          7869,
          27758,
          37517,
          62585,
          28578,
          10373,
          19454,
          22430,
          442,
          17983,
          52093,
          21786,
          14800,
          58735,
          44783
        ],
        "enc_primal_PR": 12180.56147644364,
        "enc_probe_PR": 17987.25199019821,
        "enc_primal_ez": 0.0017330666301255291,
        "enc_probe_ez": 0.0004701669150108488,
        "dec_primal_PR": 4011.1238010535812,
        "dec_probe_PR": 21857.296648045416,
        "dec_primal_ez": 0.004039085238495104,
        "dec_probe_ez": 0.0005417602889997988
      },
      "speed": {
        "n_active": 468,
        "top_feat_corrs": [
          -0.7289477586746216,
          -0.7119950652122498,
          0.7100568413734436,
          -0.7049511671066284,
          -0.6876441836357117,
          0.6703186631202698,
          0.6478595733642578,
          0.6361793279647827,
          0.618035078048706,
          0.6033798456192017,
          -0.5933533906936646,
          -0.5930812358856201,
          -0.5929552316665649,
          0.58071368932724,
          -0.5740811824798584,
          0.5739731192588806,
          0.5690979957580566,
          -0.5649877786636353,
          -0.5648989677429199,
          -0.5594226717948914
        ],
        "top_features": [
          58013,
          9877,
          37517,
          17923,
          22483,
          442,
          17983,
          19968,
          24570,
          37471,
          57602,
          44825,
          1510,
          24886,
          34909,
          22172,
          27137,
          36973,
          41676,
          24553
        ],
        "enc_primal_PR": 13974.175441607395,
        "enc_probe_PR": 16853.054473865403,
        "enc_primal_ez": 0.0019714156316812457,
        "enc_probe_ez": 0.00030810890257113125,
        "dec_primal_PR": 4465.58604438942,
        "dec_probe_PR": 21695.309101050883,
        "dec_primal_ez": 0.005501438885424083,
        "dec_probe_ez": 0.00026743017471038676
      },
      "wealth": {
        "n_active": 626,
        "top_feat_corrs": [
          0.890874981880188,
          -0.8707014322280884,
          -0.8660818934440613,
          0.846569299697876,
          0.8455637693405151,
          0.8448336124420166,
          0.8408877849578857,
          0.8338653445243835,
          -0.8194870352745056,
          -0.8193862438201904,
          0.817412257194519,
          0.8158601522445679,
          -0.808724582195282,
          -0.8040217161178589,
          -0.8020220398902893,
          0.80157071352005,
          -0.801443874835968,
          0.7866910696029663,
          0.7857843041419983,
          -0.7833687663078308
        ],
        "top_features": [
          17983,
          22430,
          60895,
          62599,
          36059,
          1473,
          43183,
          60129,
          59039,
          57602,
          37471,
          19020,
          63734,
          32746,
          30345,
          21605,
          42405,
          47508,
          1240,
          43934
        ],
        "enc_primal_PR": 14648.323116531326,
        "enc_probe_PR": 17761.992392915578,
        "enc_primal_ez": 0.004006555192709203,
        "enc_probe_ez": 7.96763198838239e-05,
        "dec_primal_PR": 4920.706079925144,
        "dec_probe_PR": 21639.658371755755,
        "dec_primal_ez": 0.009785739562214053,
        "dec_probe_ez": 0.00014609172490830967
      },
      "experience": {
        "n_active": 446,
        "top_feat_corrs": [
          0.8891409635543823,
          0.875577986240387,
          0.8652799129486084,
          -0.845668375492096,
          -0.8312246799468994,
          -0.829907238483429,
          -0.8254346251487732,
          -0.8174957633018494,
          -0.8105289936065674,
          0.8069902658462524,
          -0.8054137825965881,
          -0.7946227192878723,
          0.7849434614181519,
          0.7743342518806458,
          0.7701268792152405,
          0.7678491473197937,
          -0.7653643488883972,
          0.7607387900352478,
          -0.7579017877578735,
          0.748042106628418
        ],
        "top_features": [
          1915,
          21197,
          44242,
          56618,
          22483,
          30345,
          51890,
          54516,
          22430,
          59868,
          7293,
          18325,
          24570,
          17983,
          26072,
          22172,
          7754,
          8849,
          56572,
          35375
        ],
        "enc_primal_PR": 14148.637518963593,
        "enc_probe_PR": 18054.040205779227,
        "enc_primal_ez": 0.005237466332073322,
        "enc_probe_ez": 0.00027761355584648387,
        "dec_primal_PR": 3987.9269158176976,
        "dec_probe_PR": 21473.86178709257,
        "dec_primal_ez": 0.016959700248930242,
        "dec_probe_ez": 0.00039503312987370623
      },
      "bmi_abs": {
        "n_active": 635,
        "top_feat_corrs": [
          0.8882966041564941,
          0.8202744126319885,
          -0.8026646375656128,
          -0.7957842946052551,
          -0.7887681722640991,
          -0.7873402833938599,
          0.7842725515365601,
          0.7812954187393188,
          -0.7796342968940735,
          -0.7795621752738953,
          -0.7768497467041016,
          -0.7764406800270081,
          -0.7685118317604065,
          0.7656908631324768,
          -0.7522466778755188,
          -0.7518176436424255,
          -0.7466254234313965,
          -0.7448921799659729,
          0.7378401756286621,
          0.7324800491333008
        ],
        "top_features": [
          46770,
          1473,
          59750,
          63021,
          54506,
          10373,
          54116,
          19765,
          6205,
          10242,
          37924,
          11340,
          50713,
          20329,
          15395,
          61124,
          32423,
          16014,
          8111,
          27087
        ],
        "enc_primal_PR": 10108.42599572785,
        "enc_probe_PR": 18217.271839694404,
        "enc_primal_ez": 0.010201714115643006,
        "enc_probe_ez": 0.0003558055842825309,
        "dec_primal_PR": 3061.9599514643724,
        "dec_probe_PR": 21858.41077478494,
        "dec_primal_ez": 0.02193464714163754,
        "dec_probe_ez": 0.00024735440320710576
      }
    }
  },
  "layer_20_average_l0_20": {
    "sae_path": "layer_20/width_65k/average_l0_20/params.npz",
    "n_features": 65536,
    "uniform_baseline_ez": 0.00030517578125,
    "per_pair": {
      "height": {
        "n_active": 207,
        "top_feat_corrs": [
          0.8989980816841125,
          0.8609070777893066,
          -0.831519365310669,
          0.7891014218330383,
          0.7887474298477173,
          -0.7881796956062317,
          -0.7769701480865479,
          0.7661292552947998,
          0.754364550113678,
          0.7504488229751587,
          -0.7437320351600647,
          0.7432543635368347,
          -0.7303549647331238,
          0.7239055037498474,
          -0.7202655076980591,
          0.6975002884864807,
          -0.6812835335731506,
          -0.6793501377105713,
          -0.6757065653800964,
          0.6709193587303162
        ],
        "top_features": [
          1226,
          38043,
          36604,
          54071,
          4313,
          25111,
          59987,
          23122,
          61710,
          60910,
          64710,
          56649,
          20698,
          12299,
          64931,
          65048,
          56847,
          46953,
          2751,
          3709
        ],
        "enc_primal_PR": 12854.168413034778,
        "enc_probe_PR": 15942.4419086968,
        "enc_primal_ez": 0.0023474619495219085,
        "enc_probe_ez": 0.00016864786701616902,
        "dec_primal_PR": 3579.497041048041,
        "dec_probe_PR": 21969.193623017036,
        "dec_primal_ez": 0.006369197615490621,
        "dec_probe_ez": 0.00033276860207288823
      },
      "age": {
        "n_active": 261,
        "top_feat_corrs": [
          -0.6949590444564819,
          0.6350495219230652,
          0.5634273886680603,
          -0.5248696804046631,
          -0.5226612091064453,
          -0.5205430388450623,
          -0.5188737511634827,
          0.49819034337997437,
          -0.49782389402389526,
          0.4933871328830719,
          0.48039156198501587,
          -0.4747779071331024,
          -0.46836715936660767,
          0.46614035964012146,
          0.4626089334487915,
          -0.4615924060344696,
          -0.4611189067363739,
          0.4573342502117157,
          -0.45488500595092773,
          0.44748714566230774
        ],
        "top_features": [
          17881,
          17568,
          37156,
          25111,
          20698,
          53755,
          46953,
          65048,
          20490,
          1481,
          48403,
          47217,
          10867,
          64071,
          12299,
          45408,
          7265,
          4313,
          55932,
          56846
        ],
        "enc_primal_PR": 15112.92310947524,
        "enc_probe_PR": 17034.109632657313,
        "enc_primal_ez": 0.002358986130236139,
        "enc_probe_ez": 0.00018762032994317968,
        "dec_primal_PR": 6787.160760924479,
        "dec_probe_PR": 22197.802715042228,
        "dec_primal_ez": 0.006437918796772813,
        "dec_probe_ez": 0.00024938402653916714
      },
      "weight": {
        "n_active": 238,
        "top_feat_corrs": [
          -0.8911954164505005,
          0.8703944683074951,
          -0.8425189852714539,
          -0.8298478722572327,
          0.8246932625770569,
          0.8162537217140198,
          0.8106473088264465,
          0.8102458715438843,
          0.804506778717041,
          0.8032428026199341,
          0.7938582897186279,
          -0.7730829119682312,
          -0.771579384803772,
          -0.7660233378410339,
          0.7546247243881226,
          0.7380253672599792,
          -0.7253193259239197,
          -0.7247019410133362,
          -0.7107627987861633,
          -0.6934722065925598
        ],
        "top_features": [
          31708,
          1226,
          10867,
          36604,
          2227,
          13091,
          39929,
          4313,
          6336,
          61057,
          37156,
          18608,
          968,
          20698,
          12299,
          11871,
          17881,
          4663,
          58438,
          7265
        ],
        "enc_primal_PR": 12204.237902809284,
        "enc_probe_PR": 16473.17724663695,
        "enc_primal_ez": 0.004941414516607683,
        "enc_probe_ez": 0.0001153568654531444,
        "dec_primal_PR": 2493.34231999726,
        "dec_probe_PR": 21465.495228564498,
        "dec_primal_ez": 0.014925475835341453,
        "dec_probe_ez": 0.00015486597888251946
      },
      "size": {
        "n_active": 230,
        "top_feat_corrs": [
          0.8633880019187927,
          0.8196650743484497,
          0.7491861581802368,
          0.6878592371940613,
          0.6727460026741028,
          -0.6720644235610962,
          0.6398645043373108,
          0.6304523944854736,
          -0.6193256974220276,
          -0.6144934892654419,
          -0.5929273366928101,
          -0.5912454128265381,
          0.5863097906112671,
          -0.5760543346405029,
          0.5446180701255798,
          -0.5367494821548462,
          -0.535812497138977,
          -0.5290519595146179,
          -0.5168941617012024,
          -0.5051080584526062
        ],
        "top_features": [
          1226,
          65048,
          9711,
          18751,
          47563,
          4663,
          48729,
          36421,
          46000,
          63100,
          37858,
          15037,
          17568,
          45175,
          3392,
          21387,
          13653,
          36857,
          36604,
          40163
        ],
        "enc_primal_PR": 13939.702406437154,
        "enc_probe_PR": 17172.01171489061,
        "enc_primal_ez": 0.002734230000851065,
        "enc_probe_ez": 0.00021241903611276446,
        "dec_primal_PR": 5778.373316886321,
        "dec_probe_PR": 21784.052568376475,
        "dec_primal_ez": 0.00747909596007308,
        "dec_probe_ez": 0.0003303367714601985
      },
      "speed": {
        "n_active": 196,
        "top_feat_corrs": [
          -0.7321618795394897,
          -0.6673707365989685,
          -0.6598281860351562,
          0.6593664288520813,
          -0.6356512904167175,
          -0.6203240752220154,
          -0.6130979061126709,
          0.6045417189598083,
          0.5737094283103943,
          0.5606896281242371,
          0.5582699179649353,
          -0.5293311476707458,
          -0.4525364339351654,
          0.4374995529651642,
          0.4295676350593567,
          -0.42686280608177185,
          0.4236660599708557,
          -0.4166716933250427,
          0.4137343764305115,
          -0.4105355739593506
        ],
        "top_features": [
          13653,
          33399,
          60816,
          52454,
          36604,
          2218,
          33902,
          13091,
          1226,
          47092,
          20242,
          63937,
          8517,
          13298,
          41420,
          37858,
          40108,
          32051,
          56649,
          56732
        ],
        "enc_primal_PR": 14881.889327699191,
        "enc_probe_PR": 16102.967326454234,
        "enc_primal_ez": 0.002171004695189168,
        "enc_probe_ez": 0.0003109615052236675,
        "dec_primal_PR": 4857.223124436789,
        "dec_probe_PR": 21686.17497646346,
        "dec_primal_ez": 0.007268409704676966,
        "dec_probe_ez": 0.0004056439065960053
      },
      "wealth": {
        "n_active": 284,
        "top_feat_corrs": [
          -0.8239421248435974,
          -0.8173336982727051,
          0.8155129551887512,
          -0.7844635248184204,
          -0.779547929763794,
          0.7610560059547424,
          0.7607018351554871,
          0.7388863563537598,
          0.7343912720680237,
          0.7249507904052734,
          -0.7212874889373779,
          0.7187973856925964,
          -0.7177958488464355,
          0.7157614827156067,
          0.6950554847717285,
          0.6774922013282776,
          -0.6711951494216919,
          0.6567196249961853,
          0.6518586277961731,
          -0.651450514793396
        ],
        "top_features": [
          15593,
          37858,
          13265,
          4531,
          24569,
          17568,
          23122,
          13091,
          32638,
          51619,
          3511,
          58131,
          46953,
          59064,
          20947,
          15349,
          20490,
          42842,
          59689,
          968
        ],
        "enc_primal_PR": 15228.157741249972,
        "enc_probe_PR": 16979.93098963537,
        "enc_primal_ez": 0.002693814922190942,
        "enc_probe_ez": 7.446202047033108e-05,
        "dec_primal_PR": 7426.7016870657335,
        "dec_probe_PR": 21813.058428257526,
        "dec_primal_ez": 0.010046077862827841,
        "dec_probe_ez": 0.00018905608293979156
      },
      "experience": {
        "n_active": 196,
        "top_feat_corrs": [
          -0.8801708221435547,
          0.8721147179603577,
          -0.8315313458442688,
          -0.8228892087936401,
          0.8052597641944885,
          0.7883375287055969,
          -0.7613683938980103,
          0.7592664361000061,
          -0.742510199546814,
          -0.7364253401756287,
          -0.7250211238861084,
          -0.7128710150718689,
          0.7067102789878845,
          0.6901469230651855,
          -0.6874226927757263,
          -0.6780949831008911,
          -0.6562361121177673,
          -0.6545331478118896,
          0.6326774954795837,
          0.6268028020858765
        ],
        "top_features": [
          10371,
          1954,
          20490,
          56508,
          16293,
          65048,
          37785,
          17568,
          45408,
          22225,
          38043,
          50059,
          7475,
          25441,
          7265,
          25111,
          30921,
          17881,
          15037,
          13298
        ],
        "enc_primal_PR": 14943.266831016595,
        "enc_probe_PR": 17823.882542804622,
        "enc_primal_ez": 0.0039279477938356285,
        "enc_probe_ez": 0.00025385941321804344,
        "dec_primal_PR": 4549.476353307961,
        "dec_probe_PR": 21419.87532232018,
        "dec_primal_ez": 0.016381231713246774,
        "dec_probe_ez": 0.0002212936308649779
      },
      "bmi_abs": {
        "n_active": 275,
        "top_feat_corrs": [
          0.8794742226600647,
          -0.8309526443481445,
          -0.8205578327178955,
          -0.8043554425239563,
          -0.7600293159484863,
          -0.7547210454940796,
          0.728654682636261,
          0.7145934700965881,
          0.6967673897743225,
          -0.6856942176818848,
          -0.6856144666671753,
          0.6768139004707336,
          0.6702736020088196,
          -0.6674044132232666,
          0.6618036031723022,
          -0.6464545726776123,
          0.6365821957588196,
          -0.6168437600135803,
          0.5961158275604248,
          -0.5831930041313171
        ],
        "top_features": [
          2227,
          64710,
          4663,
          31708,
          53583,
          47217,
          22282,
          2218,
          52948,
          17066,
          18608,
          26208,
          26605,
          2680,
          12299,
          31503,
          65048,
          42267,
          37701,
          37858
        ],
        "enc_primal_PR": 12099.586742074858,
        "enc_probe_PR": 17459.24517079357,
        "enc_primal_ez": 0.006635256242690749,
        "enc_probe_ez": 0.00015356779266678788,
        "dec_primal_PR": 3457.3132898769045,
        "dec_probe_PR": 21578.764623469055,
        "dec_primal_ez": 0.015823295910231225,
        "dec_probe_ez": 0.0004183515935891039
      }
    }
  },
  "layer_13_average_l0_74": {
    "sae_path": "layer_13/width_65k/average_l0_74/params.npz",
    "n_features": 65536,
    "uniform_baseline_ez": 0.00030517578125,
    "per_pair": {
      "height": {
        "n_active": 1230,
        "top_feat_corrs": [
          -0.8884169459342957,
          -0.882195770740509,
          0.8482658863067627,
          0.8476284742355347,
          0.8368122577667236,
          -0.8180571794509888,
          0.8128865361213684,
          0.8097753524780273,
          -0.8080050945281982,
          0.8070109486579895,
          0.8060086369514465,
          -0.8016338348388672,
          -0.7966929078102112,
          0.7957310676574707,
          0.7905786037445068,
          0.7880992293357849,
          -0.7847660779953003,
          0.7738950252532959,
          0.7737466096878052,
          0.7676060199737549
        ],
        "top_features": [
          21270,
          33023,
          33169,
          63227,
          21333,
          27422,
          37574,
          44786,
          20304,
          50896,
          55078,
          13933,
          29993,
          33486,
          15048,
          8412,
          7244,
          25519,
          64796,
          40611
        ],
        "enc_primal_PR": 13603.506650106292,
        "enc_probe_PR": 17498.833476837506,
        "enc_primal_ez": 0.0033680900298336076,
        "enc_probe_ez": 0.00044791511707187304,
        "dec_primal_PR": 8378.112652820746,
        "dec_probe_PR": 20591.946164128603,
        "dec_primal_ez": 0.005393675431893738,
        "dec_probe_ez": 0.0006992050147497129
      },
      "age": {
        "n_active": 1423,
        "top_feat_corrs": [
          -0.7803621292114258,
          0.7695496678352356,
          0.7682918906211853,
          0.7546537518501282,
          0.7501875162124634,
          0.7459975481033325,
          0.7443057298660278,
          0.7434107065200806,
          -0.7408599257469177,
          0.7395121455192566,
          0.7074479460716248,
          -0.7024010419845581,
          0.6969075202941895,
          0.6966100335121155,
          -0.6903455853462219,
          0.6742380857467651,
          -0.6735134124755859,
          0.6534669399261475,
          -0.6522373557090759,
          -0.6491603851318359
        ],
        "top_features": [
          17559,
          3811,
          21333,
          55560,
          9636,
          18845,
          17995,
          1340,
          60058,
          37964,
          56383,
          42622,
          63120,
          63227,
          56011,
          10153,
          7408,
          29411,
          12885,
          55327
        ],
        "enc_primal_PR": 9156.11098958829,
        "enc_probe_PR": 18161.76842764241,
        "enc_primal_ez": 0.004331565501741199,
        "enc_probe_ez": 0.0004111658871775284,
        "dec_primal_PR": 7913.535417116605,
        "dec_probe_PR": 21064.878761837692,
        "dec_primal_ez": 0.0051981810760585384,
        "dec_probe_ez": 0.0005032238650093302
      },
      "weight": {
        "n_active": 1372,
        "top_feat_corrs": [
          0.8456633687019348,
          0.818649411201477,
          0.8045129776000977,
          -0.8010864853858948,
          0.7959671020507812,
          0.7949866056442261,
          -0.7948429584503174,
          0.7939624190330505,
          0.7921501994132996,
          -0.7916844487190247,
          0.7785587906837463,
          0.7781336307525635,
          0.7760840654373169,
          -0.7743479609489441,
          -0.7658945322036743,
          -0.7551795840263367,
          0.7504584193229675,
          -0.7378326654434204,
          -0.7327932715415955,
          -0.7276574373245239
        ],
        "top_features": [
          40611,
          946,
          29411,
          21270,
          18673,
          37964,
          34354,
          20586,
          33486,
          4596,
          23861,
          1340,
          23879,
          4320,
          27662,
          2683,
          63227,
          17967,
          45597,
          61663
        ],
        "enc_primal_PR": 12002.080179184046,
        "enc_probe_PR": 17344.07662633333,
        "enc_primal_ez": 0.002612674158739943,
        "enc_probe_ez": 0.0002191442086828462,
        "dec_primal_PR": 7470.902995093345,
        "dec_probe_PR": 21237.871365621,
        "dec_primal_ez": 0.004039564887138191,
        "dec_probe_ez": 0.00039262367288152826
      },
      "size": {
        "n_active": 1402,
        "top_feat_corrs": [
          0.8625819683074951,
          -0.7921074628829956,
          0.7831406593322754,
          0.7743313312530518,
          0.7695104479789734,
          0.7663218975067139,
          -0.7586861848831177,
          0.7565258145332336,
          0.746481716632843,
          0.7320861220359802,
          -0.7206312417984009,
          0.7194880247116089,
          0.7108259797096252,
          0.7049585580825806,
          0.7033296227455139,
          0.7031049132347107,
          0.6962048411369324,
          0.6939406394958496,
          -0.6891682744026184,
          0.6887395977973938
        ],
        "top_features": [
          40611,
          64296,
          53900,
          56882,
          26933,
          22946,
          20363,
          40519,
          30445,
          63320,
          51885,
          52260,
          22258,
          32012,
          142,
          10766,
          16999,
          33220,
          41576,
          18845
        ],
        "enc_primal_PR": 10760.264722254156,
        "enc_probe_PR": 17018.268505979962,
        "enc_primal_ez": 0.004372146955357885,
        "enc_probe_ez": 0.00016500997191351487,
        "dec_primal_PR": 7831.900647307712,
        "dec_probe_PR": 21423.67391724318,
        "dec_primal_ez": 0.004760312154776638,
        "dec_probe_ez": 0.0002872640782697972
      },
      "speed": {
        "n_active": 1453,
        "top_feat_corrs": [
          0.7635610103607178,
          0.7480075359344482,
          0.7400216460227966,
          0.7034724950790405,
          -0.7002313733100891,
          -0.6963281035423279,
          0.6895009279251099,
          0.6619442701339722,
          0.6613925099372864,
          -0.6595855951309204,
          -0.645408570766449,
          -0.6433217525482178,
          0.6381479501724243,
          -0.6354614496231079,
          -0.6233104467391968,
          0.6207168698310852,
          -0.6206550002098083,
          -0.619419276714325,
          -0.6142104268074036,
          -0.6123313903808594
        ],
        "top_features": [
          57159,
          42298,
          21557,
          1706,
          33023,
          27422,
          51565,
          30306,
          64796,
          26223,
          7244,
          14748,
          3574,
          6714,
          25174,
          40845,
          21270,
          42607,
          48842,
          57034
        ],
        "enc_primal_PR": 11466.908829987604,
        "enc_probe_PR": 17841.99575818208,
        "enc_primal_ez": 0.005102675761847168,
        "enc_probe_ez": 0.0003417909321799148,
        "dec_primal_PR": 7652.000083934757,
        "dec_probe_PR": 20878.35508840799,
        "dec_primal_ez": 0.006920086018566907,
        "dec_probe_ez": 0.00046301384456524746
      },
      "wealth": {
        "n_active": 1219,
        "top_feat_corrs": [
          0.8801882266998291,
          0.8363330960273743,
          0.823245108127594,
          0.8185490369796753,
          -0.791930615901947,
          0.7862842082977295,
          0.7736353278160095,
          -0.7665654420852661,
          0.763120174407959,
          0.7579882740974426,
          0.7563193440437317,
          0.7555807828903198,
          0.7497918009757996,
          0.7417277693748474,
          0.739416241645813,
          0.730592668056488,
          0.7280237078666687,
          0.7274077534675598,
          0.7246372103691101,
          0.7229365110397339
        ],
        "top_features": [
          55560,
          18673,
          63227,
          35668,
          6331,
          28405,
          2189,
          46068,
          32884,
          48866,
          57159,
          9870,
          49098,
          13622,
          4573,
          9833,
          40611,
          24882,
          43937,
          33701
        ],
        "enc_primal_PR": 13066.945496344775,
        "enc_probe_PR": 17782.080007455446,
        "enc_primal_ez": 0.005177325010587559,
        "enc_probe_ez": 0.0007872562902321489,
        "dec_primal_PR": 7871.213424146995,
        "dec_probe_PR": 21165.01257640564,
        "dec_primal_ez": 0.00918968442170751,
        "dec_probe_ez": 0.0006554550291348481
      },
      "experience": {
        "n_active": 1491,
        "top_feat_corrs": [
          -0.851866602897644,
          0.8500587344169617,
          0.7962873578071594,
          0.7929267287254333,
          0.7924175262451172,
          0.7829861640930176,
          -0.7743663191795349,
          0.7734320759773254,
          -0.7662321925163269,
          0.7607375383377075,
          0.749521791934967,
          -0.7359415888786316,
          -0.7328773736953735,
          -0.7327535152435303,
          0.7289836406707764,
          -0.7208091616630554,
          0.7198095917701721,
          0.7149524092674255,
          0.7021013498306274,
          0.699766218662262
        ],
        "top_features": [
          36361,
          6886,
          55741,
          15353,
          57867,
          1312,
          10349,
          21333,
          58294,
          42113,
          22946,
          3127,
          62125,
          31213,
          10153,
          19064,
          17952,
          29109,
          40611,
          13562
        ],
        "enc_primal_PR": 12350.392795737054,
        "enc_probe_PR": 17295.95606472977,
        "enc_primal_ez": 0.004224974470309086,
        "enc_probe_ez": 0.00019377226512552574,
        "dec_primal_PR": 8890.336804570623,
        "dec_probe_PR": 21280.986086352452,
        "dec_primal_ez": 0.004705029463982518,
        "dec_probe_ez": 0.00037536086563983703
      },
      "bmi_abs": {
        "n_active": 1291,
        "top_feat_corrs": [
          0.7742481231689453,
          0.7589496374130249,
          0.7476184368133545,
          0.7445476055145264,
          0.7394627332687378,
          -0.736402153968811,
          0.7256161570549011,
          0.7079829573631287,
          -0.704030454158783,
          -0.7034996747970581,
          -0.7006190419197083,
          -0.6995757222175598,
          -0.6995744109153748,
          -0.6976454854011536,
          -0.6966981887817383,
          -0.6943639516830444,
          0.6941993236541748,
          -0.6868734359741211,
          -0.6849019527435303,
          0.6831274032592773
        ],
        "top_features": [
          50485,
          23937,
          20586,
          44786,
          55560,
          1306,
          1340,
          27580,
          52821,
          8026,
          31928,
          48480,
          37767,
          16183,
          7969,
          7405,
          22711,
          21270,
          32474,
          6077
        ],
        "enc_primal_PR": 11635.627027290619,
        "enc_probe_PR": 17267.410963733222,
        "enc_primal_ez": 0.003374811815913334,
        "enc_probe_ez": 0.0002605549942243624,
        "dec_primal_PR": 8189.118897312391,
        "dec_probe_PR": 21267.17745103748,
        "dec_primal_ez": 0.0043445801221781806,
        "dec_probe_ez": 0.00022858514799001413
      }
    }
  }
}