{
  "model": "google/gemma-2-2b",
  "layer": 20,
  "extended_alphas": [
    -8.0,
    -6.0,
    -4.0,
    -2.0,
    -1.0,
    0.0,
    1.0,
    2.0,
    4.0,
    6.0,
    8.0
  ],
  "null_alphas": [
    -2.0,
    0.0,
    2.0
  ],
  "n_null_seeds": 30,
  "n_folds": 5,
  "per_pair": {
    "height": {
      "norm_primal": 58.688941955566406,
      "slope_primal_ext": 1.6707851239669425,
      "slope_tangent_ext": 1.1337035123966945,
      "ent_primal_at_alpha2": -0.1352415132522582,
      "ent_primal_at_alpha4": -0.20301087141037,
      "ent_primal_at_alpha6": -0.3328784108161926,
      "ent_primal_at_alpha8": -0.6742086124420168,
      "ent_tangent_at_alpha2": -0.03379528522491437,
      "ent_tangent_at_alpha4": -0.09027659177780167,
      "ent_tangent_at_alpha6": -0.1950749707221986,
      "ent_tangent_at_alpha8": -0.414169342517853,
      "null_slopes_seeds": [
        0.1990624889731407,
        0.07093749940395355,
        -0.016249999403953563,
        -0.16656251251697538,
        0.01718750596046448,
        0.3259374946355819,
        -0.048750013113021864,
        -0.024062499403953545,
        0.040937498211860664,
        -0.07750000059604645,
        0.290937497629784,
        0.16125001013278958,
        0.19031250476837155,
        0.09562499821186066,
        0.12124999612569806,
        -0.0071875005960464295,
        0.11124999821186064,
        0.0018749982118606648,
        0.2193749994039535,
        0.11156249791383742,
        -0.13093750178813937,
        -0.19781250506639483,
        -0.05124999582767483,
        -0.16812498867511746,
        0.019374996423721296,
        -0.08562500774860375,
        -0.015312507748603817,
        0.14031250029802322,
        0.37187498947605485,
        0.0715624988079071
      ],
      "null_ent_shifts": [
        -0.0010495185852050781,
        -0.008101224899291992,
        0.0059549808502197266,
        0.000579833984375,
        0.007798433303833008,
        -0.0007691383361816406,
        0.023175954818725586,
        0.010215044021606445,
        -0.011907339096069336,
        0.013329744338989258,
        -0.024231672286987305,
        -0.013686418533325195,
        -0.002474546432495117,
        -0.014504432678222656,
        -0.00765538215637207,
        -0.002506732940673828,
        0.002446413040161133,
        0.02325153350830078,
        -0.016358137130737305,
        0.013917207717895508,
        0.0074253082275390625,
        -0.0207822322845459,
        0.016251802444458008,
        -0.011705160140991211,
        -0.016596317291259766,
        0.007922887802124023,
        0.002332925796508789,
        0.008813619613647461,
        0.022298097610473633,
        0.030121803283691406
      ],
      "null_slope_q025": -0.17628905568271874,
      "null_slope_q975": 0.33857030571671193,
      "null_slope_abs_q95": 0.31018749598297274,
      "cv_slopes": {
        "primal_in": {
          "mean": 1.7956874728202816,
          "std": 0.004407913928853022,
          "values": [
            1.7959374189376827,
            1.799999952316284,
            1.7874999642372125,
            1.7990624904632568,
            1.7959375381469724
          ]
        },
        "primal_out": {
          "mean": 1.7961875081062313,
          "std": 0.03734101788730581,
          "values": [
            1.7565624713897703,
            1.8218750357627864,
            1.779062509536743,
            1.8562499880790708,
            1.7671875357627864
          ]
        },
        "probe_in": {
          "mean": 0.07131249904632567,
          "std": 0.0018157332783729834,
          "values": [
            0.07062499225139617,
            0.0737500041723251,
            0.06906250119209288,
            0.06999999284744263,
            0.07312500476837158
          ]
        },
        "probe_out": {
          "mean": 0.10112499445676801,
          "std": 0.06027819197797542,
          "values": [
            0.13812498748302457,
            0.09531249105930327,
            0.11125000566244124,
            0.16937498748302457,
            -0.008437499403953538
          ]
        }
      }
    },
    "age": {
      "norm_primal": 42.23430633544922,
      "slope_primal_ext": 1.7676033057851241,
      "slope_tangent_ext": 1.3032128099173557,
      "ent_primal_at_alpha2": -0.1571588635444643,
      "ent_primal_at_alpha4": -0.37519157648086576,
      "ent_primal_at_alpha6": -0.5904228234291078,
      "ent_primal_at_alpha8": -0.7433551955223083,
      "ent_tangent_at_alpha2": -0.0937815260887147,
      "ent_tangent_at_alpha4": -0.24346515178680406,
      "ent_tangent_at_alpha6": -0.38060838222503657,
      "ent_tangent_at_alpha8": -0.4699057006835936,
      "null_slopes_seeds": [
        -0.006875008344650278,
        0.09437499940395354,
        0.06656250357627869,
        -0.09687499701976773,
        0.08968749642372129,
        0.20312499999999997,
        -0.009062498807907054,
        -0.07281249761581424,
        -0.050312489271163906,
        0.015312507748603817,
        0.2418750002980232,
        0.17062499374151227,
        0.25593749433755875,
        0.21343750506639478,
        0.35437499731779093,
        0.11531248688697814,
        0.06249999999999999,
        -0.25937499850988377,
        -0.1753124967217445,
        0.11031250655651091,
        0.08937500417232512,
        0.04531249403953551,
        -0.08187501132488251,
        -0.2890624962747096,
        -0.12687501311302182,
        0.08718749880790709,
        0.3875000034458935,
        0.07656249403953552,
        -0.11968751251697539,
        -0.42999999399762595
      ],
      "null_ent_shifts": [
        -0.004240989685058594,
        -0.010010004043579102,
        -0.0023741722106933594,
        -0.008411407470703125,
        -0.012652873992919922,
        -0.015540599822998047,
        0.005066394805908203,
        -0.009877204895019531,
        0.004119873046875,
        -0.013310909271240234,
        -0.01889657974243164,
        -0.0015568733215332031,
        0.002084970474243164,
        -0.024654150009155273,
        -0.01672077178955078,
        -0.02099466323852539,
        -0.015734195709228516,
        -0.005328655242919922,
        -0.010149717330932617,
        -0.018318653106689453,
        -0.002628326416015625,
        -0.018867969512939453,
        -0.012305736541748047,
        -0.007188081741333008,
        -0.023082256317138672,
        -0.005206584930419922,
        -0.015271425247192383,
        -0.025599002838134766,
        -0.008572101593017578,
        0.00140380859375
      ],
      "null_slope_q025": -0.3278203081485116,
      "null_slope_q975": 0.3634843740030191,
      "null_slope_abs_q95": 0.37259375068824724,
      "cv_slopes": {
        "primal_in": {
          "mean": 1.774000012874603,
          "std": 0.016587123742195377,
          "values": [
            1.7931250333786009,
            1.7615625262260435,
            1.7868750095367427,
            1.7799999713897703,
            1.7484375238418575
          ]
        },
        "primal_out": {
          "mean": 1.7738749861717225,
          "std": 0.03984960194342436,
          "values": [
            1.7506250143051147,
            1.7765624523162842,
            1.783749997615814,
            1.8393749594688413,
            1.7190625071525574
          ]
        },
        "probe_in": {
          "mean": 0.020062497258186342,
          "std": 0.003201561509005181,
          "values": [
            0.016874998807907077,
            0.021250009536743174,
            0.01718749105930327,
            0.019374996423721338,
            0.025624990463256846
          ]
        },
        "probe_out": {
          "mean": 0.013624995946884155,
          "std": 0.052765922074220255,
          "values": [
            0.04874999821186065,
            0.0703125,
            -0.044687509536743164,
            -0.055625006556510925,
            0.0493749976158142
          ]
        }
      }
    },
    "weight": {
      "norm_primal": 63.55891799926758,
      "slope_primal_ext": 1.1788378099173553,
      "slope_tangent_ext": 0.9047882231404958,
      "ent_primal_at_alpha2": 0.06208062171936035,
      "ent_primal_at_alpha4": 0.08521074295043984,
      "ent_primal_at_alpha6": 0.027236783504485995,
      "ent_primal_at_alpha8": -0.24277593851089474,
      "ent_tangent_at_alpha2": 0.052408521175384415,
      "ent_tangent_at_alpha4": -0.050458471775054914,
      "ent_tangent_at_alpha6": -0.2885186052322388,
      "ent_tangent_at_alpha8": -0.5801700460910797,
      "null_slopes_seeds": [
        -0.415000006556511,
        0.03468748927116394,
        -0.16312497854232785,
        0.08218750357627866,
        -0.2628125250339508,
        0.1037500202655792,
        0.12531250715255732,
        -0.14062499999999986,
        0.4518750309944153,
        0.3349999785423278,
        0.3624999821186065,
        0.2559375166893005,
        0.37218748033046717,
        0.36875002086162567,
        0.03999999165534978,
        -0.07374998927116386,
        0.27812498807907104,
        -0.07000002264976504,
        0.4765624999999999,
        0.2765624821186065,
        -0.12156251072883613,
        -0.6168750170618295,
        -0.3796874880790709,
        0.02718749642372136,
        -0.016562491655349752,
        0.22968749701976773,
        0.5318749994039534,
        -0.3456249982118606,
        0.1103125214576721,
        0.21906250715255735
      ],
      "null_ent_shifts": [
        -0.014298677444458008,
        -0.013915538787841797,
        0.022411346435546875,
        0.0008442401885986328,
        0.0030357837677001953,
        -0.01304769515991211,
        0.03401064872741699,
        0.001790761947631836,
        -0.012231111526489258,
        0.010779142379760742,
        -0.03420853614807129,
        0.0032927989959716797,
        -0.0028870105743408203,
        -0.0276639461517334,
        -0.013214826583862305,
        -0.01848435401916504,
        -0.004996061325073242,
        0.02227187156677246,
        -0.06207394599914551,
        -0.017787694931030273,
        0.004683732986450195,
        -0.01628851890563965,
        0.02215886116027832,
        -0.0044252872467041016,
        -0.06563305854797363,
        0.00780940055847168,
        0.0018007755279541016,
        -0.014426946640014648,
        0.026023387908935547,
        0.03306102752685547
      ],
      "null_slope_q025": -0.47051563444547356,
      "null_slope_q975": 0.491773437336087,
      "null_slope_abs_q95": 0.5069843746721742,
      "cv_slopes": {
        "primal_in": {
          "mean": 2.1805000424385064,
          "std": 0.005567776582974771,
          "values": [
            2.17906254529953,
            2.1846875548362727,
            2.170312523841857,
            2.185625076293945,
            2.182812511920928
          ]
        },
        "primal_out": {
          "mean": 2.1812187790870667,
          "std": 0.022434886123350622,
          "values": [
            2.1784375309944153,
            2.2040625810623165,
            2.1671875715255737,
            2.2079687118530265,
            2.1484374999999996
          ]
        },
        "probe_in": {
          "mean": 0.11656249165534974,
          "std": 0.0014388573292418556,
          "values": [
            0.11937499046325681,
            0.11531248688697816,
            0.11624997854232787,
            0.11593750119209288,
            0.11593750119209288
          ]
        },
        "probe_out": {
          "mean": 0.07812500894069671,
          "std": 0.09870984084354617,
          "values": [
            0.14281250536441803,
            0.16593751311302182,
            -0.09749999642372137,
            0.036250025033950806,
            0.1431249976158142
          ]
        }
      }
    },
    "size": {
      "norm_primal": 38.44025802612305,
      "slope_primal_ext": 2.072009297520661,
      "slope_tangent_ext": 1.343352272727273,
      "ent_primal_at_alpha2": -0.10247771024703933,
      "ent_primal_at_alpha4": -0.28883433818817084,
      "ent_primal_at_alpha6": -0.46816739082336367,
      "ent_primal_at_alpha8": -0.6089025449752805,
      "ent_tangent_at_alpha2": -0.03927931070327695,
      "ent_tangent_at_alpha4": -0.15150855064392044,
      "ent_tangent_at_alpha6": -0.322910208702087,
      "ent_tangent_at_alpha8": -0.49101493358612025,
      "null_slopes_seeds": [
        -0.06812500953674328,
        -0.3537499904632568,
        -0.12187498807907103,
        -0.21437495946884152,
        0.4693750143051148,
        0.03343749046325691,
        -0.11625003814697264,
        0.1715624928474427,
        0.222499966621399,
        -0.12187498807907103,
        0.2528125047683716,
        0.11906248331069941,
        0.25999999046325684,
        0.014687538146972611,
        -0.19218748807907104,
        0.0853124856948851,
        -0.13062494993209844,
        0.2896874547004699,
        0.05093747377395629,
        -0.02906250953674312,
        0.24968749284744254,
        0.078125,
        0.12531250715255732,
        0.001874983310699412,
        -0.12031251192092902,
        -0.21249997615814206,
        -0.059687495231628404,
        0.004687488079071035,
        -0.032187461853027295,
        0.24375003576278692
      ],
      "null_ent_shifts": [
        -0.01397705078125,
        -0.020055770874023438,
        -0.017670631408691406,
        -0.014981269836425781,
        -0.015170097351074219,
        -0.02807903289794922,
        -0.007086277008056641,
        -0.012652873992919922,
        -0.011451244354248047,
        -0.020020008087158203,
        -0.019138813018798828,
        -0.027553558349609375,
        -0.006628990173339844,
        -0.019702911376953125,
        -0.019388675689697266,
        -0.01832437515258789,
        -0.015119075775146484,
        -0.02222156524658203,
        -0.024185657501220703,
        -0.02373504638671875,
        -0.012600421905517578,
        -0.017234325408935547,
        -0.018352508544921875,
        -0.025425434112548828,
        -0.0330500602722168,
        -0.023754596710205078,
        -0.010083675384521484,
        -0.021066665649414062,
        -0.01721954345703125,
        -0.018669605255126953
      ],
      "null_slope_q025": -0.2527030929923057,
      "null_slope_q975": 0.339101533591747,
      "null_slope_abs_q95": 0.3249218493700025,
      "cv_slopes": {
        "primal_in": {
          "mean": 2.429740768671035,
          "std": 0.00875012883103641,
          "values": [
            2.4348958730697623,
            2.416562497615814,
            2.423807948827743,
            2.4317188262939444,
            2.4417186975479117
          ]
        },
        "primal_out": {
          "mean": 2.429035228490829,
          "std": 0.023912040925618206,
          "values": [
            2.434895813465118,
            2.429062545299529,
            2.3843427598476405,
            2.454531252384186,
            2.4423437714576717
          ]
        },
        "probe_in": {
          "mean": 0.046523499488830555,
          "std": 0.0039022944364052762,
          "values": [
            0.05045574903488155,
            0.045000016689300495,
            0.051224231719970675,
            0.040624976158142166,
            0.045312523841857896
          ]
        },
        "probe_out": {
          "mean": -0.03496621847152712,
          "std": 0.023769624588031522,
          "values": [
            0.0032551884651184078,
            -0.06999999284744268,
            -0.02996128797531134,
            -0.032812476158142104,
            -0.045312523841857896
          ]
        }
      }
    },
    "speed": {
      "norm_primal": 34.56877136230469,
      "slope_primal_ext": 1.3669938016528926,
      "slope_tangent_ext": 0.8740340909090908,
      "ent_primal_at_alpha2": -0.016804151535034784,
      "ent_primal_at_alpha4": -0.09624904155731251,
      "ent_primal_at_alpha6": -0.22760835170745874,
      "ent_primal_at_alpha8": -0.3320730781555179,
      "ent_tangent_at_alpha2": -0.014086532592774148,
      "ent_tangent_at_alpha4": -0.06767123222351135,
      "ent_tangent_at_alpha6": -0.1422825336456306,
      "ent_tangent_at_alpha8": -0.23822012662887593,
      "null_slopes_seeds": [
        0.23281249403953547,
        0.12218749523162839,
        0.12781249731779099,
        0.07249999791383742,
        -0.055937498807907104,
        0.03406249918043613,
        -0.047500002197921276,
        -0.12656249850988383,
        -0.1493749991059303,
        0.11874999850988384,
        -0.007812500000000003,
        0.0559374988079071,
        -0.13249999657273293,
        0.06437499914318322,
        0.11781249940395351,
        0.0578124988824129,
        -0.061874999664723866,
        -0.13874999806284904,
        0.12437500059604642,
        0.19593749940395355,
        0.11593750119209288,
        -0.11374999582767484,
        -0.09406249970197676,
        0.09718750044703481,
        -0.18312499672174454,
        -0.2849999964237212,
        0.01531250029802322,
        0.03750000102445481,
        -0.014062499627470968,
        0.03375000040978193
      ],
      "null_ent_shifts": [
        -0.006835460662841797,
        -0.017403602600097656,
        -0.010834693908691406,
        -0.012891292572021484,
        -0.013887882232666016,
        -0.027452468872070312,
        -0.0034008026123046875,
        -0.012187957763671875,
        0.0014982223510742188,
        -0.012351512908935547,
        -0.01658153533935547,
        -0.011200428009033203,
        -0.007288932800292969,
        -0.013303756713867188,
        -0.007218837738037109,
        -0.021513938903808594,
        -0.011638641357421875,
        -0.008917808532714844,
        -0.016115188598632812,
        -0.0122528076171875,
        -0.012355804443359375,
        -0.017131805419921875,
        -0.01177978515625,
        -0.01049661636352539,
        -0.019586563110351562,
        -0.013337135314941406,
        -0.010157585144042969,
        -0.01665210723876953,
        -0.011257171630859375,
        -0.013274669647216797
      ],
      "null_slope_q025": -0.2111406216397881,
      "null_slope_q975": 0.20607812292873853,
      "null_slope_abs_q95": 0.2162187464535235,
      "cv_slopes": {
        "primal_in": {
          "mean": 1.4051249980926512,
          "std": 0.006387856963575966,
          "values": [
            1.4059374928474426,
            1.3959375023841853,
            1.4006249904632566,
            1.4143750071525574,
            1.4087499976158142
          ]
        },
        "primal_out": {
          "mean": 1.404687523841858,
          "std": 0.023924526159889138,
          "values": [
            1.3684375286102293,
            1.427187502384186,
            1.434687554836273,
            1.398750007152557,
            1.3943750262260433
          ]
        },
        "probe_in": {
          "mean": 0.16787499934434885,
          "std": 0.0018477185926367352,
          "values": [
            0.16499999910593027,
            0.1684375032782554,
            0.1665624976158142,
            0.1700000017881393,
            0.16937499493360517
          ]
        },
        "probe_out": {
          "mean": 0.10268749967217446,
          "std": 0.10773712923766558,
          "values": [
            0.14218749850988383,
            -0.10999999940395352,
            0.1793750002980232,
            0.16968750208616257,
            0.13218749687075615
          ]
        }
      }
    },
    "wealth": {
      "norm_primal": 63.21361541748047,
      "slope_primal_ext": 2.2559400826446288,
      "slope_tangent_ext": 1.6290676652892564,
      "ent_primal_at_alpha2": -0.446587076187134,
      "ent_primal_at_alpha4": -0.858428258895874,
      "ent_primal_at_alpha6": -1.1206533551216125,
      "ent_primal_at_alpha8": -1.4087661623954775,
      "ent_tangent_at_alpha2": -0.34238128900527975,
      "ent_tangent_at_alpha4": -0.7384128499031068,
      "ent_tangent_at_alpha6": -0.9992909598350526,
      "ent_tangent_at_alpha8": -1.255074738264084,
      "null_slopes_seeds": [
        0.23406249284744265,
        -0.12281250953674308,
        -0.17781251668930045,
        -0.12749999761581413,
        -0.11218750476837155,
        0.39781248569488525,
        -0.11281251907348637,
        0.3521875143051147,
        0.45250001549720753,
        0.07749998569488518,
        0.5856250524520874,
        -0.2671874761581419,
        0.2134374976158141,
        0.1043750047683715,
        0.7084374725818633,
        0.4368750452995299,
        0.37093752622604365,
        0.028124988079071066,
        -0.341249942779541,
        -0.10593754053115852,
        -0.5021874606609346,
        -0.4034374952316285,
        0.5621874630451202,
        -0.007499992847442659,
        -0.12749999761581413,
        -0.38781249523162836,
        0.15000003576278678,
        0.016562461853027483,
        -0.4662500023841858,
        -0.14750003814697257
      ],
      "null_ent_shifts": [
        -0.050643205642700195,
        -0.016282320022583008,
        0.0048754215240478516,
        -0.016142845153808594,
        -0.01939558982849121,
        -0.06112194061279297,
        0.03503012657165527,
        -0.015411615371704102,
        0.017432451248168945,
        -0.03978848457336426,
        -0.04213595390319824,
        0.0046367645263671875,
        0.009227752685546875,
        -0.05273032188415527,
        -0.008010387420654297,
        -0.054715871810913086,
        -0.04163956642150879,
        0.0398409366607666,
        -0.07017731666564941,
        -0.03554034233093262,
        0.019475698471069336,
        -0.026215314865112305,
        0.020460844039916992,
        0.019736528396606445,
        -0.11131691932678223,
        -0.0039598941802978516,
        -0.027353525161743164,
        -0.05919003486633301,
        0.01891160011291504,
        -0.01779484748840332
      ],
      "null_slope_q025": -0.4761328034102917,
      "null_slope_q975": 0.6193984679877756,
      "null_slope_abs_q95": 0.5750781372189521,
      "cv_slopes": {
        "primal_in": {
          "mean": 2.2544374674558636,
          "std": 0.019824557754970298,
          "values": [
            2.2506250441074367,
            2.2653124481439586,
            2.2173437178134914,
            2.2710936665534973,
            2.2678124606609344
          ]
        },
        "primal_out": {
          "mean": 2.2532500267028803,
          "std": 0.027257725696136523,
          "values": [
            2.26531246304512,
            2.2696875929832454,
            2.2034374773502345,
            2.2810937911272045,
            2.2467188090085983
          ]
        },
        "probe_in": {
          "mean": 0.19037498235702513,
          "std": 0.002967257435745345,
          "values": [
            0.19124996662139893,
            0.18968749046325675,
            0.1850000023841857,
            0.19249999523162853,
            0.19343745708465573
          ]
        },
        "probe_out": {
          "mean": 0.235687506198883,
          "std": 0.05851864741049811,
          "values": [
            0.26625001430511464,
            0.20531255006790156,
            0.16281247138977045,
            0.33250004053115845,
            0.21156245470047
          ]
        }
      }
    },
    "experience": {
      "norm_primal": 58.89065170288086,
      "slope_primal_ext": 3.494232954545455,
      "slope_tangent_ext": 2.697988119834712,
      "ent_primal_at_alpha2": -0.22993573427200298,
      "ent_primal_at_alpha4": -0.6142290472984313,
      "ent_primal_at_alpha6": -1.0542421770095824,
      "ent_primal_at_alpha8": -1.424327764511108,
      "ent_tangent_at_alpha2": -0.2101129460334774,
      "ent_tangent_at_alpha4": -0.4488118076324459,
      "ent_tangent_at_alpha6": -0.6686467742919922,
      "ent_tangent_at_alpha8": -0.8507606387138367,
      "null_slopes_seeds": [
        0.4384375214576721,
        0.16578119993209842,
        -0.01765626668930043,
        0.04750001430511471,
        -0.5871875286102296,
        -0.23031258583068845,
        0.34843742847442627,
        -0.15328127145767217,
        0.25093746185302734,
        0.16656255722045898,
        0.023906290531158485,
        0.2918750643730163,
        0.3212500214576721,
        0.42656248807907093,
        0.48796874284744257,
        0.3768750429153441,
        -0.8146874904632564,
        0.10531246662139901,
        -0.8793749809265138,
        -0.041875004768371624,
        -0.895937472581863,
        0.7153125405311583,
        0.5789061784744263,
        -0.4471874237060545,
        0.7298436760902404,
        -0.8314061760902403,
        -0.4156249761581422,
        -0.3018749952316283,
        -0.05421876907348637,
        0.09921878576278687
      ],
      "null_ent_shifts": [
        -0.03572845458984375,
        -0.0386958122253418,
        -0.033419132232666016,
        -0.03595447540283203,
        -0.049280643463134766,
        -0.06264114379882812,
        -0.012271881103515625,
        -0.03443145751953125,
        -0.007234096527099609,
        -0.032912254333496094,
        -0.04757189750671387,
        -0.026144981384277344,
        -0.022850990295410156,
        -0.057376861572265625,
        -0.03246593475341797,
        -0.06271839141845703,
        -0.05133318901062012,
        -0.02173137664794922,
        -0.06531929969787598,
        -0.051552772521972656,
        0.001653432846069336,
        -0.04179692268371582,
        -0.028683900833129883,
        -0.021378040313720703,
        -0.08877730369567871,
        -0.0322263240814209,
        -0.031234264373779297,
        -0.06280875205993652,
        -0.03883552551269531,
        -0.03325176239013672
      ],
      "null_slope_q025": -0.8839296661317348,
      "null_slope_q975": 0.7193086028099058,
      "null_slope_abs_q95": 0.8577890187501905,
      "cv_slopes": {
        "primal_in": {
          "mean": 4.62196991443634,
          "std": 0.01588796016979197,
          "values": [
            4.631313204765318,
            4.624177575111389,
            4.60156238079071,
            4.645296335220337,
            4.607500076293944
          ]
        },
        "primal_out": {
          "mean": 4.619961071014404,
          "std": 0.07948092676828399,
          "values": [
            4.6595643758773795,
            4.547532916069031,
            4.542719364166259,
            4.754832386970519,
            4.59515631198883
          ]
        },
        "probe_in": {
          "mean": 0.08956916332244878,
          "std": 0.009663314680101403,
          "values": [
            0.07922983169555671,
            0.09128290414810186,
            0.10704791545867916,
            0.08762890100479138,
            0.08265626430511484
          ]
        },
        "probe_out": {
          "mean": 0.057787001132965046,
          "std": 0.21025690307375938,
          "values": [
            0.3068182468414306,
            0.07878291606903076,
            0.1038896441459655,
            -0.3310244679450989,
            0.13046866655349723
          ]
        }
      }
    },
    "bmi_abs": {
      "norm_primal": 59.42688751220703,
      "slope_primal_ext": 2.1339721074380167,
      "slope_tangent_ext": 1.6461983471074382,
      "ent_primal_at_alpha2": -0.11455090284347502,
      "ent_primal_at_alpha4": -0.19599459886550896,
      "ent_primal_at_alpha6": -0.1433566355705258,
      "ent_primal_at_alpha8": -0.271577558517456,
      "ent_tangent_at_alpha2": -0.16637843132019015,
      "ent_tangent_at_alpha4": -0.3612215328216548,
      "ent_tangent_at_alpha6": -0.4258939599990841,
      "ent_tangent_at_alpha8": -0.5405764985084529,
      "null_slopes_seeds": [
        0.20125001668930048,
        0.029062449932098423,
        -0.2496874928474424,
        0.08781254291534417,
        0.04468750953674325,
        0.004687547683715733,
        -0.25218749046325695,
        -0.25187504291534424,
        0.21375000476837158,
        -0.027187466621399013,
        0.06062495708465576,
        0.1050000190734863,
        0.21906250715255735,
        0.0987499952316284,
        0.1690624952316285,
        -0.2718750238418577,
        -0.4709374904632568,
        0.08937501907348633,
        -0.3281250000000001,
        0.13499999046325678,
        -0.0715624690055847,
        0.2809375524520874,
        -0.1499999761581421,
        0.3253124952316284,
        0.055312514305114774,
        0.08843749761581428,
        0.059374988079071,
        0.254062533378601,
        -0.14031249284744263,
        -0.058437466621398794
      ],
      "null_ent_shifts": [
        -0.0012850761413574219,
        -0.020152568817138672,
        -0.02872753143310547,
        -0.0012745857238769531,
        -0.03653383255004883,
        -0.016699790954589844,
        0.007493019104003906,
        -0.019208908081054688,
        0.006537914276123047,
        -0.005682468414306641,
        -0.03018665313720703,
        -0.009888648986816406,
        -0.013660430908203125,
        -0.031786441802978516,
        -0.0027408599853515625,
        -0.01918315887451172,
        -0.018606185913085938,
        -0.021999359130859375,
        -0.026688575744628906,
        -0.02472066879272461,
        -0.014462471008300781,
        -0.02573871612548828,
        -0.0030698776245117188,
        -0.0009002685546875,
        -0.06533288955688477,
        -0.03394794464111328,
        -0.01584911346435547,
        -0.024251937866210938,
        0.003919124603271484,
        -0.017588138580322266
      ],
      "null_slope_q025": -0.36739843487739565,
      "null_slope_q975": 0.29314066171646114,
      "null_slope_abs_q95": 0.32685937285423283,
      "cv_slopes": {
        "primal_in": {
          "mean": 2.149031244218349,
          "std": 0.014560128836057482,
          "values": [
            2.1374998837709422,
            2.156875096261501,
            2.1265624612569805,
            2.165156230330467,
            2.1590625494718547
          ]
        },
        "primal_out": {
          "mean": 2.1479687437415125,
          "std": 0.021380973862668556,
          "values": [
            2.1271875798702236,
            2.143749974668026,
            2.1318749934434886,
            2.1876561343669887,
            2.149375036358833
          ]
        },
        "probe_in": {
          "mean": -0.22218748331069943,
          "std": 0.0035189073287651288,
          "values": [
            -0.2234374880790709,
            -0.21625000238418565,
            -0.2221874594688416,
            -0.22718745470047005,
            -0.2218750119209289
          ]
        },
        "probe_out": {
          "mean": -0.27874999046325677,
          "std": 0.10324484406978626,
          "values": [
            -0.15437495708465557,
            -0.40187501907348616,
            -0.30593752861022955,
            -0.1618749499320984,
            -0.36968749761581404
          ]
        }
      }
    }
  }
}