{"gemma2-2b/height": {"mean_total_layer": [0.21134337782859802, 0.19308027625083923, 0.17002256214618683, 0.05248849093914032, 0.16718585789203644, 0.11502066999673843, 0.08955346047878265, 0.24921731650829315, 0.30070585012435913, 0.23535633087158203, 0.07108400017023087, 0.2838188111782074, 0.33310315012931824, 0.24665993452072144, 0.4241626560688019, 0.22263625264167786, 0.44612520933151245, 0.25453731417655945, 0.29027944803237915, 0.10251180827617645, 0.24414873123168945, 0.13036943972110748, 0.1685790717601776, 0.17550340294837952, 0.11618033796548843, 0.1039881482720375], "r_total_layer": [0.17687683409991034, -0.7169431421486744, -0.5576070406167963, -0.27839905794181163, -0.5319041231395578, 0.14718868283595862, -0.03882168966592195, 0.370732245370461, -0.017477203185671895, -0.4735680061469165, -0.154549764081006, -0.26493630215453956, -0.6905447262071757, -0.23560610929310705, -0.5622486503029055, -0.5221735971279139, -0.492156860556202, -0.41073270180809013, -0.3865048219259729, -0.12112044447473072, -0.4503578958296813, -0.023405392433154107, 0.02387335495225355, -0.01230459641827406, 0.31809793660378904, -0.17876326422236055], "mean_slot": [[0.0063936724327504635, 0.00747315539047122, 0.00812339223921299, 0.00963912345468998, 0.007396580185741186, 0.008341779001057148, 0.009645771235227585, 0.011139309965074062, 0.008189440704882145, 0.012524268589913845, 0.01435462199151516, 0.0163798239082098, 0.020195556804537773, 0.026077544316649437, 0.04546906426548958], [0.036319319158792496, 0.02043136954307556, 0.011417776346206665, 0.011472729966044426, 0.010061747394502163, 0.010481448844075203, 0.008119013160467148, 0.007879056967794895, 0.008615182712674141, 0.008625929243862629, 0.011189577169716358, 0.008590918965637684, 0.012570571154356003, 0.01228247955441475, 0.015023176558315754], [0.010661261156201363, 0.007614185102283955, 0.008521606214344501, 0.006128140725195408, 0.005262327846139669, 0.00699511868879199, 0.009260074235498905, 0.007168917916715145, 0.011410100385546684, 0.01238417997956276, 0.014587949961423874, 0.01388905756175518, 0.01746443472802639, 0.012786081060767174, 0.025889195501804352], [0.009863539598882198, 0.004585362039506435, 0.002839055610820651, 0.0018744643311947584, 0.0012530155945569277, 0.0010954031022265553, 0.00036704872036352754, 0.0009415356907993555, 0.0008611349039711058, 0.0020757734309881926, 0.0012292469618842006, 0.0012710053706541657, 0.003514916868880391, 0.0057022166438400745, 0.015014774166047573], [0.03207893669605255, 0.008864237926900387, 0.010010694153606892, 0.013698372058570385, 0.007217299658805132, 0.007983775809407234, 0.006067031063139439, 0.008742118254303932, 0.004556403495371342, 0.006356373894959688, 0.009657418355345726, 0.008425160311162472, 0.009886827319860458, 0.010253988206386566, 0.023387223482131958], [0.02898245118558407, 0.007408651523292065, 0.007562489248812199, 0.007167518604546785, 0.005088367965072393, 0.0025532685685902834, 0.0036755867768079042, 0.005807314533740282, 0.00423872284591198, 0.004777716938406229, 0.005867582280188799, 0.004659348167479038, 0.00479750894010067, 0.006712915375828743, 0.015721207484602928], [0.046151578426361084, 0.007887576706707478, 0.003979239147156477, 0.002434344729408622, 0.002017588121816516, 0.001764586428180337, 0.0012078945292159915, 0.000992765068076551, 0.003182065673172474, 0.0015927114291116595, 0.001568881212733686, 0.0013159154914319515, 0.0016501846257597208, 0.002156444825232029, 0.011651742272078991], [0.03660313040018082, 0.021088790148496628, 0.012715200893580914, 0.013897933065891266, 0.012512380257248878, 0.012011301703751087, 0.00841368269175291, 0.009035283699631691, 0.011633124202489853, 0.013807239942252636, 0.009530485607683659, 0.01249235961586237, 0.01752752624452114, 0.017756180837750435, 0.040192630141973495], [0.02644563652575016, 0.030951131135225296, 0.013064775615930557, 0.01865663193166256, 0.014340324327349663, 0.022923756390810013, 0.016711048781871796, 0.024228107184171677, 0.01627061702311039, 0.018303556367754936, 0.01600503735244274, 0.01630079559981823, 0.01585967279970646, 0.016155967488884926, 0.03448905423283577], [0.018070053309202194, 0.026662947610020638, 0.009142196737229824, 0.012100131250917912, 0.011393170803785324, 0.012436737306416035, 0.009309711866080761, 0.006488502956926823, 0.006560774520039558, 0.012871405109763145, 0.012651381082832813, 0.013053645379841328, 0.018648019060492516, 0.017754865810275078, 0.048212453722953796], [0.008583157323300838, 0.002813969971612096, 0.0036642379127442837, 0.0034616391640156507, 0.0009828651091083884, 0.0014885923592373729, 0.0035134311765432358, 0.003901546588167548, 0.0029048598371446133, 0.002861078130081296, 0.003687986172735691, 0.0028866035863757133, 0.004792032763361931, 0.00497093191370368, 0.020571034401655197], [0.013077874667942524, 0.033068761229515076, 0.02608659118413925, 0.026093997061252594, 0.015165756456553936, 0.013703727163374424, 0.014584978111088276, 0.014805248007178307, 0.008366369642317295, 0.01340818963944912, 0.016164828091859818, 0.00790973287075758, 0.014263605698943138, 0.01724950782954693, 0.04986976087093353], [0.021729448810219765, 0.03249562159180641, 0.01880034990608692, 0.02183414064347744, 0.019939228892326355, 0.027171945199370384, 0.021487342193722725, 0.030551472678780556, 0.011317916214466095, 0.014959855005145073, 0.020551444962620735, 0.020275993272662163, 0.01846085675060749, 0.01893199235200882, 0.03459541127085686], [0.017545655369758606, 0.03651250898838043, 0.021833747625350952, 0.018064452335238457, 0.016787422820925713, 0.015186639502644539, 0.012223158963024616, 0.016262046992778778, 0.006488400977104902, 0.00854151789098978, 0.01304654497653246, 0.009859956800937653, 0.007737346459180117, 0.008279134519398212, 0.03829121217131615], [0.06740322709083557, 0.06668102741241455, 0.02581537328660488, 0.02839507907629013, 0.01950722560286522, 0.030210956931114197, 0.019561227411031723, 0.029622970148921013, 0.015011535957455635, 0.018332159146666527, 0.02443918213248253, 0.01808292046189308, 0.015543038956820965, 0.015186303295195103, 0.030370624735951424], [0.01683317869901657, 0.03507983684539795, 0.016522254794836044, 0.010207066312432289, 0.008086692541837692, 0.008454070426523685, 0.005856791976839304, 0.012675134465098381, 0.006807059049606323, 0.009633713401854038, 0.01917579211294651, 0.009467375464737415, 0.014503009617328644, 0.015008528716862202, 0.03432578593492508], [0.035009656101465225, 0.09484229236841202, 0.029624976217746735, 0.0302292350679636, 0.023387426510453224, 0.02637464366853237, 0.023552415892481804, 0.025747956708073616, 0.013777789659798145, 0.021222783252596855, 0.025530138984322548, 0.016011027619242668, 0.020282020792365074, 0.01744571328163147, 0.0430871956050396], [0.026055030524730682, 0.05584385618567467, 0.022522175684571266, 0.02216584049165249, 0.011696896515786648, 0.012085671536624432, 0.010771803557872772, 0.010705547407269478, 0.00761240441352129, 0.009996315464377403, 0.010992278344929218, 0.007949383929371834, 0.011959047056734562, 0.01248890720307827, 0.021691953763365746], [0.032612934708595276, 0.040625978261232376, 0.020587746053934097, 0.022009840235114098, 0.016502972692251205, 0.01872132532298565, 0.013742574490606785, 0.018584400415420532, 0.008377245627343655, 0.011868814006447792, 0.015548812225461006, 0.010068368166685104, 0.013462423346936703, 0.01712517812848091, 0.030441051349043846], [0.012477734126150608, 0.019166752696037292, 0.00838104635477066, 0.008302462287247181, 0.005821402184665203, 0.004797428380697966, 0.002747857943177223, 0.005667225457727909, 0.0032667608465999365, 0.004643185529857874, 0.0048530143685638905, 0.004253394901752472, 0.003577848896384239, 0.004768443293869495, 0.00978727638721466], [0.02212216518819332, 0.050898924469947815, 0.021332325413823128, 0.017590146511793137, 0.01220647431910038, 0.012413247488439083, 0.007250469643622637, 0.012132220901548862, 0.008412180468440056, 0.010381698608398438, 0.01398541685193777, 0.007950890809297562, 0.009793010540306568, 0.01424784678965807, 0.02343181148171425], [0.005829755682498217, 0.030423479154706, 0.01309587899595499, 0.011147407814860344, 0.007202795706689358, 0.008429196663200855, 0.004713127855211496, 0.006314234808087349, 0.0034385717008262873, 0.0041404408402740955, 0.005241755861788988, 0.0062728808261454105, 0.006014673504978418, 0.007259598933160305, 0.010845622979104519], [0.011482425965368748, 0.03300228714942932, 0.01951410435140133, 0.013917106203734875, 0.00931801088154316, 0.010051355697214603, 0.0062988921999931335, 0.007425003685057163, 0.005911011714488268, 0.006985475774854422, 0.008233413100242615, 0.007119384594261646, 0.008521790616214275, 0.00868930947035551, 0.012109333649277687], [0.020272094756364822, 0.03407144546508789, 0.01581188477575779, 0.01111008133739233, 0.007655762135982513, 0.009583709761500359, 0.005845030769705772, 0.008822569623589516, 0.006226318888366222, 0.005632077809423208, 0.008532104082405567, 0.00716826319694519, 0.008712945505976677, 0.010294146835803986, 0.01576487347483635], [0.016809983178973198, 0.019652927294373512, 0.008089170791208744, 0.00686689093708992, 0.004844313953071833, 0.004914166871458292, 0.0042407698929309845, 0.004891803488135338, 0.0034254591446369886, 0.0041439286433160305, 0.0072261574678123, 0.004777455702424049, 0.005854233168065548, 0.0075574941001832485, 0.012885574251413345], [0.010270784609019756, 0.01046969648450613, 0.00753672095015645, 0.005066716577857733, 0.004920330364257097, 0.004994738381356001, 0.0031551264692097902, 0.005382424220442772, 0.0037546162493526936, 0.007015843875706196, 0.00682504428550601, 0.005407772492617369, 0.007529206573963165, 0.007090417202562094, 0.014568669721484184]], "r_slot_layer": [[-0.13006955319123248, -0.153698952201614, 0.02537033276340247, -0.05195892849627315, -0.15269538680529657, -0.16855434098475708, -0.019288272088238374, -0.016714635989901337, -0.09185996939707679, -0.2206686973917717, 0.06512218083800174, 0.09222841006816403, -0.019686580141920422, 0.2693039053688382, 0.34313583689364363], [-0.6066963169368974, -0.5415236192910867, -0.4603841545887403, -0.608939223559302, -0.556305774545394, -0.5295405263480546, -0.5880804603496278, -0.5242930060054832, -0.5357852716835434, -0.593478179803653, -0.5587294399239406, -0.4941013673419094, -0.5572925259388387, -0.5589460852296858, -0.5603728956804472], [0.1120800664530007, -0.171338822788786, 0.03411748049737631, -0.10251226967072671, -0.34583591309300366, -0.12244895257721868, -0.17546970179539084, -0.18326839947310947, -0.10132363438584052, -0.09054826863523623, -0.3345252156710411, -0.4424008718670753, -0.3922102954354836, -0.24222910773699874, -0.4834613426882736], [0.020950274448398955, 0.08381683493593221, -0.21255900895205707, -0.23162648055190685, -0.1321370468500636, -0.17920236401856163, -0.08298899225890882, 0.014184369737875813, -0.09671891569301644, -0.09243207214985208, -0.2509388783856912, -0.06233020456807579, -0.21559248993482513, -0.0981439221369768, -0.030076918236036233], [-0.22047569553810192, -0.21959965929637953, -0.2814714202348551, -0.30135387572224065, -0.23646006691043503, -0.20820034153341688, -0.08850247264173151, 0.010148687151411808, -0.24292621099836506, -0.2957027660120968, -0.14714906140266532, -0.07310233731501685, -0.1756417829547252, -0.079748907674833, 0.07991688704528058], [-0.023203581933931287, -0.2968028387703589, -0.26785637913619403, -0.15988657514650817, -0.009505485853642847, 0.015092391785042068, 0.06105697303629098, 0.20779399238161134, 0.31875700447961053, 0.06764512279145142, 0.07322917644896448, 0.1797968933478615, 0.005121809330052366, 0.12180612074154587, 0.497811858225322], [-0.14036127711446336, -0.03142883169551883, -0.10094700694577309, -0.3676864280829724, -0.223622330614051, -0.02805473716061827, 0.010728702058750306, 0.3070539154566037, -0.15436931044542584, -0.26638864410648067, 0.18808542979159878, 0.28145773514170547, -0.06184071654941663, -0.037324432727197675, 0.425868514749581], [0.20405856485984278, 0.37170855821509813, 0.02960672190578522, 0.14126915107065333, 0.3164200237963596, 0.2761722329349983, 0.2963279714573255, 0.061520262690299074, 0.25226636646066647, 0.33408076957074073, -0.023153659266598462, 0.18076772621319442, 0.2175702660766409, 0.16014849387789723, 0.1811364186127684], [0.1550544980799621, 0.45230040011876144, -0.1384529341746609, -0.0273456991680648, 0.12725416303871318, -0.08080178519828407, 0.19454442610909783, 0.09953282460970235, -0.11637102556193897, -0.2846490710653843, -0.13991707800975936, -0.3163215927480339, -0.15001645575026015, -0.22921877601810767, 0.08601052492068122], [0.13146321175230521, 0.1759591777747304, -0.3103717119655182, 0.050151674408793936, -0.008012076913636765, -0.15819366644622734, -0.05749391017228596, -0.19337919094866043, -0.20427135589675954, -0.2119182019922344, -0.3745132361346639, -0.4927986811015996, -0.28810942633083264, -0.538065858512564, -0.4373123577064375], [0.20047066847532508, 0.12322116635896965, 0.10865685951699978, 0.298159819254626, 0.19048825212253048, 0.08393048527897222, 0.08392684770756803, 0.09343059808621171, -0.010067154896946191, 0.16858167926924905, 0.159672216754025, -0.18319304066150743, -0.13401630526601713, -0.3280519066198355, -0.46437197909335864], [0.21940118462587507, -0.03173889933595581, -0.17173883832773537, 0.056003402170178754, 0.008043142572460686, -0.028522581268684465, 0.11199584443667097, -0.08839709850910396, -0.1302465666775318, -0.13814512670328588, -0.30680777990965397, -0.33045220374460416, -0.0916139905644117, -0.33386364909084126, -0.2502970779092392], [-0.06840380283630965, 0.0019200856494404127, -0.3051862375155317, -0.11567568572160576, -0.1866297294581291, -0.44212542998752197, -0.2608323453578765, -0.1236819388793346, -0.5027662561097762, -0.46622518056167334, -0.5166807601711169, -0.8154851541884691, -0.3460091408430884, -0.253523083857606, -0.44099841598053807], [0.41464996396740245, 0.04998208988465619, -0.0932203572669158, 0.11286433506084353, 0.0701010497446013, -0.022059501194731566, 0.08837451065862598, -0.06965878658523839, -0.07701607686897079, -0.20590674315340476, -0.5437803932675712, -0.5619388391801856, -0.14122251626181362, -0.4756251098410372, -0.3567174925665925], [4.123769829411172e-05, 0.17387841060793174, -0.6446249988591749, 0.19720206484132644, -0.25170741600345986, -0.4305176840301323, -0.009367856453948418, -0.23440880965403887, -0.28064971704487185, -0.2255637213635096, -0.6662282287429, -0.73451679475388, 0.02751532738760823, -0.22663969712965687, -0.45268044317073713], [0.14633495893891918, -0.040082341211688896, -0.2667758166413879, 0.0410678557522221, 0.06110095385472277, -0.0650678813615228, 0.09677168282106748, -0.09646597324211915, -0.10111874198893842, -0.07400014681673905, -0.5884529334587233, -0.38244093166288196, -0.14076076497629414, -0.40982555610506616, -0.3859733674656462], [0.19736776112481091, 0.06429886067182987, -0.6215763698707552, 0.1925754600622651, -0.21888705784159754, -0.3745829934938828, 0.11067964881694267, -0.19300543545757343, -0.2115712162428014, 0.00815054488187506, -0.7130731296514717, -0.47641654778535436, -0.015439448630931416, -0.4601227906267977, -0.47912181852811475], [0.35968733255849694, 0.17086500446224454, -0.40341428653628025, 0.1660926796648185, -0.2939348413227741, -0.33196137180013224, -0.03751751403755791, -0.23287924874309282, -0.30213154391155655, -0.028291393555326082, -0.7523456533141593, -0.4891362678449776, -0.008212232058400194, -0.6178296949427801, -0.7888597590501796], [0.4685815270756059, 0.4831678369224354, -0.2983780450792857, 0.2478439410506332, -0.16625368147981476, -0.14145321243484552, -0.004594094990036253, -0.12069547199306165, -0.31805487973012425, -0.22916492075322303, -0.7290530042993468, -0.5177121142481578, -0.11927337594818023, -0.50606299976268, -0.5873082031275842], [0.3952881827320204, 0.029213984497917712, -0.22331142686437194, 0.07177833966404462, -0.08471817938187767, -0.15124219720186294, -0.04735119390271117, -0.08589112933063038, -0.2148998557588422, -0.05842689942661234, -0.4104836462358912, -0.31162001561508296, -0.09155954463443662, -0.24123337080632667, -0.26553875118857506], [0.23548857742902632, 0.40815742295531193, -0.4538325064713576, 0.2429597926387643, -0.18939967589166493, -0.2563756168976167, 0.022432517917820537, -0.14818370469807765, -0.2222602739608094, -0.08713233352006541, -0.6930378707769211, -0.5260482138963545, -0.1478035502006081, -0.6591927851862626, -0.5395570908347096], [0.39176852486272945, 0.3924215696037946, -0.21425518061624493, 0.17614322188799364, -0.026883913361201904, -0.12960128146817815, 0.178756476249534, -0.03638714694459825, -0.18928965175135049, -0.021885569572105336, -0.7159214840098302, -0.19878182083582863, -0.1261615437028824, -0.2447356074779004, -0.5917840875219982], [0.5513355565971721, 0.2541676415333259, -0.1304073927767172, 0.19754028618333117, -0.09547589975275195, 0.017322877784889387, 0.0796843385650715, 0.010228383312833015, 0.004742777000099112, -0.016285106094637913, -0.5870845217281999, -0.18773144745714027, -0.09959250680840187, -0.17664574151208162, -0.3115507839111289], [0.5171014190657519, 0.3670645763817464, 0.05721336176188519, 0.1026464549928078, -0.0706615251088269, 0.015160964654598364, -0.044708288896776714, -0.0011153030337867072, -0.016346495658561087, -0.2256429525672731, -0.5902905259175385, -0.3833757697657829, -0.2270823834495543, -0.3765603071216685, -0.45802291816417406], [0.7303485613088303, 0.5204615393136875, 0.3537044303235329, 0.30112684216088664, 0.12034083095028097, 0.2589082645287326, 0.21474763961851664, 0.0656512421655554, 0.07133061294017642, -0.06668452273893298, -0.4129007081905485, -0.237422260701988, -0.08739157683456876, -0.20757567519071488, -0.2617237766540428], [0.5672517378235278, -0.10403719722819627, 0.18589511209827966, 0.005899371149163207, 0.06312611965886375, 0.010593703236299674, 0.14995539526606677, -0.027142616492749887, -0.053461405595518645, -0.296740975403401, -0.3835903734325052, -0.5007459600325384, -0.26440916767899064, -0.5196533640730956, -0.17430280836141823]]}, "gemma2-2b/weight": {"mean_total_layer": [0.1669507920742035, 0.12098542600870132, 0.11657316237688065, 0.04935236647725105, 0.12740035355091095, 0.10833273082971573, 0.1024341881275177, 0.23976759612560272, 0.23107793927192688, 0.19522643089294434, 0.08246008306741714, 0.2238597869873047, 0.26556599140167236, 0.1940169632434845, 0.3348709046840668, 0.19018861651420593, 0.3944213092327118, 0.22493329644203186, 0.34301409125328064, 0.12430363148450851, 0.2478521317243576, 0.14101172983646393, 0.20624402165412903, 0.22754402458667755, 0.13047704100608826, 0.10342593491077423], "r_total_layer": [-0.45382042469478234, -0.41333960292030447, -0.3387911071165142, -0.3495511695448592, -0.3846821444320252, -0.4831687120173827, -0.4909384696242839, -0.4422996582567183, -0.3644883337210671, -0.2804871926984438, -0.1732217782357844, -0.3341746494880412, -0.5253433301050214, 0.12403141019191553, -0.35400998210769397, -0.2681900003147072, -0.248634979749782, -0.6171911470025919, -0.6222569979400027, -0.21049594624522644, -0.1462952115321121, 0.06371574510271959, -0.17279908619565768, -0.13191850368242233, 0.04489782376318007, -0.23416300955661787], "mean_slot": [[0.005617380607873201, 0.00581385986879468, 0.005763918161392212, 0.004937990568578243, 0.006288374308496714, 0.0065949722193181515, 0.008438795804977417, 0.007264724466949701, 0.008464218117296696, 0.010561452247202396, 0.011400416493415833, 0.01394587941467762, 0.015353367663919926, 0.02217802219092846, 0.03432738408446312], [0.01912941224873066, 0.010236556641757488, 0.00710538774728775, 0.006323695182800293, 0.006553740240633488, 0.005506451707333326, 0.0060069202445447445, 0.0053459941409528255, 0.005923804827034473, 0.005521893966943026, 0.007571451365947723, 0.005875471048057079, 0.007499543018639088, 0.00975528173148632, 0.012629818171262741], [0.006228131707757711, 0.004864654969424009, 0.004030708223581314, 0.0037854856345802546, 0.005043487064540386, 0.006831166800111532, 0.005566077306866646, 0.005584015045315027, 0.008513068780303001, 0.006484724581241608, 0.011154661886394024, 0.008849140256643295, 0.008337270468473434, 0.01008874922990799, 0.02121196687221527], [0.0060349623672664165, 0.002997791161760688, 0.0011769139673560858, 0.0012119857128709555, 0.0009388814796693623, 0.0005658291047438979, 0.0008794391760602593, 0.0009278376819565892, 0.0014916171785444021, 0.000913012947421521, 0.0023113577626645565, 0.005076131783425808, 0.0048102205619215965, 0.007112340070307255, 0.012904070317745209], [0.02158152312040329, 0.008222518488764763, 0.009114118292927742, 0.006732054054737091, 0.004303366411477327, 0.004543766845017672, 0.006736564915627241, 0.003568468615412712, 0.004420946352183819, 0.005365761462599039, 0.00935685820877552, 0.005316706374287605, 0.008457252755761147, 0.012241694144904613, 0.017438717186450958], [0.030755244195461273, 0.008964111097157001, 0.006271248683333397, 0.004770336672663689, 0.002678793156519532, 0.0027621870394796133, 0.004168387036770582, 0.003766789333894849, 0.00447623897343874, 0.0032423795200884342, 0.0043130009435117245, 0.003982504364103079, 0.00438402034342289, 0.007626151666045189, 0.016171395778656006], [0.055756524205207825, 0.007922006770968437, 0.0038191690109670162, 0.0019004738423973322, 0.002329997718334198, 0.0014346386305987835, 0.0012437753612175584, 0.0021111799869686365, 0.002759729279205203, 0.0016578183276578784, 0.0019895480945706367, 0.0014262397307902575, 0.002162592951208353, 0.003699601162225008, 0.012220818549394608], [0.033609066158533096, 0.019797228276729584, 0.015291456133127213, 0.010546606965363026, 0.010580876842141151, 0.008399831131100655, 0.008107688277959824, 0.016635611653327942, 0.011030090041458607, 0.012777780182659626, 0.017288289964199066, 0.013415875844657421, 0.01511137280613184, 0.016109535470604897, 0.0310661718249321], [0.030937019735574722, 0.022711865603923798, 0.011586259119212627, 0.011303593404591084, 0.009352581575512886, 0.01222306303679943, 0.015216685831546783, 0.01588653400540352, 0.01253800094127655, 0.01050558127462864, 0.01327299140393734, 0.011361945420503616, 0.012990984134376049, 0.012352965772151947, 0.028837865218520164], [0.015841815620660782, 0.01902703195810318, 0.011628557927906513, 0.011590838432312012, 0.009884873405098915, 0.011388312093913555, 0.007229582406580448, 0.008542506955564022, 0.008410420268774033, 0.009161649271845818, 0.009636974893510342, 0.012604394927620888, 0.010844034142792225, 0.01783919706940651, 0.03159625455737114], [0.008820220828056335, 0.006574494764208794, 0.004689038265496492, 0.00195074244402349, 0.0024985973723232746, 0.0035942927934229374, 0.0047195907682180405, 0.004021582659333944, 0.004112593363970518, 0.006040078122168779, 0.004161244723945856, 0.0039444114081561565, 0.004508232697844505, 0.0056702797301113605, 0.017154769971966743], [0.01565023511648178, 0.03061382658779621, 0.022595014423131943, 0.018054820597171783, 0.010728140361607075, 0.010549947619438171, 0.011636773124337196, 0.01050505694001913, 0.00942237488925457, 0.009702416136860847, 0.00969371385872364, 0.0078063891269266605, 0.007736841216683388, 0.01513674482703209, 0.034027326852083206], [0.02236349880695343, 0.022197799757122993, 0.01566249504685402, 0.014722341671586037, 0.011906699277460575, 0.020072706043720245, 0.020838577300310135, 0.025012342259287834, 0.012157823890447617, 0.009769133292138577, 0.012324538081884384, 0.01247959490865469, 0.013015993870794773, 0.020801573991775513, 0.03224079683423042], [0.012592173181474209, 0.02694011852145195, 0.01639946922659874, 0.019307011738419533, 0.010691173374652863, 0.010087979957461357, 0.012829388491809368, 0.01084500178694725, 0.008642174303531647, 0.007235168945044279, 0.00825921818614006, 0.007397152949124575, 0.005358224734663963, 0.009477853775024414, 0.02795492112636566], [0.054503802210092545, 0.04465219005942345, 0.017213325947523117, 0.01591416262090206, 0.015170655213296413, 0.018043624237179756, 0.018809109926223755, 0.023476921021938324, 0.011614056304097176, 0.015958551317453384, 0.01628994382917881, 0.013546675443649292, 0.013128316961228848, 0.019134875386953354, 0.03741420805454254], [0.01045768428593874, 0.02293524146080017, 0.01334800198674202, 0.011037657037377357, 0.007352817803621292, 0.006616898346692324, 0.00970423687249422, 0.00979563593864441, 0.00723667535930872, 0.010576759465038776, 0.01057286188006401, 0.008967433124780655, 0.011029866524040699, 0.016895806416869164, 0.03366105630993843], [0.022090725600719452, 0.05245542898774147, 0.024701176211237907, 0.025921540334820747, 0.022454004734754562, 0.026408318430185318, 0.026013851165771484, 0.027295850217342377, 0.015656214207410812, 0.01794946938753128, 0.021763179451227188, 0.015613210387527943, 0.01882581226527691, 0.02591754123568535, 0.05135466158390045], [0.018693294376134872, 0.040809813886880875, 0.02252257615327835, 0.013325790874660015, 0.011086334474384785, 0.012361152097582817, 0.010662204585969448, 0.013469111174345016, 0.006911685224622488, 0.0096419183537364, 0.00992708932608366, 0.008292808197438717, 0.008930498734116554, 0.013091137632727623, 0.025208134204149246], [0.020659593865275383, 0.03840700536966324, 0.026325518265366554, 0.02523704059422016, 0.019721098244190216, 0.025845516473054886, 0.023278914391994476, 0.025401078164577484, 0.013543210923671722, 0.01647440530359745, 0.018256250768899918, 0.01366711501032114, 0.01650494523346424, 0.024222727864980698, 0.035469669848680496], [0.009704625234007835, 0.018358664587140083, 0.012353205122053623, 0.009999420493841171, 0.006272642873227596, 0.006858993321657181, 0.008230353705585003, 0.009056419134140015, 0.004170634783804417, 0.005907727871090174, 0.005905441008508205, 0.004061361774802208, 0.006249531637877226, 0.006100287660956383, 0.011074359528720379], [0.018250273540616035, 0.043518152087926865, 0.02331794984638691, 0.01886724680662155, 0.01167643815279007, 0.010934640653431416, 0.01113033015280962, 0.015389752574265003, 0.008544339798390865, 0.010353767313063145, 0.013218782842159271, 0.008833978325128555, 0.011130345985293388, 0.015903394669294357, 0.026782702654600143], [0.00632825680077076, 0.023618748411536217, 0.01276728417724371, 0.01221466064453125, 0.007868207059800625, 0.008453184738755226, 0.007948106154799461, 0.009013240225613117, 0.005095875356346369, 0.005369842983782291, 0.006863695569336414, 0.006217841990292072, 0.007886691018939018, 0.009632932022213936, 0.011733021587133408], [0.009699299931526184, 0.03287620469927788, 0.01928478479385376, 0.016874585300683975, 0.012663798406720161, 0.013927347026765347, 0.010805100202560425, 0.011904546059668064, 0.007647506892681122, 0.00976584479212761, 0.011280326172709465, 0.00964083056896925, 0.011068920604884624, 0.014074872247874737, 0.014730021357536316], [0.019185520708560944, 0.03496566042304039, 0.018472842872142792, 0.016632311046123505, 0.012811231426894665, 0.012908872216939926, 0.01079588197171688, 0.014774410054087639, 0.007535675540566444, 0.009380065836012363, 0.01171080581843853, 0.009115729480981827, 0.01191037893295288, 0.016302065923810005, 0.021042436361312866], [0.014028612524271011, 0.017111193388700485, 0.01046233531087637, 0.00932941772043705, 0.006852688267827034, 0.007590785156935453, 0.005931589752435684, 0.006734795402735472, 0.004265050403773785, 0.00547105772420764, 0.006064395420253277, 0.0050847879610955715, 0.00802348367869854, 0.00903450045734644, 0.014492440037429333], [0.005992709659039974, 0.005593810696154833, 0.00630531832575798, 0.005842367187142372, 0.005457219667732716, 0.004170297645032406, 0.006387782283127308, 0.006174071226269007, 0.005423541180789471, 0.005811224691569805, 0.007840984500944614, 0.005982273258268833, 0.009550164453685284, 0.008465263061225414, 0.014428879134356976]], "r_slot_layer": [[-0.35757807412778425, -0.3063571911802123, -0.42956132510559414, -0.42052862870329893, -0.3316708013119997, -0.4391602476204027, -0.18917556506855232, -0.4482099565122068, -0.12026089185444595, -0.3367538051076702, -0.21973406547582403, -0.4196667971240411, -0.3224017806410442, -0.3179837640866098, -0.37529163026463797], [-0.30782345006125483, -0.18569788358435224, -0.22709091603328158, -0.06697678348160634, -0.24101062354995723, -0.3490890114870511, -0.21940420408515207, -0.3484716137038949, -0.23284569057042376, -0.27391350535275794, -0.2610645386749378, -0.24173729469055097, -0.3240144981903217, -0.23629871349581483, -0.2944455175508154], [-0.3758731581029415, -0.16299933854285614, -0.35741624828651886, -0.2044895252743844, 0.15277045170778558, -0.049478257982573694, -0.30144786778225535, 0.11914805875889484, 0.07959470104164455, -0.3488913396308982, 0.24519631845093268, -0.3169250890756239, -0.39158632588282255, -0.1442284350061713, -0.21572060878511223], [-0.3680311752350495, -0.0741245061826381, -0.43896492034674534, -0.16084971671396062, -0.1969373363344996, -0.32064753408396085, -0.0445805070070366, -0.05485497161660122, -0.11959296208887979, -0.43086089513688314, 0.23283059809642898, 0.008622660398649453, -0.1566564370648122, 0.019368357585207985, -0.182659246199705], [-0.38486611211924837, -0.17071215524211983, -0.22419721768679485, -0.32854418475654107, -0.024090070815628934, -0.09380214230190721, -0.20391520506871869, -0.19182098247275892, -0.0566036557535344, -0.08427114899183849, -0.08308675519014785, -0.2291386486981107, -0.2791890972729894, 0.024924328999643135, -0.1344162430232972], [-0.13448080113135655, -0.23026759490594867, -0.37077282409953943, -0.4242325539520606, -0.4244881929800074, -0.2072870865210281, -0.0894948611682433, -0.21822135776087068, -0.10337776728265177, -0.4435743000023457, -0.39735879535666496, -0.4493211186800739, -0.37829830190012165, -0.29478022303819584, -0.43286879148333657], [-0.20235402301273256, -0.11828722053670647, -0.4161312690007026, -0.3264517399380318, -0.32070791947783805, -0.4176425078969672, -0.40470410490931275, -0.062105358708581464, -0.5125741689379749, -0.3683904788677769, -0.43376936873938504, -0.48891730235339315, -0.4220675262284476, -0.3525637511844517, -0.5211878822326678], [-0.25620914617563756, -0.43896430556459465, -0.37004524406269884, -0.389596793909603, -0.27550319672846285, -0.297138484849403, -0.332513423343302, 0.09160283243875512, -0.3347979667082304, -0.2669668553048581, -0.13768249429904783, -0.2334267219353319, -0.3283823131472171, -0.28545387667270683, -0.14324458434503115], [0.10792612840768734, -0.39207827118471444, -0.25560939495083707, -0.34972679568198234, -0.19611291204659648, -0.2704293925606408, -0.22691406912514409, -0.1140629247724039, -0.2599603850567164, -0.3360917177910212, -0.32638805044363933, -0.3107104920424672, -0.15071302896295308, -0.19968318739121688, -0.2148663460698268], [-0.1086817219704189, -0.3517652173947095, -0.03350744592619082, -0.161784648188164, -0.15532366990820648, -0.04005283250125463, -0.35072459368658254, -0.005698509332581301, -0.010829978806968553, -0.15226464109324336, -0.31551577441891365, -0.11464828641250883, -0.24260812812189197, -0.16363178657241784, -0.18572975393417931], [-0.22833474953297533, -0.14925390891955545, -0.3358355349002276, -0.36687893582984044, 0.07248348837597371, 0.047604970085340224, 0.042566246533119204, -0.10058526817013803, 0.2780493361402109, 0.3459182757423898, -0.15763241601426448, 0.09163852564291952, -0.05168947432086654, -0.13409982424714811, -0.115805291190956], [0.08159484173656915, -0.267652624266087, -0.38952196287685925, -0.47632601331411584, -0.3831887243683917, -0.190088731413425, -0.21071315964631895, -0.08533985352762959, 0.013466691915518015, -0.021471248482897724, -0.2306566989029326, -0.11260367112411292, -0.16142869164494805, -0.14392115483923984, -0.15815924061850004], [-0.34396663338500133, -0.6567885470788938, -0.35225096474536616, -0.36948964114866917, -0.5038871869924353, -0.2608445399588794, -0.3295455644492072, -0.11875542086421571, 0.036720017605828374, -0.17922006775475977, -0.351592780353986, -0.5048672668879869, -0.26729385254536264, -0.266893007008059, -0.3166094841195234], [0.054827316591715226, 0.0304657984083416, 0.2828187794263515, 0.14074606385063312, 0.11527932163305063, 0.21651488022778795, 0.17086643406411484, 0.11391629797573789, 0.2639467532638764, 0.2311624425256617, -0.16208976354075327, -0.15809170318001425, -0.049688318600665006, -0.19556502181228128, -0.08221560305530119], [0.018952734683664672, -0.24889653485010219, -0.42576227592980215, -0.4355276941875548, -0.25456442825865344, -0.10618887953851439, -0.07685120601476583, 0.24822528456144088, -0.17442016685568834, -0.11388602342103582, -0.44161767616153014, -0.47665913965680456, -0.20551174180783424, -0.10963900491104202, -0.08043352232418319], [-0.2563672630844874, -0.37878478639718466, -0.22001553243439773, -0.19200062743426247, -0.2168400253208221, 0.048090807522724356, -0.005719437024280114, 0.014721648482570491, 0.04208389528125711, 0.020304176964759845, -0.30687477026518484, -0.06243290520692082, 0.04533103185167422, -0.2415599471893772, -0.05857486783119648], [-0.07896183967582343, -0.30001170768160496, -0.17712262814727728, -0.33090473785237634, -0.3358650520601899, 0.013527647961756544, -0.15235650419792007, 0.25976693835180265, -0.05623581465012735, 0.0905350373490959, -0.43828034512785174, -0.31122105048376425, -0.09577958705742588, -0.14183409810884112, -0.014990447728984386], [-0.2507779784002274, -0.533907657918083, -0.3786708662606361, -0.7108417898597637, -0.34714200113089166, -0.08086855093303946, -0.2549598673170546, 0.20725244193938694, -0.48024895874097134, -0.16637279855085654, -0.6144582639302076, -0.47512623787733993, -0.4258745288034752, -0.42800209546121365, -0.274529121082683], [-0.31157738131463486, -0.5720199998314093, -0.47189135694441703, -0.6217647198928995, -0.4111236847156969, -0.13882232012036505, -0.38385868461535133, 0.16813735777656144, -0.3039161689223571, -0.3207789305638987, -0.5589415014538722, -0.5415534929924317, -0.3919697610554411, -0.3715557737493702, -0.2774277346653053], [-0.18529267782233425, -0.23074946844870384, -0.06839974295277736, -0.19057176751357835, -0.014405338712762736, 0.018982753698412142, -0.12176083432015275, 0.16096504465853606, -0.2706534594504946, 0.11657015536754624, -0.3702366779001832, -0.3893255498468763, 0.04040223819183055, -0.3137393755440669, -0.06633065429406261], [0.15649448781435826, -0.30560634063840875, -0.1537469576714203, -0.3305438196289203, -0.13864656058997374, 0.03337298994398924, 0.036267114143471266, 0.33219350288940797, -0.1633571624638363, 0.12968574225950188, -0.381946636848807, -0.11880746843055116, -0.13988560501017713, -0.1538154586321303, 0.02219466526656631], [0.24583304754935234, -0.012033553231315181, -0.08263413317236598, -0.3096022973770524, -0.13621500264646533, 0.2569713916638801, 0.10917512519435603, 0.4380012790274394, 0.0086619998746537, 0.17034283428528282, -0.2628655366759468, -0.2530951816735368, 0.038480918333437836, -0.012948401306915831, 0.030843741567266686], [0.1265060852098368, -0.2367643268366548, -0.3527828336355306, -0.1273919014284045, -0.1680398227511737, 0.10839387588501759, 0.09655607524685213, 0.2981760022997767, -0.1132985365235773, -0.08619262879225156, -0.3260798991480207, -0.11989870633192166, -0.13568546339806722, -0.10797843232350929, -0.02019442509237398], [-0.036292462817499, -0.1347647845638467, -0.2168655718910392, -0.08648026697399848, -0.06062146756133188, 0.01708432902265954, -0.01933569270458555, 0.21497586034922947, -0.14778616238809028, 0.06120507556009353, -0.2943103040113261, -0.20746926709452096, -0.09246398737072097, -0.15806975813570703, -0.0502423882302679], [0.1747547302573562, -0.16094732547004176, -0.0714212848637017, 0.13247063392032374, 0.010331513893503825, 0.27880461364212555, -0.0633548552986257, 0.2514932803774761, -0.04920343798991341, 0.03050988768702361, -0.32122590446538757, -0.020926063513281096, 0.101427898164991, -0.06258557834375764, 0.04149869350090533], [-0.1618693882610931, -0.2592687977076255, -0.17698125494465386, 0.027422026114466886, -0.08619478670338165, -0.2107560442915955, 0.11547550614024879, -0.016338980590824226, -0.21904047507605498, -0.2605140487052909, -0.2164709652094273, -0.19936116662363076, -0.0113336411676926, -0.17845496701806102, -0.08978253192557685]]}, "gemma2-2b/speed": {"mean_total_layer": [0.12421915680170059, 0.15126952528953552, 0.10002940148115158, 0.04331615939736366, 0.10068835318088531, 0.08951054513454437, 0.05298232287168503, 0.16153331100940704, 0.1441332846879959, 0.14932218194007874, 0.07166841626167297, 0.1961294263601303, 0.23347772657871246, 0.18095315992832184, 0.30030402541160583, 0.17618681490421295, 0.23817932605743408, 0.15189491212368011, 0.185932919383049, 0.0697408989071846, 0.10788378119468689, 0.0709536150097847, 0.09780280292034149, 0.10223469138145447, 0.058709755539894104, 0.07361219078302383], "r_total_layer": [-0.3538072465540734, -0.40325069323668244, -0.32255397498535315, -0.22389495117862437, -0.17785890982550176, -0.34579058794784734, -0.3030634374248249, -0.2508961034147823, -0.33468148394200586, -0.26284812184496237, -0.1735530498781405, -0.1704247982592184, -0.10270149480695653, 0.05088504425459966, -0.1832003327923659, -0.10502262667497313, -0.05230823892842267, 0.27409119219223843, 0.1796659308853367, 0.10312292082270294, 0.32487181466305043, 0.32619611619433875, 0.10822038869563752, 0.25238429423180486, 0.37633161803512793, -0.04357988980629273], "mean_slot": [[0.004008447751402855, 0.00444195419549942, 0.004732153378427029, 0.0051714894361793995, 0.005981102120131254, 0.005990814417600632, 0.005647843703627586, 0.005782047286629677, 0.006742893252521753, 0.006495393346995115, 0.008783303201198578, 0.009218992665410042, 0.013384820893406868, 0.016218721866607666, 0.021619154140353203], [0.020282328128814697, 0.010818746872246265, 0.007471121847629547, 0.006679108832031488, 0.007269944995641708, 0.006482526659965515, 0.007611867506057024, 0.006008386146277189, 0.007860327139496803, 0.007308404427021742, 0.007738341577351093, 0.010780640877783298, 0.011197522282600403, 0.013711852952837944, 0.020048517733812332], [0.005549447610974312, 0.005120016634464264, 0.004502999596297741, 0.00482014287263155, 0.003360697068274021, 0.003473975695669651, 0.004336746875196695, 0.007322665769606829, 0.005103444214910269, 0.006874551996588707, 0.009310431778430939, 0.008398665115237236, 0.011657402850687504, 0.009222242049872875, 0.010975976474583149], [0.005991418845951557, 0.002775378990918398, 0.0014773430302739143, 0.0013717103283852339, 0.0012758363736793399, 0.0010621064575389028, 0.0010270035127177835, 0.000799670466221869, 0.0007293781382031739, 0.0017345603555440903, 0.0016984245739877224, 0.0012505630729719996, 0.004745930898934603, 0.006469972897320986, 0.010906829498708248], [0.017153359949588776, 0.005950764752924442, 0.004669159185141325, 0.004848571959882975, 0.005169553682208061, 0.006280981469899416, 0.004205554258078337, 0.004920971114188433, 0.006240598391741514, 0.0034116848837584257, 0.004546505399048328, 0.0041865878738462925, 0.004960448946803808, 0.009524797089397907, 0.01461883820593357], [0.028409382328391075, 0.008203388191759586, 0.004213336389511824, 0.003035703208297491, 0.003809466026723385, 0.0033341224770992994, 0.0023895332124084234, 0.0021270213183015585, 0.0030446667224168777, 0.0035368874669075012, 0.003691914025694132, 0.003134893486276269, 0.0042262147180736065, 0.006302169058471918, 0.010051820427179337], [0.03136053681373596, 0.0035198028199374676, 0.0021098251454532146, 0.0014730059774592519, 0.001705329166725278, 0.0011660236632451415, 0.0009769989410415292, 0.0008681059116497636, 0.0009368726750835776, 0.0008519637631252408, 0.0007122036186046898, 0.0006409499328583479, 0.0007528234273195267, 0.0011038269149139524, 0.004804046358913183], [0.03130100667476654, 0.010351873002946377, 0.007614954374730587, 0.006335980258882046, 0.007534685079008341, 0.007739068008959293, 0.009020570665597916, 0.006073232740163803, 0.00793166272342205, 0.00878498051315546, 0.010211998596787453, 0.008240526542067528, 0.010168690234422684, 0.011505283415317535, 0.018718797713518143], [0.01517233531922102, 0.014768044464290142, 0.0073993150144815445, 0.011521690525114536, 0.006777086295187473, 0.008270504884421825, 0.006178612355142832, 0.010832136496901512, 0.007368938066065311, 0.006898430176079273, 0.006258221808820963, 0.00660581374540925, 0.0067842211574316025, 0.010908766649663448, 0.018389206379652023], [0.019146302714943886, 0.014210921712219715, 0.011542811058461666, 0.008834438398480415, 0.00667215883731842, 0.0077848234213888645, 0.010283289477229118, 0.008822809904813766, 0.007024181075394154, 0.008017057552933693, 0.007372691761702299, 0.006754831410944462, 0.008858287706971169, 0.0071875061839818954, 0.016810087487101555], [0.008188578300178051, 0.007064035162329674, 0.004807213321328163, 0.0034059055615216494, 0.00379720120690763, 0.0029879759531468153, 0.0031707645393908024, 0.004211043007671833, 0.0047651734203100204, 0.00366662978194654, 0.00601870147511363, 0.004768332466483116, 0.003785401117056608, 0.004051405470818281, 0.006980023346841335], [0.012551712803542614, 0.016588058322668076, 0.011849893257021904, 0.011916964314877987, 0.013143657706677914, 0.0096632931381464, 0.013334479182958603, 0.010685068555176258, 0.013560974039137363, 0.010914894752204418, 0.010189752094447613, 0.009084747172892094, 0.012660576961934566, 0.010694132186472416, 0.029291121289134026], [0.02264411561191082, 0.016054686158895493, 0.014612645842134953, 0.02169203571975231, 0.017856130376458168, 0.016377009451389313, 0.016327396035194397, 0.016580048948526382, 0.016673199832439423, 0.016564209014177322, 0.007731355261057615, 0.010969582013785839, 0.012269295752048492, 0.008095478639006615, 0.019030442461371422], [0.007767706643790007, 0.015789560973644257, 0.018569810315966606, 0.012498178519308567, 0.011092741042375565, 0.010216992348432541, 0.011212902143597603, 0.00885801948606968, 0.010677466168999672, 0.01211288571357727, 0.007440138608217239, 0.008021111600100994, 0.01025378704071045, 0.007685601711273193, 0.028756272047758102], [0.041192684322595596, 0.02565682679414749, 0.016396017745137215, 0.01811358332633972, 0.01779545098543167, 0.019248349592089653, 0.019762802869081497, 0.02385779470205307, 0.013456207700073719, 0.022827988490462303, 0.010571906343102455, 0.01314564235508442, 0.013464083895087242, 0.014697164297103882, 0.030117826536297798], [0.005564904771745205, 0.021499352529644966, 0.017041781917214394, 0.011452369391918182, 0.01030109915882349, 0.006465613376349211, 0.009377227164804935, 0.006989570334553719, 0.010217483155429363, 0.011738579720258713, 0.007657450158149004, 0.008105885237455368, 0.012640356086194515, 0.009942046366631985, 0.027193142101168633], [0.013125309720635414, 0.02289598435163498, 0.017682526260614395, 0.015657344833016396, 0.013721056282520294, 0.014585323631763458, 0.018504014238715172, 0.01617668755352497, 0.012993067502975464, 0.017584174871444702, 0.009944815188646317, 0.012057415209710598, 0.014632503502070904, 0.010907852090895176, 0.02771114930510521], [0.012945885770022869, 0.022963030263781548, 0.013308313675224781, 0.008486054837703705, 0.007582421880215406, 0.006408896297216415, 0.006435254588723183, 0.006676739081740379, 0.006270425394177437, 0.00939172226935625, 0.0059177265502512455, 0.007378334179520607, 0.009372448548674583, 0.009926354512572289, 0.018831200897693634], [0.010530919767916203, 0.020688634365797043, 0.014822393655776978, 0.015040661208331585, 0.011054488830268383, 0.012931202538311481, 0.011822069063782692, 0.01673152670264244, 0.010864239186048508, 0.011432022787630558, 0.006735242437571287, 0.008997789584100246, 0.007485626731067896, 0.0094481585547328, 0.017348024994134903], [0.005903294775635004, 0.00817023403942585, 0.0066183689050376415, 0.004645925480872393, 0.004052198491990566, 0.004381776321679354, 0.004536922555416822, 0.004449882078915834, 0.004298964515328407, 0.004297670908272266, 0.0031471664551645517, 0.0028974905144423246, 0.003229571273550391, 0.003157207276672125, 0.005954170133918524], [0.009945370256900787, 0.016533127054572105, 0.010181344114243984, 0.008481666445732117, 0.0058873617090284824, 0.005704737734049559, 0.005046428646892309, 0.006066206376999617, 0.0048700845800340176, 0.006676810793578625, 0.0038932410534471273, 0.005289569962769747, 0.004369885195046663, 0.005430359393358231, 0.009507651440799236], [0.005640861112624407, 0.008660318329930305, 0.005575858522206545, 0.005243363790214062, 0.004511320497840643, 0.004623099230229855, 0.004079074133187532, 0.00434255413711071, 0.003004887606948614, 0.004317962098866701, 0.002352530835196376, 0.003248007269576192, 0.003663398325443268, 0.004598370287567377, 0.007092073559761047], [0.005643230862915516, 0.011738606728613377, 0.008485670201480389, 0.007368318270891905, 0.006543064955621958, 0.0065701506100595, 0.005369378253817558, 0.0068215737119317055, 0.004573002457618713, 0.005815539974719286, 0.004092472605407238, 0.005264287814497948, 0.005358038004487753, 0.006429312750697136, 0.007730135228484869], [0.008159542456269264, 0.013141805306077003, 0.007460707798600197, 0.006472265347838402, 0.005586014129221439, 0.004540460649877787, 0.005017642397433519, 0.006575092673301697, 0.005087807774543762, 0.006312534678727388, 0.0038077267818152905, 0.005048162769526243, 0.006439724937081337, 0.007256889250129461, 0.011328289285302162], [0.007327606901526451, 0.00867941789329052, 0.004677917808294296, 0.0032834294252097607, 0.002762499963864684, 0.002296146936714649, 0.0028265707660466433, 0.0034695665817707777, 0.0027729414869099855, 0.0032683834433555603, 0.0023313057608902454, 0.002251206897199154, 0.002936690580099821, 0.0034842118620872498, 0.006341909524053335], [0.006144034676253796, 0.006379484664648771, 0.004643501713871956, 0.0037680550012737513, 0.003678324166685343, 0.0031143948435783386, 0.004417708143591881, 0.0034919902682304382, 0.0040830583311617374, 0.00492158392444253, 0.004324551671743393, 0.004462065640836954, 0.005555002950131893, 0.005252699367702007, 0.009375671856105328]], "r_slot_layer": [[-0.3258511524947019, -0.24394788154534616, -0.16788634908937566, -0.2969490419276162, -0.2196088898042708, -0.3215010750747937, -0.20879046045436211, -0.35585654493058205, -0.20445524766029313, -0.349226745580281, -0.32741221555786054, -0.35669220739932056, -0.25426229985921295, -0.25967388036220956, -0.3539187762852682], [-0.37642386678936185, -0.31147125562763095, -0.2864027058950724, -0.22299270695532414, -0.32071973501267126, -0.2911703903222892, -0.2538000939528662, -0.29428843958754763, -0.1798419449810479, -0.2424482594104591, -0.2798899340533577, -0.33190534846847686, -0.1991736991774123, -0.20396293377996466, -0.22524573754358088], [-0.024270342691789314, -0.202439127947061, 0.009491790025272893, -0.2183040977766041, -0.05900795784233152, -0.20284844030501553, 0.016046916841957987, -0.31974557768689915, -0.23590121921218773, -0.23490661952247513, -0.2855969541253568, -0.2250222681567355, -0.2234555713982759, -0.148338114171267, -0.32525877996059643], [-0.0673407198629228, -0.12036203691984013, -0.0323719451145335, 0.0716138745198474, -0.08657861127198795, -0.2866293374009516, -0.013696486712374573, -0.12354391670103403, -0.1571907784436403, -0.032055209272493744, -0.30712911164776313, 0.055633107164699165, -0.22206537933105405, -0.12894344830546173, -0.18473823294654104], [-0.13920066559275387, -0.0037100149860748092, 0.02446897351644623, -0.03437757455493125, -0.14250397738276466, -0.048388207768571986, -0.07447867797715538, -0.10250703419537742, -0.20454113281458025, -0.13485924093732155, -0.2432709488536932, -0.0525452541345728, -0.016652992498778052, -0.0014471384690110827, -0.1425112343906842], [-0.32326228456112976, -0.3028138357846816, -0.2417288051829148, -0.19179651982247953, -0.12567718272849246, -0.3501508996273108, -0.18216730615892646, -0.27802754069724644, -0.0460073154671914, -0.24946140299077288, -0.2907499613724244, -0.24788473182286888, -0.20060580309632228, -0.1155759298593815, -0.22515600130942934], [-0.30092618760206885, -0.026462953769227984, -0.06976334118390366, -0.16357749760676504, -0.039942035503849366, -0.3312884013363612, 0.02788191203225858, -0.12635562051940666, -0.09300165324640428, -0.11864236847100758, -0.29454791706809175, -0.24363428069872028, 0.02132895469831707, -0.1514273484369244, -0.12372113832912819], [-0.11038428255119208, -0.18116658032605545, -0.07215528289123718, -0.20647375677627716, -0.07735628301165014, -0.302925278586232, -0.1581048029639251, -0.23378642022646207, -0.11504947395390273, -0.12686607822763382, -0.2366777449869895, -0.11076490962623346, -0.08704427295890158, -0.20999212967158165, -0.1869267104880095], [-0.2506477202058989, -0.3007405523905364, -0.2950241465566751, -0.2664877769716691, -0.3012428131780453, -0.32776525249547667, -0.17456313517856334, -0.2741916542174758, -0.11034169908697467, -0.09857412086378942, -0.3158135280114968, -0.3272418377901871, -0.10762021652513239, -0.2086050694383651, -0.19787781423492276], [-0.10645689779965894, -0.12580601268172376, -0.12257559649497296, -0.1782749526000282, -0.17140730685590302, -0.014326320123788367, 0.012023129807351936, -0.20379556798828224, -0.18942758687185055, -0.11091644299464223, -0.02662102606675288, -0.2869882793666506, -0.22378065573786732, -0.11815669548577411, -0.1162894504362747], [-0.21421916353182371, -0.051390491545244985, -0.06468584017778857, -0.20624850682655466, -0.11070049708273792, -0.3151490330916081, 0.08441708129441501, 0.08892061416339947, -0.15646622377023064, 0.0292048874303369, 0.13693736158498857, -0.11147689789394055, 0.033613852162197685, -0.11588908937672122, -0.0766407957313282], [-0.18767668733861928, -0.23873769628621805, -0.1608075374271041, -0.021407433774086503, -0.13705788518150935, -0.21665322912808632, -0.007726802083589533, -0.03446439188998035, -0.03921876609442171, 0.012223748914438046, -0.02766035226801684, -0.1214625737294786, -0.0884085053271677, -0.08764092835226332, -0.10448455532963868], [-0.21682613142981932, -0.15049771025532085, 0.12257396747907591, 0.07115811110313104, -0.1329275036779582, 0.13255986953318885, -0.048866120950150055, 0.12436649859669852, -0.11401843353747511, -0.03232698552196998, 0.06305340818777595, -0.1765555568624897, -0.1153655774113995, -0.012629095550399266, -0.05826559682100045], [-0.15798536886218587, 0.15071853602801832, -0.07000614320676429, 0.06000070152753676, 0.16504742344052067, 0.07876406025709103, 0.18747664106097095, 0.0597018154110127, 0.04960213117849609, 0.0836824648947699, -0.013679008421609934, -0.10136514200625357, -0.08488051560149536, 0.04334643176618881, -0.021689970042884144], [-0.10428821775370245, 0.10325760271061867, -0.021217772373419153, -0.23807113385760711, 0.04354499910057591, -0.32953362545635645, 0.30074761934421673, -0.1088553043670346, -0.18073770694798036, -0.10363285536915996, -0.0835438490165037, -0.4458935313413058, -0.00986939045140257, 0.06459388938136451, -0.018766622877172397], [-0.25675772568040583, 0.046305636191173255, -0.18467389378129365, -0.06232599705828812, -0.14814911214504842, -0.24731752331950413, 0.09534039244287405, 0.001509598502900061, 0.043110314695686186, -0.01897523802425302, 0.024860274726374653, -0.11991790891808332, -0.0841999542757536, 0.04636316048022918, -0.005025680356085793], [-0.3351160562184644, 0.07753312828659438, -0.10251760531899609, -0.1565826663185842, 0.07413576155115384, -0.26083565305927014, 0.29453528124376244, -0.0714777808809158, -0.09782359335718245, 0.05616655451676344, 0.026670211938033577, -0.38904166435831183, 0.031664291801908724, 0.03508691130165339, 0.07584787029221703], [-0.14899810021356358, 0.4319813287799062, 0.22598081105305393, -0.07522799503761225, 0.28616107511330047, -0.19526950686981456, 0.3071155133492361, 0.045961989790546255, 0.044461950708813376, 0.11445708753218847, 0.15836929295795113, -0.3117513596056007, 0.30234476780950625, 0.03642678543507871, 0.013874156828736888], [-0.05828996075706919, 0.3389222506478517, 0.007253653234526233, -0.11320002502011434, 0.22775107044143122, -0.16551859595010696, 0.3579996491587734, 0.053151004590968505, -0.04985261108176279, 0.14460513827864524, 0.1764478258224052, -0.28026586860738073, 0.2744456459680396, 0.08629454787050556, 0.08921813773981505], [-0.1414725000874147, 0.12963918952107553, 0.09584410845346013, 0.007123624504178736, 0.16979230122593306, -0.039230928823768246, 0.18645640483572445, 0.09110400184935535, -0.009889042885441294, 0.13740778183160507, 0.12196977101102009, -0.004753562237956515, 0.1506373152890705, 0.06330409682255064, -0.0204436496692756], [0.07147617806996458, 0.38901851411886496, 0.2667190959586984, 0.14927478252485674, 0.22957079504511063, 0.024015922267335833, 0.2587251660386009, 0.12230858170952481, 0.05531791599590509, 0.14825133098044987, 0.1574731495767704, -0.010268525412039958, 0.1884931885525632, 0.16949233173532513, 0.13193794403307685], [-0.06457507253138833, 0.4992194911315757, 0.3212276258691694, 0.21420569177625529, 0.25165579071397454, -0.03387401123659797, 0.23839297618571598, 0.20815029155457826, -0.047095190965418574, 0.1275736177024312, 0.12140855981444254, 0.0021905662172336587, 0.0401284772852139, 0.029092462617728188, 0.048524596922227194], [-0.15968130109223763, 0.14453415581432752, 0.17449690351259944, 0.06448719157074224, 0.0742336114045904, -0.022658833512214177, 0.22666796312162266, 0.11879781258493657, -0.0163247787964636, 0.08078515013499983, 0.08415267781505181, -0.054632657946129475, 0.1031115659807202, 0.016996682804299848, 0.03872359204668636], [-0.08372614407321265, 0.20852453961765757, 0.22380631480698912, 0.2112549193272699, 0.17495281839082696, 0.023439123039839756, 0.22960561284551406, 0.15047214849634227, 0.06586115878312258, 0.11641544632256028, 0.17614519478709806, 0.05547817737437188, 0.14049003241192398, 0.10331120486455639, 0.12408503361193295], [0.08325658968098491, 0.3514728035085806, 0.2777444233880206, 0.26293029153759645, 0.21081307415572556, 0.11105226505968972, 0.22998845997591183, 0.16787259747631597, 0.05513857168833318, 0.14768818470642983, 0.19693432701407884, 0.09036509243193712, 0.22714414149937795, 0.19076807161824047, 0.10308020140860598], [-0.13335353102869005, 0.10052398082103685, 0.04156450624145246, 0.05847061990860618, 0.08445024822457277, -0.05583508292749893, 0.08483556076950734, -0.14322274342441163, -0.03585187240585553, 0.0049111977468609255, -0.2239717227584379, -0.20415415313084553, 0.17503031354643203, -0.012394956216533318, -0.022830435587204205]]}, "gemma2-9b/height": {"mean_total_layer": [0.4206553101539612, 0.17498815059661865, 0.22064697742462158, 0.3510533273220062, 0.7367483377456665, 0.19332119822502136, 0.5321332216262817, 0.1332121342420578, 0.5288280248641968, 0.30047938227653503, 0.4177646338939667, 0.3495211899280548, 0.3898913860321045, 0.3795684576034546, 0.45824065804481506, 0.38788825273513794, 0.5115054845809937, 0.68356853723526, 1.1000744104385376, 0.7689512372016907, 1.542993187904358, 1.6778463125228882, 1.5455316305160522, 1.5114614963531494, 0.7235645055770874, 0.8634738922119141, 0.6627541780471802, 0.23019029200077057, 0.6635029315948486, 0.30623018741607666, 0.3586355447769165, 0.3808925747871399, 0.3659164607524872, 0.38329556584358215, 0.2673265337944031, 0.18509550392627716, 0.49209386110305786, 0.23625245690345764, 0.1752498745918274, 0.26678794622421265, 0.21017254889011383, 0.17303866147994995], "r_total_layer": [0.25484296841642956, -0.750706199435337, -0.6029515302656552, -0.7085141702227014, -0.7380746425318118, -0.7092159604370637, -0.5052311939280099, 0.3096252546093278, -0.4492783156797066, -0.5976774981329, -0.08197412364738849, -0.03798737973004192, -0.6324955415157312, 0.20212913471507848, 0.25752771607235564, 0.394828575638994, 0.09289982065308264, 0.10243159435177528, -0.5668278946276452, -0.2894606029934882, 0.056125648349456284, 0.2425995967019741, -0.3249036692361561, -0.19349740739107993, -0.5762313223572014, -0.5388942186890644, -0.4018475840188633, -0.2779635827333172, -0.28090701277429364, -0.10374049903351926, -0.26603558236422364, -0.46061626224512486, -0.5002189753502994, 0.14852571352580182, -0.0721866009218481, -0.16964048989358527, 0.14119266762671526, -0.10219404656555885, -0.29514057056346277, 0.26565801511758824, -0.24980365063847157, 0.6190741049569991], "mean_slot": [[0.017917754128575325, 0.018414665013551712, 0.016038890928030014, 0.01627192273736, 0.018236069008708, 0.015059955418109894, 0.017276227474212646, 0.023424578830599785, 0.021314451470971107, 0.027905501425266266, 0.024647340178489685, 0.03072921186685562, 0.034643594175577164, 0.05821511894464493, 0.08056002110242844], [0.022014431655406952, 0.014798824675381184, 0.013764659874141216, 0.011920919641852379, 0.008753635920584202, 0.007870960049331188, 0.007489132694900036, 0.00901538971811533, 0.007697725668549538, 0.011502724140882492, 0.00982754584401846, 0.00995136983692646, 0.01190250739455223, 0.011924861930310726, 0.016553472727537155], [0.023482706397771835, 0.01217286940664053, 0.02165983058512211, 0.012031098827719688, 0.014424108900129795, 0.01309671439230442, 0.01109276246279478, 0.00920885056257248, 0.006717537064105272, 0.008801983669400215, 0.017096109688282013, 0.018111910670995712, 0.016241228207945824, 0.019415590912103653, 0.017093531787395477], [0.061788029968738556, 0.024653403088450432, 0.02786295861005783, 0.025634992867708206, 0.015446600504219532, 0.017925607040524483, 0.016079090535640717, 0.017679695039987564, 0.013967853039503098, 0.015718456357717514, 0.016247432678937912, 0.018248779699206352, 0.02098989114165306, 0.02202616259455681, 0.036784786731004715], [0.16056030988693237, 0.06957334280014038, 0.057072628289461136, 0.05046789348125458, 0.033463552594184875, 0.0425320528447628, 0.030501486733555794, 0.03285069391131401, 0.031019646674394608, 0.0283268503844738, 0.02957468293607235, 0.03343731909990311, 0.031714122742414474, 0.0429251492023468, 0.06272902339696884], [0.030706018209457397, 0.012809068895876408, 0.016244711354374886, 0.013671763241291046, 0.014086135663092136, 0.015177931636571884, 0.007703080773353577, 0.010386545211076736, 0.011179003864526749, 0.010837971232831478, 0.010511718690395355, 0.01096013281494379, 0.009551267139613628, 0.007797412108629942, 0.011698564514517784], [0.07584202289581299, 0.026168998330831528, 0.03655612841248512, 0.026096176356077194, 0.021320877596735954, 0.02384854666888714, 0.021836057305336, 0.025390617549419403, 0.02470236085355282, 0.0245869979262352, 0.03755788505077362, 0.042469508945941925, 0.03106357716023922, 0.039819713681936264, 0.07487338036298752], [0.04196794703602791, 0.011036024428904057, 0.009350853972136974, 0.005956874694675207, 0.004729157313704491, 0.005162064451724291, 0.004286214243620634, 0.00493680639192462, 0.00615261634811759, 0.005323634948581457, 0.007025826722383499, 0.004552690777927637, 0.005017803516238928, 0.005633835215121508, 0.012079714797437191], [0.057029664516448975, 0.03923458978533745, 0.03439534455537796, 0.02665744721889496, 0.022887609899044037, 0.02768911048769951, 0.023751700296998024, 0.023572655394673347, 0.026277706027030945, 0.02857467159628868, 0.04066713526844978, 0.025200828909873962, 0.03474946692585945, 0.04253015294671059, 0.07561001926660538], [0.048597294837236404, 0.03592214360833168, 0.021189171820878983, 0.01604819856584072, 0.014280859380960464, 0.01329843420535326, 0.013107923790812492, 0.011828322894871235, 0.013620573095977306, 0.01794837974011898, 0.02738051302731037, 0.011934977024793625, 0.011154113337397575, 0.01440814696252346, 0.029760390520095825], [0.03056339919567108, 0.037001073360443115, 0.027930162847042084, 0.024898825213313103, 0.01975357159972191, 0.030093321576714516, 0.018664758652448654, 0.03092927299439907, 0.02424168772995472, 0.02463199570775032, 0.022359468042850494, 0.021056877449154854, 0.022591186687350273, 0.027020921930670738, 0.056027866899967194], [0.02760213054716587, 0.026046408340334892, 0.024827225133776665, 0.021072162315249443, 0.01761695183813572, 0.01791198179125786, 0.02135865017771721, 0.015311302617192268, 0.023158330470323563, 0.014005608856678009, 0.017638199031352997, 0.014673835597932339, 0.01529010385274887, 0.030111655592918396, 0.06289643794298172], [0.025421587750315666, 0.03800251707434654, 0.03063649870455265, 0.03874871879816055, 0.023294957354664803, 0.02527269534766674, 0.023863565176725388, 0.020970743149518967, 0.02372511848807335, 0.017793409526348114, 0.022825272753834724, 0.01743336394429207, 0.019031498581171036, 0.02397857792675495, 0.03889278694987297], [0.023329617455601692, 0.0448266863822937, 0.029762981459498405, 0.01985618844628334, 0.02985331416130066, 0.020620111376047134, 0.015143681317567825, 0.019756365567445755, 0.01759253442287445, 0.01372750848531723, 0.018816163763403893, 0.012108714319765568, 0.020583251491189003, 0.027983712032437325, 0.0656074658036232], [0.033161479979753494, 0.044914502650499344, 0.03882785886526108, 0.025413163006305695, 0.025896064937114716, 0.022873813286423683, 0.018279587849974632, 0.03284776955842972, 0.017366794869303703, 0.01618962176144123, 0.03190920501947403, 0.020557286217808723, 0.02163567580282688, 0.03668197616934776, 0.07168582826852798], [0.04516243189573288, 0.03700460121035576, 0.0356515496969223, 0.02199474163353443, 0.02281407080590725, 0.01820679008960724, 0.01777021773159504, 0.02116577886044979, 0.013592321425676346, 0.010966979898512363, 0.014529850333929062, 0.011710342951118946, 0.017159858718514442, 0.019119461998343468, 0.08103929460048676], [0.0439896322786808, 0.04564438760280609, 0.01845845952630043, 0.017526449635624886, 0.01997789926826954, 0.020329032093286514, 0.021332181990146637, 0.02720983698964119, 0.0213424414396286, 0.02926587499678135, 0.03502145782113075, 0.025885039940476418, 0.036626219749450684, 0.03459159657359123, 0.11430501192808151], [0.040936004370450974, 0.0720084086060524, 0.06863506883382797, 0.059659238904714584, 0.04494801163673401, 0.045890118926763535, 0.028264572843909264, 0.04479706287384033, 0.03498148173093796, 0.038887523114681244, 0.04041404649615288, 0.026793068274855614, 0.03516251593828201, 0.03021206147968769, 0.07197929918766022], [0.06871751695871353, 0.1199745237827301, 0.09176338464021683, 0.10795329511165619, 0.0562707781791687, 0.08386215567588806, 0.05366094410419464, 0.0996859148144722, 0.061203788965940475, 0.06059103086590767, 0.07038861513137817, 0.05029395967721939, 0.055024899542331696, 0.03829560428857803, 0.08238866180181503], [0.04934556037187576, 0.07211549580097198, 0.046055469661951065, 0.04965638369321823, 0.036411166191101074, 0.052550047636032104, 0.04253435879945755, 0.04215814173221588, 0.046921152621507645, 0.04755305498838425, 0.056861184537410736, 0.05044640973210335, 0.03573717921972275, 0.0387330986559391, 0.10187201201915741], [0.07591655105352402, 0.22775401175022125, 0.1368304342031479, 0.12663127481937408, 0.09833648055791855, 0.11008817702531815, 0.07514701783657074, 0.09761601686477661, 0.07910117506980896, 0.08587054163217545, 0.10834154486656189, 0.06278351694345474, 0.07731592655181885, 0.05112475901842117, 0.13013656437397003], [0.09302321821451187, 0.19043217599391937, 0.14476408064365387, 0.14438442885875702, 0.1003444492816925, 0.14048227667808533, 0.08604015409946442, 0.1205412968993187, 0.09017478674650192, 0.10217764973640442, 0.10522861778736115, 0.06386905163526535, 0.07121139764785767, 0.05143294110894203, 0.1737390160560608], [0.10412927716970444, 0.24143774807453156, 0.1460544317960739, 0.11936546117067337, 0.09592129290103912, 0.11367790400981903, 0.06245594844222069, 0.10400500893592834, 0.05530713126063347, 0.0761202722787857, 0.10869310051202774, 0.04983216151595116, 0.06389264762401581, 0.04910949617624283, 0.15553006529808044], [0.07310526818037033, 0.1702951043844223, 0.14612379670143127, 0.13077525794506073, 0.09067349880933762, 0.13602840900421143, 0.07542669773101807, 0.10966649651527405, 0.07599812000989914, 0.08938554674386978, 0.09903940558433533, 0.053447578102350235, 0.054395146667957306, 0.06191983446478844, 0.1451808214187622], [0.10599879920482635, 0.10838107764720917, 0.06539211422204971, 0.05115089192986488, 0.03823168948292732, 0.056179262697696686, 0.02521621622145176, 0.05863653123378754, 0.02433938905596733, 0.02581591159105301, 0.045892901718616486, 0.018182646483182907, 0.02002493478357792, 0.02300945296883583, 0.05711278319358826], [0.08179427683353424, 0.11391327530145645, 0.06309162825345993, 0.07194824516773224, 0.04893665388226509, 0.06328944116830826, 0.03317336365580559, 0.06762875616550446, 0.03406551480293274, 0.034573160111904144, 0.07211456447839737, 0.03080168552696705, 0.039382435381412506, 0.027286306023597717, 0.08147380501031876], [0.07372468709945679, 0.07914075255393982, 0.04532458633184433, 0.03913635015487671, 0.02434825710952282, 0.028785742819309235, 0.019570421427488327, 0.04612480103969574, 0.024106774479150772, 0.026087770238518715, 0.05053289234638214, 0.0220814049243927, 0.029699556529521942, 0.029913892969489098, 0.12417706847190857], [0.034732818603515625, 0.01767592877149582, 0.011404711753129959, 0.011115111410617828, 0.010300684720277786, 0.00707456236705184, 0.0074169752188026905, 0.012639633379876614, 0.007510664872825146, 0.00964444037526846, 0.01731150783598423, 0.008752848953008652, 0.01222482044249773, 0.015492986887693405, 0.04689265042543411], [0.08024073392152786, 0.11022810637950897, 0.06026026979088783, 0.04885755851864815, 0.03928304463624954, 0.04496510699391365, 0.02921278588473797, 0.03418128192424774, 0.02443251758813858, 0.025488391518592834, 0.03965812921524048, 0.026310257613658905, 0.024443749338388443, 0.025614554062485695, 0.0503266416490078], [0.050358615815639496, 0.03933015093207359, 0.024349363520741463, 0.016424674540758133, 0.01854024827480316, 0.014674686826765537, 0.009352031163871288, 0.013203282840549946, 0.008169653825461864, 0.012229385785758495, 0.02326323464512825, 0.013536580838263035, 0.01360571663826704, 0.013324752449989319, 0.03586771711707115], [0.05082389712333679, 0.04642656445503235, 0.02894693613052368, 0.024840734899044037, 0.017646171152591705, 0.0176301971077919, 0.015128033235669136, 0.020087838172912598, 0.014290769584476948, 0.015640554949641228, 0.024192173033952713, 0.01594567857682705, 0.014942176640033722, 0.016263632103800774, 0.035830333828926086], [0.03605323284864426, 0.04817512631416321, 0.02758917771279812, 0.02653680369257927, 0.021182963624596596, 0.020678579807281494, 0.014120500534772873, 0.01979312300682068, 0.01479128934442997, 0.016291603446006775, 0.022711195051670074, 0.016908273100852966, 0.01916036382317543, 0.026191357523202896, 0.050708770751953125], [0.05760747194290161, 0.04192986711859703, 0.027840811759233475, 0.023834919556975365, 0.021691549569368362, 0.01974332146346569, 0.015800252556800842, 0.018083427101373672, 0.013288522139191628, 0.0166255384683609, 0.01871064305305481, 0.018563559278845787, 0.019749537110328674, 0.01819758675992489, 0.03424936532974243], [0.05445142090320587, 0.07423244416713715, 0.039084095507860184, 0.02712194249033928, 0.020121466368436813, 0.019549302756786346, 0.01204415038228035, 0.018054712563753128, 0.011640943586826324, 0.01198884192854166, 0.01945859007537365, 0.012406548485159874, 0.012752564623951912, 0.016134129837155342, 0.03425430506467819], [0.039870720356702805, 0.03971191868185997, 0.01981256529688835, 0.017035067081451416, 0.012957707978785038, 0.014952592551708221, 0.009678488597273827, 0.013358572497963905, 0.009863479994237423, 0.010665451176464558, 0.01789996586740017, 0.013429694809019566, 0.012635954655706882, 0.0135845011100173, 0.021869584918022156], [0.04568052664399147, 0.028295382857322693, 0.014081920497119427, 0.011452174745500088, 0.006276748608797789, 0.007402785122394562, 0.006265018135309219, 0.009098431095480919, 0.005778368562459946, 0.0061851805076003075, 0.00939105823636055, 0.007126930635422468, 0.006738273426890373, 0.007030661217868328, 0.01429201290011406], [0.053635578602552414, 0.07209836691617966, 0.03720870241522789, 0.032809771597385406, 0.026445439085364342, 0.03164125233888626, 0.020589543506503105, 0.02617533504962921, 0.019696349278092384, 0.022023551166057587, 0.028609661385416985, 0.024090636521577835, 0.021301034837961197, 0.02586592175066471, 0.049902379512786865], [0.027376441285014153, 0.03287433832883835, 0.015365405939519405, 0.016123497858643532, 0.01311914436519146, 0.012471679598093033, 0.008685912936925888, 0.011698881164193153, 0.009262551553547382, 0.011423983611166477, 0.015271114185452461, 0.01087210513651371, 0.010811081156134605, 0.01418940257281065, 0.026706933975219727], [0.01457586232572794, 0.01711074821650982, 0.011059774085879326, 0.012908673845231533, 0.010752739384770393, 0.009964738972485065, 0.007910515181720257, 0.008338432759046555, 0.007547025568783283, 0.009696993045508862, 0.012037654407322407, 0.011603247374296188, 0.010063248686492443, 0.012254384346306324, 0.019425883889198303], [0.02821161597967148, 0.028680849820375443, 0.017659740522503853, 0.015888703987002373, 0.015002789907157421, 0.015986202284693718, 0.010054614394903183, 0.012270704843103886, 0.010307534597814083, 0.012630478478968143, 0.01992025040090084, 0.013427220284938812, 0.014439839869737625, 0.017285119742155075, 0.0350223034620285], [0.023679489269852638, 0.018824754282832146, 0.012394716963171959, 0.012260749004781246, 0.011735135689377785, 0.013595922850072384, 0.009721639566123486, 0.008941194042563438, 0.008869880810379982, 0.011918138712644577, 0.013007938861846924, 0.011681278236210346, 0.012329142540693283, 0.01635059528052807, 0.024861769750714302], [0.01093725673854351, 0.015005487948656082, 0.014514756388962269, 0.015365855768322945, 0.012338338419795036, 0.008689980022609234, 0.005549578927457333, 0.006944745313376188, 0.007415114436298609, 0.008085724897682667, 0.012272614985704422, 0.009907268919050694, 0.011295055039227009, 0.011596505530178547, 0.02312040701508522]], "r_slot_layer": [[-0.008775185785149341, 0.060403725212643075, 0.04658520948664743, 0.09252528948222374, 0.08464998673195469, 0.10795057693981266, 0.02822560931105372, 0.07639669514809935, 0.00325660688663142, 0.03097283447261343, 0.26345598049248775, -0.0025516623452083273, 0.08309447696152414, 0.1155230011038593, 0.08839346936766061], [-0.6060401181630016, -0.5866081298297553, -0.5427205628050044, -0.5520833221467136, -0.5664595916380671, -0.612092627244593, -0.5891469834908102, -0.6054444528312539, -0.5129500739337766, -0.5476697211787571, -0.3683165192869532, -0.3837878985562451, -0.47326721338589994, -0.5389641629069442, -0.47473276040624496], [-0.5658964368056704, -0.2764678031334044, -0.22356228709184844, -0.1627430135437044, -0.308548890583685, 0.03226503872597181, 0.013369423425751934, -0.1204178154099704, -0.0712621705570097, -0.13136397478785855, -0.029676971017068125, -0.10553501042314113, -0.20879884792305517, -0.264612106253118, -0.053682619022181056], [-0.5361960913910292, -0.40834533951922186, -0.4208964320520056, -0.37288044605301457, -0.4827895187041617, -0.5142541647363452, -0.33561318522397127, 0.11911260456903666, -0.1227519793878214, -0.48283235129640856, -0.16963554371461315, -0.48771797413110124, -0.4285856308488486, -0.5808122719536567, -0.38895700890929474], [-0.3081556127947477, -0.2686213679719437, -0.3818007101849043, -0.4171273826756595, -0.5049660455152621, -0.4935448192368779, -0.23846045382888686, -0.12716367130272646, -0.17124440654061224, -0.5264690186998993, -0.16755378186364722, -0.39096763257909123, -0.36330205958773526, -0.4538721890372139, -0.46522236185899224], [-0.047447255736995715, -0.22609754816497774, -0.3045880128509517, -0.3854664195481717, -0.45329461547788696, -0.4504818137844842, -0.26792367476042733, -0.17961494810207815, -0.054692673734027905, -0.34163949258525517, -0.6320066968564717, -0.20208205958125755, -0.3018016340133049, -0.4033971868626424, -0.6428135423670047], [-0.0017082296100090755, -0.12006995349403565, -0.043911780709595956, -0.17836167756415733, -0.14039914132743214, -0.18040294191472592, 0.01782396408576637, -0.028618449786447363, -0.0012383657078976632, -0.28110604928367106, -0.16140184885659767, -0.37964900054984, -0.24341593938224765, -0.19674107176803418, -0.2653324837371436], [-0.13025301737525197, 0.16871885381878343, 0.08658652758044956, 0.3935883750141452, 0.18015198078905428, 0.20551573039543145, 0.2727679623536863, -0.011256259310856253, 0.35288135335307913, 0.3585538910326128, -0.15014703710163638, 0.1077755762696073, 0.2796913295078424, 0.15672318861598578, -0.049685179390975276], [-0.02460260708737443, 0.039118406314255415, -0.3418491699389911, 0.092097107510404, -0.2761111076024713, -0.1892374438296074, -0.026333575603270605, -0.2428526225647432, -0.09065164900260757, 0.08567244850070488, -0.2668296896620675, -0.024748054142599944, 0.08085037922624716, -0.2412588922605287, -0.5388915857441096], [-0.29764069082380085, -0.06857076536608633, -0.2467846562295301, -0.10888495679564203, -0.18707275900535608, 0.10090278202825002, -0.01768081191469262, -0.13208604565876023, -0.08397261792436556, -0.0469988764803968, -0.49143364371705567, -0.056890309343456534, 0.08094757281826405, -0.3442603921262161, -0.458884668849971], [-0.05800727638950128, 0.23005945808344586, -0.02926669926189117, 0.18388018426805833, 0.11545869271829183, 0.12587951567187905, 0.16705319427991697, -0.24349586047334434, -0.1685548467908851, 0.12468151536815694, -0.20445686941367588, -0.2195261431330967, -0.020521299591390835, -0.4069266623491692, -0.4132309797455446], [0.3836280818922439, 0.5658849666207044, 0.3198072610084898, 0.47946554904961697, 0.04765307921272362, 0.13745537640492106, 0.3779302056168859, -0.33165899183415853, -0.03664462227932881, -0.023472457592330465, -0.5604818702326361, -0.28696944258997287, -0.13413982395956528, -0.5488517287165203, -0.6032230148137292], [0.22753707466969794, 0.42675415699845615, -0.33390481706297437, 0.3245595108969931, -0.051073340614447536, -0.30590773149932843, -0.12586712538501132, -0.5246127065338027, -0.3217028843034897, -0.26727822328962203, -0.6736375673432397, -0.47403419893508203, -0.23527224513327882, -0.6327673091361717, -0.6443084430186206], [0.29372731181106626, 0.4166719834650389, 0.09721558144979647, 0.5175010964840698, 0.38785062502513473, 0.3635870904020443, 0.33319152622586146, -0.2075980751481681, -0.03649938446100777, 0.10044783931840144, -0.5206131574767645, -0.16049058205772118, -0.2510460661751329, -0.4324482240817866, -0.47377786752570533], [0.3703766684945962, 0.2956844833494694, 0.2991344359535599, 0.3121591518510697, 0.2923338680578335, 0.1678592550004945, 0.30079947944968954, 0.04920059682089081, 0.09658237778021926, 0.10866565018558588, -0.36839896594536886, -0.3878477253553013, -0.29509261172519274, -0.31671364221600773, -0.015750262684043913], [0.2912087210542841, 0.6341404153537256, 0.21193547586399747, 0.4905564162767019, 0.24227643827905113, 0.48786840921744573, 0.4988534398056984, 0.24028617956110387, 0.25027991868047406, 0.34421839950068694, -0.26028388848066986, 0.0023029898962911187, -0.073210080988084, -0.39394014588935705, -0.3914127998218755], [0.544302777633382, 0.1137950312253159, 0.36658232389380935, 0.2778270013784524, 0.3707230572009871, 0.41972625686873155, 0.2799905433603822, 0.04549321156984229, 0.4351639903453862, 0.21459007316387152, -0.2930251921449945, 0.03874742402249478, -0.05851005879922716, -0.2818953802850692, -0.3317375825043924], [0.45159961830949324, 0.3351333700227582, 0.08702704425319295, 0.264238549344745, -0.0032056190667831587, 0.047419124614105544, 0.215015699595926, -0.029926087773521015, -0.12832954890515003, 0.36931230579051216, -0.4805866026101406, -0.3445158656671394, -0.04035490486391043, 0.00899722426299002, -0.1411707505948256], [-0.06521317114259602, 0.18266891593056253, -0.2071987494288988, 0.04760521251476183, -0.38136675496814815, -0.3078636476947836, -0.20533739223320469, -0.32899239668196334, -0.6022438126327829, -0.05703340023044298, -0.7523539426669799, -0.6401050532329647, -0.11849556708885949, -0.029460561908358853, -0.3972760227321629], [0.43507066875007977, 0.3034282360629082, -0.010348766860135052, 0.1099510722943919, -0.1836759535201621, -0.10005430839048074, -0.12917371601683347, -0.1655253055842255, -0.4462650912998007, -0.33929539117411117, -0.4873936917096218, -0.7510247770843128, -0.28160256103864506, -0.10807874487570766, -0.18555569140431588], [0.5069997255980633, 0.4480274413492396, 0.2007733985638887, 0.4862090474538536, -0.010705446841211295, 0.12572597010626282, 0.09554373349776074, -0.251114711419054, -0.2490848286353065, 0.27518378169966884, -0.6545744776611059, -0.5537426528408695, -0.03355492306979122, -0.10458413477785602, -0.39744041975497724], [0.28899877850427436, 0.4261776369605008, 0.312933806262289, 0.531355214415918, 0.0366490006603832, -0.012003436704688921, 0.033268630721541334, -0.18007035126718615, -0.12564989658519024, 0.41714334430225614, -0.23676570522404206, -0.5172626179665377, -0.03754543897500189, 0.2991621450532162, -0.10142886095624588], [0.23531815431042433, 0.6269770268540277, -0.3890792653566119, 0.32718192633864196, -0.18216933230154192, -0.1530390305341758, 0.12223243095387695, -0.3710578897462456, -0.3102876718445258, 0.2780327755655611, -0.6659152045998269, -0.5776161866019502, 0.08882717472830973, -0.026505056601483137, -0.21516744944136618], [0.06145160580077065, 0.46012201287300647, -0.14083314612347808, 0.3813622937726527, 0.07550704894097857, 0.09355736167297475, 0.11636413987908704, -0.29999942470267815, -0.41478368984224423, 0.25411553483331106, -0.6599493603679216, -0.4368404478270327, -0.016420579461504322, 0.10993066109750103, -0.3851769663084652], [-0.24921329055815059, 0.17788286686909546, -0.4955573362148965, 0.2600305234469931, -0.21865358103532062, -0.173564159174187, -0.043675703435592475, -0.36495549919078585, -0.45127589783951644, 0.1666563785570792, -0.6318924512201766, -0.5485331751054587, 0.01074033291897545, -0.3109294879491488, -0.4662716373518206], [-0.1477053902375406, 0.240097535332665, -0.3741579824731778, 0.2356352985205673, -0.12125228208900261, -0.2695959237647115, -0.14350087285207744, -0.3778982187703468, -0.3603195709307642, 0.26240648309230924, -0.6598837696226992, -0.65685952840102, -0.07565592630437926, -0.35267191532595743, -0.3949899724895853], [-0.11914723602530969, 0.38664352354391657, -0.008403977405674222, 0.26347638499888715, 0.02235184405320239, 0.06196527520111254, 0.021477832349555307, -0.29682613877304437, -0.2916316785499879, 0.17027364297519698, -0.575281479024437, -0.5253701063129443, -0.15760406431817686, -0.2443301822541127, -0.3916219913573016], [0.023479510912864595, 0.37455953824294297, -0.10182182023583826, 0.30680364584863884, 0.0708960753626836, -0.02556841758875541, -0.1424094582472445, -0.19833199177637612, -0.28960321470596934, -0.11058696352207402, -0.5227597030586514, -0.4671992686894112, -0.1821025170134056, -0.32744643938162643, -0.27877017992316533], [0.30562018869891977, 0.5816493778787599, -0.31064378796115333, 0.27507237037475274, -0.18204328001864245, -0.325606571817242, -0.13979920225765083, -0.3454247770726743, -0.39327282586520174, 0.1447187991560961, -0.6986227915671512, -0.5443928957193018, -0.2182751888753617, -0.36330080960634276, -0.60026731742766], [0.1521034793850148, 0.28923330389033186, 0.037295446922407646, 0.24177887159239927, 0.25171279255420814, 0.04904457538474606, 0.07903118937951785, -0.16963469432365427, -0.18379114412418374, 0.11950086521322617, -0.48563217666947534, -0.38702436745997665, -0.251896509212247, -0.10545407017010264, -0.19474117790345713], [0.3693968651849587, 0.47731370583655547, -0.48211294172622365, 0.3553240065992708, -0.23996861537626776, -0.23724500168514948, -0.011291156153192702, -0.34153297816380745, -0.31794754834236544, 0.1845610714526472, -0.6750775573200034, -0.3875705807141824, 0.029917410220234884, -0.31280635880852614, -0.636828121648836], [0.09916612002065017, 0.3426367878015934, -0.3314148522887292, 0.2303999699391416, -0.13570048133499113, -0.22728511264134596, -0.04497866430226481, -0.2949527867812876, -0.33536599211850515, -0.22452231852925533, -0.5935891377227601, -0.6267360956613238, -0.3260639294241592, -0.47616092964650475, -0.5371615646639077], [-0.34274465410875493, -0.04761919756884175, -0.48495137478981676, 0.14699133503690828, -0.12598832336487173, -0.1412175486821905, -0.11020877858083761, -0.3203729181518701, -0.3082168177284339, -0.03708612151866668, -0.5440095987634616, -0.5003584356903976, -0.23151896427432875, -0.41659664402077906, -0.5433746084330064], [0.3309744901223623, 0.590336779191048, 0.06797695139022085, 0.2453041628111577, 0.16273768838914848, 0.13826727993658228, 0.33798595188128, -0.14762589537546167, -0.07183291226517916, 0.38721226562116545, -0.36637041312467783, -0.3462868038752488, 0.003757423002176304, -0.1553919477159528, -0.4374347385565497], [0.1743698782359485, 0.3089259073343133, -0.3041965323437528, 0.2489442807520131, 0.007263035774928186, -0.13874198888293302, 0.08484774608849381, -0.191025216869069, -0.20007531491545513, 0.2072103255616258, -0.3615095520161341, -0.26915552119221386, -0.048719427525977424, -0.17264112227149853, -0.36575789105132805], [-0.20948729167767136, 0.24799473678629977, -0.20476228697429563, 0.19659499526669272, -0.0369605918963714, -0.04628657656832275, 0.3004642341310782, -0.06370705286777052, -0.1605642590170142, 0.18721473442584538, -0.21874440277971835, -0.21462966563485417, -0.03519998514181635, -0.2881474702667821, -0.4054154644208961], [0.4396705544678526, 0.5759625157784339, 0.053457838047408786, 0.37878509350289197, 0.16415626886239232, 0.1624255736300105, 0.34586819874122826, -0.11308674530285298, -0.1078942908059621, 0.43121224885653014, -0.42139072411014983, -0.2529351102685729, 0.031089676426446798, -0.11827927095732356, -0.34674230387765137], [0.206255844677104, 0.33983998595836035, 0.019053414844519334, 0.2591597948924059, 0.06904009768469326, 0.006855327816665865, 0.19909676535848486, -0.12048537258347379, -0.11254320943815187, 0.23162487500116075, -0.343921584397465, -0.3139757432550056, -0.11285747468107118, -0.19944637085466047, -0.3204129849368487], [0.01547088871295523, -0.28517173250092315, -0.1870429738581531, -0.17256341511953704, -0.3902087291259232, -0.0945230575052725, -0.28233522341422895, -0.04935741480039406, -0.14470605894068636, -0.36141410424023207, -0.04576219450187064, -0.21484118806406366, -0.17553163215458154, 0.0397177087990342, -0.0361272697728053], [0.4376312081102388, 0.6980623134704725, 0.3444396564879597, 0.4006767753451512, 0.3378513351272281, 0.3261147969173818, 0.4524588300148039, -0.04581107530755907, -0.0010993050763945824, 0.43881055697802224, -0.23615117179835549, -0.16105460705749058, 0.02202001809953546, 0.06418484965032915, -0.15935996643399442], [-0.14476011564286928, -0.03756045659629112, -0.018290269860777995, 0.1475308266379078, -0.0723424329958085, 0.07925291765268311, 0.07835308280021282, -0.1344133936720286, -0.14070635794655148, 0.07155662232213024, -0.3715675441141832, -0.4100437223329269, -0.18783753992058094, -0.36496794343125816, -0.3202305903447484], [0.2411122230697063, -0.15528122830774285, 0.6354529337638437, -0.11863121806093373, 0.551991353922348, 0.4528485912453591, 0.21715710517583217, 0.16223548047427047, 0.3047146460830321, 0.25235843949850667, 0.14314550088774047, 0.4680871731326473, 0.12972088097301643, 0.43729392876704426, 0.2429748394458222]]}, "gemma2-9b/weight": {"mean_total_layer": [0.2940634787082672, 0.10203965753316879, 0.1421797275543213, 0.2421664297580719, 0.5642364025115967, 0.1699267476797104, 0.4498792290687561, 0.10682255774736404, 0.530086100101471, 0.33355221152305603, 0.2987977862358093, 0.23181575536727905, 0.23573313653469086, 0.27715206146240234, 0.3965165615081787, 0.36034858226776123, 0.37485232949256897, 0.5681806206703186, 0.8395125865936279, 0.7203326225280762, 1.4481717348098755, 1.6864635944366455, 1.4273269176483154, 1.405999779701233, 0.5128272175788879, 0.7919477224349976, 0.5179079174995422, 0.19392317533493042, 0.654298722743988, 0.2366611361503601, 0.308174729347229, 0.2860194444656372, 0.3283267319202423, 0.3049798011779785, 0.2571452260017395, 0.14588889479637146, 0.4960026144981384, 0.23021505773067474, 0.14388415217399597, 0.24512265622615814, 0.20714209973812103, 0.1541372835636139], "r_total_layer": [-0.4397826446036713, -0.31453354387844457, -0.4825471176023638, -0.4111051521399889, -0.5141455910163708, -0.4985697067640067, -0.3716016629937531, -0.06738655805645435, -0.42894611051493015, -0.046977978739021445, -0.513185763090237, -0.5261243273626192, -0.26291985405146573, -0.3859341405550024, -0.4290472802967245, -0.39394408821848964, -0.3012978862101021, -0.28927741012136865, -0.22715257450773507, -0.36620599402373866, -0.4288158822957097, -0.3031799438678478, -0.1427428524734264, -0.07429738345988134, -0.3792409596068369, -0.2432549456046875, 0.28148019909725985, -0.5276991483829505, -0.26360970006337225, -0.24080700668392677, 0.20869377978979553, -0.36197361858063776, -0.3604025224998169, -0.16582464092331836, 0.13655946325104334, 0.09517203790679366, -0.12090056692246419, -0.20975609734163886, -0.5840198369260812, -0.003507132928605653, -0.48805604475012687, 0.06426674541220255], "mean_slot": [[0.010863179340958595, 0.009993212297558784, 0.01099180057644844, 0.01016912143677473, 0.011330926790833473, 0.013023892417550087, 0.01629401370882988, 0.015818247571587563, 0.015400276519358158, 0.018556442111730576, 0.0172682236880064, 0.02171342447400093, 0.02845645137131214, 0.037515491247177124, 0.05666876211762428], [0.012787525542080402, 0.008014794439077377, 0.00763277430087328, 0.005220162682235241, 0.0048324549570679665, 0.004411138594150543, 0.005046813748776913, 0.004391663242131472, 0.005208867136389017, 0.006488270126283169, 0.0063362424261868, 0.005342226009815931, 0.007470293901860714, 0.007503813598304987, 0.0113526014611125], [0.013077553361654282, 0.009110840037465096, 0.014593924395740032, 0.0065926918759942055, 0.007969527505338192, 0.007785693742334843, 0.005878977011889219, 0.0056595574133098125, 0.007384979631751776, 0.007764092646539211, 0.011096445843577385, 0.00696908961981535, 0.013833175413310528, 0.014022862538695335, 0.01044036727398634], [0.03136645630002022, 0.023417914286255836, 0.016867389902472496, 0.010127897374331951, 0.011858516372740269, 0.011041903868317604, 0.013627574779093266, 0.010374175384640694, 0.011375813744962215, 0.009925312362611294, 0.014623659662902355, 0.01370559073984623, 0.015751397237181664, 0.018303068354725838, 0.029799675568938255], [0.114225372672081, 0.04618057236075401, 0.04011628404259682, 0.03420684486627579, 0.028494426980614662, 0.027943473309278488, 0.02821110561490059, 0.0236083772033453, 0.022826261818408966, 0.024551913142204285, 0.02654455229640007, 0.028039345517754555, 0.030529532581567764, 0.03747941181063652, 0.05127916485071182], [0.02326657436788082, 0.01312632579356432, 0.012992109172046185, 0.01357144396752119, 0.012384958565235138, 0.0075415363535285, 0.008610239252448082, 0.00842326506972313, 0.017280329018831253, 0.008222960866987705, 0.009674334898591042, 0.006457360461354256, 0.009045595303177834, 0.010642035864293575, 0.008687742985785007], [0.06442965567111969, 0.02467990666627884, 0.02754824608564377, 0.020769290626049042, 0.018529269844293594, 0.020059790462255478, 0.024330882355570793, 0.020530642941594124, 0.02315468341112137, 0.025766737759113312, 0.0312846377491951, 0.02470594085752964, 0.03298325836658478, 0.03443991020321846, 0.056666430085897446], [0.026681246235966682, 0.008038686588406563, 0.006529798731207848, 0.0048872726038098335, 0.004273450933396816, 0.0038099114317446947, 0.003991879988461733, 0.0052108727395534515, 0.005458578001707792, 0.004978417418897152, 0.00539376400411129, 0.004883165471255779, 0.00478624552488327, 0.006883371155709028, 0.011015931144356728], [0.05573500692844391, 0.03618353605270386, 0.02789689414203167, 0.023680882528424263, 0.023259973153471947, 0.022673679515719414, 0.024244075641036034, 0.025221219286322594, 0.03369611129164696, 0.029618317261338234, 0.042138196527957916, 0.04092396795749664, 0.031933147460222244, 0.04088747128844261, 0.0719933956861496], [0.07490210980176926, 0.033305950462818146, 0.022891690954566002, 0.015266665257513523, 0.015551703982055187, 0.013203782960772514, 0.012452677823603153, 0.02331044338643551, 0.013283279724419117, 0.01888253539800644, 0.01574772410094738, 0.01735006459057331, 0.016106639057397842, 0.013630563393235207, 0.02766638807952404], [0.018827643245458603, 0.025362538173794746, 0.017486130818724632, 0.01531077641993761, 0.016296299174427986, 0.012761322781443596, 0.017081085592508316, 0.017297470942139626, 0.02242833375930786, 0.016970688477158546, 0.019880909472703934, 0.017690351232886314, 0.01877799816429615, 0.02151818387210369, 0.04110810533165932], [0.028933726251125336, 0.016597939655184746, 0.01265376154333353, 0.00938806589692831, 0.008717047050595284, 0.009692749008536339, 0.007909968495368958, 0.012012774124741554, 0.01024658139795065, 0.010083649307489395, 0.015971405431628227, 0.012141876854002476, 0.011211270466446877, 0.02102711983025074, 0.0452277734875679], [0.02731606550514698, 0.02282334305346012, 0.01931174285709858, 0.01631922274827957, 0.011969679035246372, 0.012520268559455872, 0.012149989604949951, 0.010391004383563995, 0.012102779000997543, 0.011955036781728268, 0.013827255927026272, 0.00989506859332323, 0.012816178612411022, 0.016672350466251373, 0.025663182139396667], [0.024289747700095177, 0.02022891491651535, 0.01249723695218563, 0.013346337713301182, 0.01284459326416254, 0.014033033512532711, 0.015624725259840488, 0.015046747401356697, 0.014117170125246048, 0.012642940506339073, 0.01738579571247101, 0.01106406282633543, 0.02191339060664177, 0.02040933445096016, 0.05170811712741852], [0.03367231413722038, 0.055589839816093445, 0.03183219954371452, 0.027649739757180214, 0.015984762459993362, 0.018598239868879318, 0.02551155537366867, 0.01672184281051159, 0.0178139079362154, 0.014829049818217754, 0.025960929691791534, 0.015224496833980083, 0.021963637322187424, 0.02687477134168148, 0.048289697617292404], [0.06841471791267395, 0.03432125225663185, 0.028943102806806564, 0.01963731460273266, 0.013912699185311794, 0.01664055697619915, 0.019968075677752495, 0.016457712277770042, 0.012388262897729874, 0.010241306386888027, 0.013299431651830673, 0.01106986217200756, 0.013447933830320835, 0.01952601596713066, 0.06208048015832901], [0.03812173381447792, 0.03263145312666893, 0.017280565574765205, 0.01615956798195839, 0.01353702787309885, 0.016523562371730804, 0.016707254573702812, 0.021494466811418533, 0.017871515825390816, 0.019244804978370667, 0.022448984906077385, 0.01680745929479599, 0.02131359651684761, 0.028733965009450912, 0.07597620040178299], [0.03213442862033844, 0.06416389346122742, 0.0674419179558754, 0.04310296103358269, 0.02804497256875038, 0.0263199582695961, 0.029813814908266068, 0.03586379811167717, 0.02705339714884758, 0.03339725360274315, 0.03402886539697647, 0.026589471846818924, 0.03514070063829422, 0.03655150905251503, 0.04853330925107002], [0.05117625370621681, 0.08699003607034683, 0.08284761011600494, 0.05894656851887703, 0.050851691514253616, 0.04659508541226387, 0.04895424097776413, 0.08454443514347076, 0.04958456754684448, 0.04496391862630844, 0.04704458266496658, 0.0431704968214035, 0.0405384860932827, 0.04156456142663956, 0.061740390956401825], [0.034832753241062164, 0.060924872756004333, 0.06617127358913422, 0.041786305606365204, 0.03666798025369644, 0.044032759964466095, 0.0427611842751503, 0.04642238840460777, 0.04021326079964638, 0.044317614287137985, 0.05938272178173065, 0.04974150285124779, 0.03301970288157463, 0.04354130104184151, 0.07651744037866592], [0.06027485802769661, 0.16083943843841553, 0.12879835069179535, 0.11547786742448807, 0.10868701338768005, 0.09899821877479553, 0.08343810588121414, 0.09702840447425842, 0.09416873753070831, 0.09780051559209824, 0.08283881098031998, 0.08043988794088364, 0.05789300054311752, 0.06859350949525833, 0.1128939688205719], [0.05938693508505821, 0.18110398948192596, 0.15554244816303253, 0.140091672539711, 0.13992784917354584, 0.12877880036830902, 0.10731849074363708, 0.10125312209129333, 0.09128682315349579, 0.1069098487496376, 0.09527237713336945, 0.09643108397722244, 0.06063563749194145, 0.08248796314001083, 0.14003697037696838], [0.07872427254915237, 0.2389003336429596, 0.1520175039768219, 0.1136990338563919, 0.11484511941671371, 0.10791360586881638, 0.07305575162172318, 0.09865755587816238, 0.048453520983457565, 0.06978759169578552, 0.07383830845355988, 0.04492541030049324, 0.04782240465283394, 0.055926043540239334, 0.1087619736790657], [0.042670149356126785, 0.16348545253276825, 0.12148141860961914, 0.1406831592321396, 0.09887374192476273, 0.10141940414905548, 0.08110153675079346, 0.09644318372011185, 0.08262158930301666, 0.07919598370790482, 0.07075444608926773, 0.06466715037822723, 0.04591844603419304, 0.08043207228183746, 0.1362512856721878], [0.061056677252054214, 0.08789493143558502, 0.04960352182388306, 0.050691116601228714, 0.025318285450339317, 0.028920307755470276, 0.018374960869550705, 0.033094022423028946, 0.018092576414346695, 0.02000238001346588, 0.028618885204195976, 0.015574338845908642, 0.013596105389297009, 0.02356305532157421, 0.03842664137482643], [0.06205492466688156, 0.10821603238582611, 0.07408363372087479, 0.06015165150165558, 0.042615849524736404, 0.04943213239312172, 0.03555143252015114, 0.05985430255532265, 0.02680855616927147, 0.03247053176164627, 0.04859517887234688, 0.034285567700862885, 0.03774494305253029, 0.043868161737918854, 0.0762154832482338], [0.04741532728075981, 0.06049825996160507, 0.034553565084934235, 0.023240456357598305, 0.020122945308685303, 0.02722296677529812, 0.021252617239952087, 0.03883513808250427, 0.018267692998051643, 0.024327460676431656, 0.025840751826763153, 0.019590601325035095, 0.025806400924921036, 0.041029270738363266, 0.0899045467376709], [0.028172943741083145, 0.015560418367385864, 0.011751522310078144, 0.010134994052350521, 0.006547090597450733, 0.006922506261616945, 0.008403627201914787, 0.008973989635705948, 0.008055402897298336, 0.00938265398144722, 0.01123188715428114, 0.008026150055229664, 0.011029059998691082, 0.015556941740214825, 0.03417414054274559], [0.067953921854496, 0.0740073025226593, 0.06162221357226372, 0.05372074991464615, 0.040955375880002975, 0.04472146928310394, 0.035515911877155304, 0.047763340175151825, 0.026325184851884842, 0.02949860878288746, 0.039011094719171524, 0.027723176404833794, 0.027521666139364243, 0.03127278760075569, 0.04668576642870903], [0.03813622519373894, 0.02870825305581093, 0.018063394352793694, 0.013100279495120049, 0.012264792807400227, 0.012056499719619751, 0.010150641202926636, 0.011288431473076344, 0.00863499566912651, 0.01131199486553669, 0.014536571688950062, 0.010095914825797081, 0.010781376622617245, 0.013826570473611355, 0.02370516210794449], [0.035308562219142914, 0.038094453513622284, 0.02723604068160057, 0.019382264465093613, 0.014767913147807121, 0.016649123281240463, 0.01532044354826212, 0.021247498691082, 0.012805248610675335, 0.014023851603269577, 0.01934291236102581, 0.012735961936414242, 0.014201800338923931, 0.017806310206651688, 0.029252490028738976], [0.026247087866067886, 0.030620291829109192, 0.023368563503026962, 0.017146920785307884, 0.014347276650369167, 0.013159387744963169, 0.012408461421728134, 0.017434483394026756, 0.012903810478746891, 0.014775681309401989, 0.016721531748771667, 0.01295014563947916, 0.01613643765449524, 0.021914681419730186, 0.03588460758328438], [0.032833315432071686, 0.031448185443878174, 0.027902694419026375, 0.019967269152402878, 0.017504962161183357, 0.02001054398715496, 0.016608677804470062, 0.01886899024248123, 0.013768207281827927, 0.016226714476943016, 0.01912267692387104, 0.017603915184736252, 0.020993579179048538, 0.02094625122845173, 0.03452045097947121], [0.04115305840969086, 0.05257630720734596, 0.03468931466341019, 0.02538628876209259, 0.016759192571043968, 0.014478989876806736, 0.01212275493890047, 0.014504479244351387, 0.009518568404018879, 0.011025615967810154, 0.014734695665538311, 0.009527835063636303, 0.012305794283747673, 0.01415343675762415, 0.022043609991669655], [0.02597884275019169, 0.03165462240576744, 0.023020725697278976, 0.017183491960167885, 0.013053933158516884, 0.01548689603805542, 0.011066637001931667, 0.016821883618831635, 0.008657300844788551, 0.012976239435374737, 0.015735521912574768, 0.013991736806929111, 0.01495958212763071, 0.015162291936576366, 0.021395666524767876], [0.029161665588617325, 0.019969139248132706, 0.012897945009171963, 0.008560540154576302, 0.0062947883270680904, 0.006873432546854019, 0.0064784931018948555, 0.008148380555212498, 0.0044373515993356705, 0.0061582960188388824, 0.006713621784001589, 0.005621290300041437, 0.007373328786343336, 0.007562889717519283, 0.009637746959924698], [0.036584191024303436, 0.061977818608284, 0.046354781836271286, 0.03502321243286133, 0.029984721913933754, 0.03149382770061493, 0.023532237857580185, 0.03260225057601929, 0.016547221690416336, 0.021068507805466652, 0.027948692440986633, 0.024096187204122543, 0.028356045484542847, 0.03653882443904877, 0.0438942015171051], [0.018910076469182968, 0.026591157540678978, 0.019914286211133003, 0.016487441956996918, 0.01369025930762291, 0.013390843756496906, 0.010942540131509304, 0.0141108687967062, 0.008690322749316692, 0.01069240365177393, 0.013584106229245663, 0.012725616805255413, 0.01273277960717678, 0.01609196327626705, 0.021660268306732178], [0.012038083747029305, 0.010814296081662178, 0.01079638209193945, 0.009542194195091724, 0.008881529793143272, 0.007663757540285587, 0.0073374193161726, 0.009293950162827969, 0.006223752163350582, 0.007350406143814325, 0.010860550217330456, 0.009134490042924881, 0.008262228220701218, 0.010531135834753513, 0.01515399944037199], [0.021976297721266747, 0.025489337742328644, 0.018451444804668427, 0.016552871093153954, 0.014341296628117561, 0.012566804885864258, 0.00955724436789751, 0.012398120015859604, 0.00946285855025053, 0.0124791469424963, 0.01638653129339218, 0.013477283529937267, 0.015564940869808197, 0.01954795978963375, 0.026870593428611755], [0.01648877002298832, 0.01698227971792221, 0.015332825481891632, 0.01316765509545803, 0.015352781862020493, 0.012605540454387665, 0.009087403304874897, 0.01058070920407772, 0.00939622987061739, 0.010875470004975796, 0.012630871497094631, 0.011029698885977268, 0.012396157719194889, 0.01709221675992012, 0.02412334270775318], [0.008211217820644379, 0.014625092968344688, 0.014656770043075085, 0.01177461538463831, 0.009104049764573574, 0.007102759554982185, 0.006346335634589195, 0.010046172887086868, 0.00459744269028306, 0.006992449052631855, 0.007500823587179184, 0.008194576017558575, 0.011947744525969028, 0.013959761708974838, 0.01907740905880928]], "r_slot_layer": [[-0.39897048472910795, -0.3095252457879176, -0.2619928420115679, -0.1782462400193301, -0.36505608861017846, -0.3671431223089483, -0.21018919345627596, -0.4301307231945477, -0.3921700295617255, -0.3849845651027735, -0.2937102549215464, -0.39680436305834144, -0.2604346644989406, -0.4068845071714822, -0.3800210312950988], [-0.06768888204628927, -0.2267989527100834, -0.11458693669747383, -0.1312476835610613, -0.18323890114872193, -0.28568927254726, -0.18879899275417034, -0.3307508703407863, -0.13001464336161914, -0.31739644663284533, 0.006036994926457205, -0.2950538698908512, -0.17686754399844876, -0.09351304876655275, -0.22869535129191887], [-0.2885994938297084, -0.2746704431619922, -0.0003035384765831342, -0.43213429732234543, -0.2945190245781326, -0.32547857824863224, -0.19235803793711115, -0.1986610051355664, -0.023233848131960153, -0.19749724418774348, -0.1518865869101341, -0.4079069500874681, -0.31479875036183946, -0.283100284271583, -0.35348400262625346], 